tree
version=v3
num_class=1
num_tree_per_iteration=1
label_index=0
max_feature_idx=9
objective=binary sigmoid:1
feature_names=Column_0 Column_1 Column_2 Column_3 Column_4 Column_5 Column_6 Column_7 Column_8 Column_9
feature_infos=[17:95] [0:4918] [1:56] [0:999] [0:7] [-3.3999999999999999:1.3999999999999999] [92.200999999999993:94.766999999999996] [-50.799999999999997:-26.899999999999999] [0.63400000000000001:5.0449999999999999] [4963.6000000000004:5228.1000000000004]
tree_sizes=3294 3399 3390 3383 3392 3390 3393 3395 3393 3395 3382 3407 3414 3405 3404 3409 3412 3408 3422 3414 3410 3400 3402 3392 3412 3412 3411 3409 3416 3417 3417 3409 3408 3413 3409 3414 3418 3413 3406 3426 3419 3430 3423 3425 3418 3425 3417 3427 3417 3438 3420

Tree=0
num_leaves=31
num_cat=0
split_feature=9 1 1 3 7 1 1 1 8 1 8 1 8 3 8 0 0 6 8 5 1 1 1 1 3 1 4 4 8 1
split_gain=4966.2 4220 1875.89 454.214 445.284 440.243 196.018 186.658 172.839 129.22 127.406 199.775 110.84 83.1798 76.2774 71.1944 68.2618 58.1947 54.9132 49.6947 46.1791 41.2271 39.4885 38.5514 34.3994 31.6773 28.5799 23.7957 23.7235 22.5666
threshold=5087.6500000000005 554.50000000000011 159.50000000000003 513.00000000000011 -46.649999999999999 835.50000000000011 426.50000000000006 264.50000000000006 1.5255000000000003 186.50000000000003 1.3685000000000003 216.50000000000003 1.4025000000000001 11.500000000000002 4.9635000000000007 30.500000000000004 59.500000000000007 93.89700000000002 1.3490000000000004 -2.3499999999999996 77.500000000000014 107.50000000000001 647.50000000000011 93.500000000000014 3.5000000000000004 478.50000000000006 1.0000000180025095e-35 1.0000000180025095e-35 1.2650000000000003 198.50000000000003
decision_type=2 2 2 2 2 2 2 2 2 2 2 2 2 2 2 2 2 2 2 2 2 2 2 2 2 2 2 2 2 2
left_child=2 4 13 -4 8 12 24 29 10 23 11 -2 18 -1 22 21 -17 25 -3 -9 -15 -12 -14 -10 -6 -8 -21 -23 -27 -5
right_child=1 5 3 7 6 -7 17 19 9 -11 15 -13 14 20 -16 16 -18 -19 -20 26 -22 27 -24 -25 -26 28 -28 -29 -30 -31
leaf_value=-2.0340386052011374 -2.0619354601812359 -2.0218870775431048 -1.9867876994778164 -2.0337685503412959 -2.0389143883454044 -2.0086988224906128 -2.05449461405173 -2.0125893949630509 -2.0612722389103983 -1.9866059161838319 -2.0614846431082481 -1.999486663094294 -2.0466947045143744 -2.0666790824022039 -2.0178893062177639 -2.0608975325015666 -2.0298958908039957 -2.0594965398163723 -1.98103511800906 -1.9928923475552025 -2.052336968575577 -2.0281371840457973 -2.0354297281719811 -2.0262255462651475 -2.0662068452561493 -2.0117820608113473 -2.0101062649331376 -2.0562606479719374 -2.0426630303110089 -2.0228512476297187
leaf_weight=20.019080579280853 9.8586426973342913 28.368747353553772 77.66196084022522 32.191486358642578 4.6275261640548697 113.87738299369812 28.771140933036804 64.68476790189743 5.2311165332794207 6.840690851211547 7.2430844306945827 10.663429856300352 55.630912363529205 30.481313645839691 17.10172712802887 121.1204674243927 7.5448796153068534 90.538555383682251 3.7221406102180472 28.46934574842453 85.206840455532074 15.693349599838259 70.620073199272156 7.8466747999191284 2274.1273144483566 2.7161566615104666 14.586767256259916 3.7221406102180472 29.575928092002869 45.973466455936432
leaf_count=199 98 282 772 320 46 1132 286 643 52 68 72 106 553 303 170 1204 75 900 37 283 847 156 702 78 22606 27 145 37 294 457
internal_value=-2.05573 -2.06026 -2.02265 -2.0071 -2.06425 -2.02401 -2.06542 -2.01558 -2.04974 -2.02182 -2.0529 -2.02949 -2.03395 -2.05286 -2.03771 -2.056 -2.05908 -2.05441 -2.01715 -2.00705 -2.05612 -2.04112 -2.04039 -2.04024 -2.06615 -2.04686 -1.99872 -2.03353 -2.04007 -2.02735
internal_weight=0 2915.44 399.275 263.568 2626.12 289.321 2430.36 185.906 195.764 19.9185 175.846 20.5221 175.444 135.707 143.353 155.324 128.665 151.602 32.0909 107.741 115.688 26.6586 126.251 13.0778 2278.75 61.0632 43.0561 19.4155 32.2921 78.165
internal_count=32950 28981 3969 2620 26105 2876 24159 1848 1946 198 1748 204 1744 1349 1425 1544 1279 1507 319 1071 1150 265 1255 130 22652 607 428 193 321 777
is_linear=0
shrinkage=1


Tree=1
num_leaves=31
num_cat=0
split_feature=9 1 1 1 7 3 1 8 8 1 1 1 8 3 8 8 0 0 8 1 1 5 1 1 3 4 6 1 4 8
split_gain=4759.73 4085.02 1721.66 478.257 443.424 393.699 166.972 165.099 121.227 184.956 117.037 114.312 103.873 80.0066 72.0428 70.3993 66.8798 61.9551 50.5361 46.4914 45.5428 43.3628 38.7061 27.8993 26.677 24.6219 23.4153 23.2835 22.262 21.4839
threshold=5087.6500000000005 526.50000000000011 159.50000000000003 835.50000000000011 -46.649999999999999 513.00000000000011 264.50000000000006 1.5255000000000003 1.3685000000000003 216.50000000000003 152.50000000000003 389.50000000000006 1.4025000000000001 11.500000000000002 1.2885000000000002 4.9635000000000007 30.500000000000004 59.500000000000007 1.3490000000000004 647.50000000000011 77.500000000000014 -2.3499999999999996 107.50000000000001 594.50000000000011 3.5000000000000004 1.0000000180025095e-35 93.89700000000002 93.500000000000014 1.0000000180025095e-35 1.4490000000000003
decision_type=2 2 2 2 2 2 2 2 2 2 2 2 2 2 2 2 2 2 2 2 2 2 2 2 2 2 2 2 2 2
left_child=2 4 13 12 7 -4 -7 8 9 -2 27 24 18 -1 -13 19 22 -18 23 -14 -15 -8 -10 -3 -6 -23 -16 -9 -24 -5
right_child=1 3 5 29 11 6 21 10 16 -11 -12 14 15 20 26 -17 17 -19 -20 -21 -22 25 28 -25 -26 -27 -28 -29 -30 -31
leaf_value=0.021113874067504045 -0.0061759640716793083 0.017520223738335641 0.064721859724687733 0.05282852039755178 0.014397534005741324 0.027485160348427684 0.041306521152567985 -0.0055133520032716633 -0.0057254865853318708 0.053642822065158552 0.057411036060406886 0.018979718863374934 0.0086215776018956844 -0.010935192132339401 0.00082434268750558397 0.033546087365077443 -0.0052196007681938605 0.024241285961787935 0.066707116645501441 0.019780863003162698 0.0033474598112076797 0.059266255915117645 0.026707923012259722 0.036879674041003729 -0.010591866841805802 0.043601018623795174 -0.006902856561658309 0.024186956064317672 -0.00052837736510416577 0.042603256515648821
leaf_weight=20.356588631868362 9.8114030063152331 11.097215853631495 81.87326854467392 26.492067471146584 4.2802833169698706 79.892680518329144 66.8655626475811 5.2087246179580706 7.210894167423251 10.923602759838102 9.888288661837576 14.537758827209471 77.850470267236233 30.223973751068115 60.302375264465809 20.949678055942059 118.93364715576172 7.5939162522554389 4.3544347062706938 71.733919501304626 85.430344454944134 29.87430365383625 15.516627550125124 22.612359568476677 2193.2877305150032 15.107180438935755 112.14307373762131 5.3513171374797821 3.7206056714057913 91.574941888451576
leaf_count=199 98 108 772 254 42 777 643 52 72 104 94 144 770 303 599 203 1187 74 41 702 847 283 151 219 21980 145 1120 52 37 878
internal_value=0 -0.00450094 0.0319106 0.0288145 -0.00872126 0.046365 0.0385266 0.00581098 0.00264718 0.0253377 0.0326878 -0.00990453 0.0197114 0.00283269 -0.00239848 0.0163776 -0.0004284 -0.00345142 0.0346478 0.0139731 -0.000385029 0.0464135 0.0140337 0.0305065 -0.0105432 0.054005 -0.00420074 0.00953732 0.0214402 0.0448976
internal_weight=0 2905.38 409.624 326.665 2578.71 273.613 191.74 194.159 173.711 20.735 20.4483 2384.55 208.598 136.011 186.983 170.534 152.976 126.528 38.064 149.584 115.654 111.847 26.4481 33.7096 2197.57 44.9815 172.445 10.56 19.2372 118.067
internal_count=32950 28981 3969 3175 25806 2620 1848 1921 1723 202 198 23885 2043 1349 1863 1675 1521 1261 368 1472 1150 1071 260 327 22022 428 1719 104 188 1132
is_linear=0
shrinkage=0.01


Tree=2
num_leaves=31
num_cat=0
split_feature=9 1 1 1 7 3 8 1 8 1 1 1 8 3 8 0 8 0 1 1 5 8 1 3 1 1 1 4 2 6
split_gain=4567.49 3956.96 1585.91 452.21 434.932 344.427 157.819 150.168 116.336 174.834 106.307 102.204 100.135 76.9987 68.7777 63.675 63.0694 60.3293 48.2609 44.9169 38.1543 36.5678 36.4848 26.2853 23.8497 22.3302 22.0588 21.5302 21.4252 20.3661
threshold=5087.6500000000005 519.50000000000011 159.50000000000003 835.50000000000011 -46.649999999999999 513.00000000000011 1.5255000000000003 264.50000000000006 1.3685000000000003 216.50000000000003 152.50000000000003 389.50000000000006 1.4025000000000001 11.500000000000002 4.9635000000000007 30.500000000000004 1.2885000000000002 58.500000000000007 647.50000000000011 77.500000000000014 -2.3499999999999996 1.3490000000000004 107.50000000000001 3.5000000000000004 594.50000000000011 93.500000000000014 128.50000000000003 1.5000000000000002 1.5000000000000002 93.89700000000002
decision_type=2 2 2 2 2 2 2 2 2 2 2 2 2 2 2 2 2 2 2 2 2 2 2 2 2 2 2 2 2 2
left_child=2 4 13 12 6 -4 8 -7 9 -2 25 23 21 -1 18 22 28 -17 -14 -15 -9 24 -10 -6 -3 -8 -19 -22 -13 -18
right_child=1 3 5 -5 11 7 10 20 15 -11 -12 16 14 19 -16 17 29 26 -20 -21 27 -23 -24 -25 -26 -27 -28 -29 -30 -31
leaf_value=0.020565490390534517 -0.0061436845188718118 0.018220194768796605 0.061016132797315388 0.042952394988630072 0.014095995877970433 0.026641726230637427 -0.0054817003012166722 0.039623457319206759 -0.0056935587888621219 0.051934518212457495 0.054414200066265406 0.031165804028203684 0.0081288492066649148 -0.010918601475157655 0.032123787312741875 -0.0053772065711538402 0.00031976454429789999 0.0010794589798307304 0.01928673505501027 0.0033053883559952314 0.053868339241565179 0.058425171044319046 0.02070275475099927 -0.010572950949901015 0.035493620359823737 0.023504152571615478 0.03401653526530405 0.033309020220959613 0.0064816772578808728 -0.0070023143251113484
leaf_weight=20.688705712556839 9.7645597904920596 12.179196640849112 85.955723345279694 122.15837593376637 4.3278850615024558 81.589008368551731 5.1865240931510943 68.997640527784824 7.1789780259132412 11.047424331307409 10.326252520084379 6.3562209606170637 82.874748222529888 29.968478254973888 22.304203525185585 117.15645079314709 58.612200945615768 3.2218056544661504 72.83041687309742 85.651412546634674 41.039213255047798 5.0080095008015624 19.350470244884491 2175.3295601904392 23.257095582783222 5.4511939287185669 5.5122318342328072 5.81545266509056 7.8702068701386452 107.95303156971931
leaf_count=199 98 117 772 1132 42 777 52 643 72 101 94 62 815 303 211 1174 582 31 702 847 374 45 186 21980 219 52 53 54 77 1084
internal_value=0 -0.00447243 0.0308265 0.027544 -0.00874119 0.0443078 0.00564423 0.0370339 0.00250818 0.0246854 0.0315584 -0.00992469 0.0189276 0.00279785 0.0157005 -0.000519981 -0.00269963 -0.00348708 0.0133479 -0.000381446 0.0443526 0.0331315 0.0135598 -0.010524 0.0295569 0.00937181 0.0218667 0.0513166 0.0175103 -0.00442577
internal_weight=0 2895.26 419.706 340.612 2554.64 283.397 194.196 197.441 173.232 20.812 20.964 2360.45 218.454 136.309 178.009 152.42 180.792 125.89 155.705 115.62 115.852 40.4443 26.5294 2179.66 35.4363 10.6377 8.73404 46.8547 14.2264 166.565
internal_count=32950 28981 3969 3241 25740 2620 1913 1848 1715 199 198 23827 2109 1349 1728 1516 1805 1258 1517 1150 1071 381 258 22022 336 104 84 428 139 1666
is_linear=0
shrinkage=0.01


Tree=3
num_leaves=31
num_cat=0
split_feature=9 1 1 7 1 3 6 1 8 1 1 1 8 3 8 0 8 0 1 1 1 5 8 3 1 1 1 6 2 1
split_gain=4388.01 3836.43 1465.74 430.552 414.29 303.856 150.16 135.727 113.401 162.524 101.995 96.1861 93.2209 74.1447 64.3358 63.943 61.317 52.2878 45.8427 44.3012 34.985 33.8237 32.762 25.9053 21.942 21.0938 20.4022 20.1347 20.1227 19.9048
threshold=5087.6500000000005 519.50000000000011 159.50000000000003 -46.649999999999999 835.50000000000011 513.00000000000011 93.01900000000002 264.50000000000006 1.3685000000000003 216.50000000000003 389.50000000000006 152.50000000000003 1.4025000000000001 11.500000000000002 4.9635000000000007 30.500000000000004 1.2885000000000002 59.500000000000007 647.50000000000011 77.500000000000014 107.50000000000001 -2.3499999999999996 1.3490000000000004 3.5000000000000004 594.50000000000011 93.500000000000014 206.50000000000003 93.89700000000002 1.5000000000000002 198.50000000000003
decision_type=2 2 2 2 2 2 2 2 2 2 2 2 2 2 2 2 2 2 2 2 2 2 2 2 2 2 2 2 2 2
left_child=2 3 13 6 12 -4 11 29 9 -8 23 25 22 -1 18 20 28 -17 -14 -15 -10 -9 24 -5 -3 -2 -19 -18 -12 -7
right_child=1 4 5 10 -6 7 8 21 15 -11 16 -13 14 19 -16 17 27 26 -20 -21 -22 -23 -24 -25 -26 -27 -28 -29 -30 -31
leaf_value=0.020041608372861088 -0.0057672087315267725 0.017788028494360508 0.057733422543369307 0.013804559016920313 0.041169495163512204 0.019977392746575479 -0.0061114658449496076 0.038071028969577793 -0.0056617062600042845 0.04945602154649141 0.030123772629199803 0.048983302720408482 0.0079971329281200085 -0.010902155138821741 0.031035411541784703 -0.0054077054743993293 0.00031648807332987269 0.010295831173975246 0.018813593125950965 0.0032639596254277498 0.020173377739457515 0.04889086018939344 0.055387094635414136 -0.010554147976130475 0.034205331818315893 0.021675700933314758 0.045348257128892053 -0.0069702710441125609 0.0063848297715507988 0.029919570515131888
leaf_weight=21.015532642602921 5.462645351886751 12.349472641944883 89.913892209529877 4.3748215287923804 126.15334413945675 34.121444225311279 9.7181093990802783 71.082242339849472 7.1473327875137356 11.482780680060385 6.5095411986112577 12.070734411478041 83.394692808389664 29.714822642505169 22.852689705789089 116.1892733424902 58.626685753464699 5.077777571976184 73.909884363412857 85.870069973170757 19.658095389604568 48.677870012819767 5.2287211269140235 2157.5024008750916 23.888440422713757 5.7481393814086914 2.467371478676796 107.36776011437178 7.9094903320074081 49.133602425456047
leaf_count=199 55 117 772 42 1132 320 98 643 72 101 62 107 815 303 211 1169 582 48 702 847 186 428 45 21980 219 54 23 1084 77 457
internal_value=0 -0.00444419 0.0298148 -0.0087134 0.0267031 0.0424295 0.00556251 0.0356515 0.00233176 0.0239849 -0.00990203 0.0293948 0.0184685 0.00276358 0.015357 -0.000717699 -0.00267849 -0.00375115 0.0130793 -0.000377897 0.0132848 0.0424689 0.0319869 -0.0105049 0.0286105 0.00830368 0.0217585 -0.0043967 0.0171019 0.0258448
internal_weight=0 2885.09 429.529 2537.31 347.777 292.929 195.022 203.015 171.741 21.2009 2342.29 23.2815 221.624 136.6 180.157 150.54 180.413 123.734 157.305 115.585 26.8054 119.76 41.4666 2161.88 36.2379 11.2108 7.54515 165.994 14.419 83.255
internal_count=32950 28981 3969 25740 3241 2620 1913 1848 1697 199 23827 216 2109 1349 1728 1498 1805 1240 1517 1150 258 1071 381 22022 336 109 71 1666 139 777
is_linear=0
shrinkage=0.01


Tree=4
num_leaves=31
num_cat=0
split_feature=9 1 1 7 1 3 8 1 8 1 1 1 8 3 0 8 8 0 1 1 1 5 8 1 3 1 6 1 4 2
split_gain=4220.03 3722.34 1358.82 426.235 380.815 270.106 143.367 123.24 107.404 151.553 101.786 91.2503 86.975 71.4338 60.3046 60.2893 59.6338 56.9103 43.6955 43.5836 33.5705 30.1899 29.5265 28.993 25.5364 20.2449 19.9053 19.8366 19.0373 18.9293
threshold=5087.6500000000005 519.50000000000011 159.50000000000003 -46.649999999999999 835.50000000000011 513.00000000000011 1.5255000000000003 264.50000000000006 1.3685000000000003 216.50000000000003 389.50000000000006 105.50000000000001 1.4025000000000001 11.500000000000002 30.500000000000004 4.9635000000000007 1.2885000000000002 58.500000000000007 77.500000000000014 647.50000000000011 107.50000000000001 -2.3499999999999996 1.3490000000000004 186.50000000000003 3.5000000000000004 594.50000000000011 93.89700000000002 128.50000000000003 1.0000000180025095e-35 1.5000000000000002
decision_type=2 2 2 2 2 2 2 2 2 2 2 2 2 2 2 2 2 2 2 2 2 2 2 2 2 2 2 2 2 2
left_child=2 3 13 6 12 -4 8 -7 9 -2 24 -8 22 -1 20 19 29 -16 -15 -14 -10 -9 25 -13 -5 -3 -18 -19 -23 -12
right_child=1 4 5 10 -6 7 11 21 14 -11 16 23 15 18 17 -17 26 27 -20 -21 -22 28 -24 -25 -26 -27 -28 -29 -30 -31
leaf_value=0.019540600585500494 -0.0060793094721392337 0.017373042885731313 0.054804430923614138 0.013522725145123241 0.039528947107136926 0.025090660820690395 -0.00094867201956356107 0.036634360053946387 -0.005629926987312568 0.047210239265945864 0.029145592637133115 0.028345413806771733 0.0078684572100241722 -0.010885847722509815 -0.0053168877057758589 0.03001513148836802 0.00031324647409385195 0.00097767338970645556 0.0032231606952494375 0.018360108151547785 0.019667229310996012 0.051023008586599881 0.05266423902282151 0.05607818926696357 -0.010535455166655786 0.033004654690204971 -0.0069382676284379411 0.031878642602122045 0.037981282958952083 0.0062899521189329387
leaf_weight=21.337167277932167 9.6720503717660922 12.517160147428511 93.751956731081009 4.421103671193122 130.05487604439259 84.891272589564323 6.7686119154095676 73.120570555329323 7.1159579157829311 11.906512275338171 6.6599579155445081 7.0322593674063674 83.908286280930042 29.463004656136036 116.2220871374011 23.390434175729752 58.641023695468903 3.2450272589921934 86.086348287761211 74.972625330090523 19.960818395018578 33.692209489643574 5.4429442808032027 8.1253872215747815 2139.8059250414371 24.506707370281219 106.78728605806828 5.7735305652022362 16.760719612240791 7.9483116939663887
leaf_count=199 98 117 772 42 1132 777 67 643 72 101 62 63 815 303 1174 211 582 31 847 702 186 283 45 68 21980 219 1084 53 145 77
internal_value=0 -0.00441623 0.0288681 -0.00868574 0.02591 0.0407072 0.00548291 0.0343673 0.0024446 0.0233245 -0.00987947 0.0295795 0.0180287 0.00272986 -0.000513423 0.015026 -0.0026575 -0.0034391 -0.000374382 0.0128193 0.013019 0.0407401 0.030917 0.0432118 -0.0104859 0.0277199 -0.00436775 0.02076 0.0466905 0.0167099
internal_weight=0 2874.88 439.103 2520.09 354.793 302.217 195.822 208.465 173.896 21.5786 2324.26 21.9263 224.738 136.887 152.317 182.271 180.037 125.241 115.549 158.881 27.0768 123.573 42.4668 15.1576 2144.23 37.0239 165.428 9.01856 50.4529 14.6083
internal_count=32950 28981 3969 25740 3241 2620 1913 1848 1715 199 23827 198 2109 1349 1516 1728 1805 1258 1150 1517 258 1071 381 131 22022 336 1666 84 428 139
is_linear=0
shrinkage=0.01


Tree=5
num_leaves=31
num_cat=0
split_feature=9 1 1 7 1 3 6 1 8 1 1 1 8 3 8 8 0 0 1 1 9 8 3 0 1 6 1 1 2 1
split_gain=4062.47 3614.15 1263.26 421.976 351.131 241.765 136.791 112.384 105.161 152.119 101.575 83.7145 81.3156 68.8564 58.016 56.5937 54.1385 60.7085 43.0996 41.4708 27.8557 26.755 25.1781 23.6926 20.672 19.6779 18.869 18.7295 18.442 18.134
threshold=5087.6500000000005 519.50000000000011 159.50000000000003 -46.649999999999999 835.50000000000011 513.00000000000011 93.01900000000002 264.50000000000006 1.4025000000000001 222.50000000000003 389.50000000000006 105.50000000000001 1.4025000000000001 11.500000000000002 1.2885000000000002 4.9635000000000007 26.500000000000004 59.500000000000007 77.500000000000014 647.50000000000011 5049.8500000000013 1.3490000000000004 3.5000000000000004 33.500000000000007 186.50000000000003 93.89700000000002 113.50000000000001 594.50000000000011 2.5000000000000004 172.50000000000003
decision_type=2 2 2 2 2 2 2 2 2 2 2 2 2 2 2 2 2 2 2 2 2 2 2 2 2 2 2 2 2 2
left_child=2 3 13 6 12 -4 11 -7 9 -8 22 -2 21 28 -12 19 26 -18 -15 -14 -9 27 29 -22 -13 -16 -10 -3 -1 -5
right_child=1 4 5 10 -6 7 8 20 16 -11 14 24 15 18 25 -17 17 -19 -20 -21 23 -23 -24 -25 -26 -27 -28 -29 -30 -31
leaf_value=0.023324315331875768 -0.0013714029564997391 0.016974219604702235 0.052174289889071142 -0.0068988913356404615 0.038014096956433201 0.024375868910152431 -0.0024186927129180263 0.042550276731251419 -0.0012280097408094177 0.045940960015976355 0.016333363291853861 0.027646941903508564 0.0077427201936365476 -0.010869677563122829 0.00031003851510549705 0.029056643451596215 -0.0042688076705364938 0.027076611670987797 0.0031829794085461737 0.017925066324163675 0.041591009256741945 0.050209408054630762 -0.010516870355090007 0.026654361972769137 0.049632811369996137 -0.0069063040974700089 0.028181464608667543 0.031882799098173202 -0.00091580902137085285 0.033398935621365741
leaf_weight=17.845264017581943 7.0592333301901844 12.682304054498671 97.473787903785706 2.233371064066886 133.86538481712341 86.498539768159389 13.558665670454504 83.253293663263321 2.988581880927085 12.502298466861246 14.794211469590662 7.9189487323164967 84.415619984269142 29.213019780814648 58.655216500163078 23.917674377560616 128.6996637955308 6.4903512448072425 86.300272732973099 76.018943130970001 17.873106636106968 5.6508822143077841 2122.2394776344299 26.167162656784058 9.2977406084537488 106.21159039437771 8.0793483555316907 25.112204812467098 3.8084404915571204 2.2333710640668869
leaf_count=164 70 117 772 21 1132 777 136 694 30 103 139 70 815 303 582 211 1295 59 847 702 153 45 21980 224 76 1084 74 219 35 21
internal_value=0 -0.00438855 0.0279803 -0.00865821 0.0251605 0.0391221 0.00540533 0.0331713 0.00227447 0.020781 -0.00985699 0.0276293 0.0176071 0.00269669 -0.00263666 0.0147067 -0.00102312 -0.00276394 -0.000370902 0.0125674 0.0391479 0.0299145 -0.010467 0.0327162 0.0395202 -0.00433892 0.0202403 0.0268801 0.019061 0.01325
internal_weight=0 2864.63 448.433 2502.96 361.663 311.266 196.595 213.792 172.319 26.061 2306.37 24.2759 227.798 137.167 179.661 184.352 146.258 135.19 115.513 160.435 127.294 43.4454 2126.71 44.0403 17.2167 164.867 11.0679 37.7945 21.6537 4.46674
internal_count=32950 28981 3969 25740 3241 2620 1913 1848 1697 239 23827 216 2109 1349 1805 1728 1458 1354 1150 1517 1071 381 22022 377 146 1666 104 336 199 42
is_linear=0
shrinkage=0.01


Tree=6
num_leaves=31
num_cat=0
split_feature=9 1 1 7 1 3 8 1 1 8 1 1 8 3 0 0 8 8 1 1 1 6 3 8 1 6 4 1 2 2
split_gain=3914.32 3511.38 1177.47 417.78 324.701 217.784 130.814 103.441 101.366 99.6967 143.353 79.354 76.1733 66.4004 57.5537 62.324 56.4597 53.2105 42.5134 39.4923 30.8931 28.6321 24.8264 24.365 23.6699 19.4526 19.3105 17.7222 17.6218 17.519
threshold=5087.6500000000005 519.50000000000011 159.50000000000003 -46.649999999999999 835.50000000000011 513.00000000000011 1.5255000000000003 250.50000000000003 389.50000000000006 1.4025000000000001 198.50000000000003 105.50000000000001 1.4025000000000001 11.500000000000002 59.500000000000007 30.500000000000004 1.2885000000000002 4.9635000000000007 77.500000000000014 647.50000000000011 107.50000000000001 92.405000000000015 3.5000000000000004 1.3490000000000004 186.50000000000003 93.89700000000002 1.0000000180025095e-35 324.50000000000006 1.5000000000000002 2.5000000000000004
decision_type=2 2 2 2 2 2 2 2 2 2 2 2 2 2 2 2 2 2 2 2 2 2 2 2 2 2 2 2 2 2
left_child=2 3 13 6 12 -4 9 -7 22 10 -2 -8 23 29 15 20 28 19 -15 -14 -11 -9 -5 -3 -13 -18 -22 -12 -10 -1
right_child=1 4 5 8 -6 7 11 21 16 14 27 24 17 18 -16 -17 25 -19 -20 -21 26 -23 -24 -25 -26 -27 -28 -29 -30 -31
leaf_value=0.02268919038059862 -0.0060832236690523799 0.026086841659034951 0.049798995274460446 0.012983545499174217 0.036610812259516512 0.022732466836977435 -0.00092715035590290823 0.028145738878533472 0.027720841751412706 -0.006810944715748393 0.030495087607114883 0.026650599744665781 0.0076198264655159085 -0.010853642885061895 0.027233028045273423 -0.0053948640375956758 0.00030686415869188202 0.028154400206355099 0.0031434036481094306 0.017507348471630598 0.022605112441781573 0.03936940217824416 -0.01049838964537766 0.047984432662670939 0.05100704553497102 -0.0068743815606579078 -0.0030213579468491751 0.052372906085606852 0.0059579006219999155 -0.00090727816078007228
leaf_weight=18.159735858440403 11.595744833350183 38.550173982977867 101.08298063278198 4.5120721980929366 137.58717776834965 77.126137383282185 6.7565045282244709 28.42342933267355 6.8911025226116172 6.7731540724635151 7.8346978574991208 7.3286208584904697 84.916773773729801 28.964861243963242 6.973353996872901 114.56208692491055 58.669268220663071 24.434642858803272 86.511874862015247 77.04912543296814 16.149978175759319 113.45495862513781 2104.8028948903084 5.8527242168784133 8.7583030462264997 105.64063559472561 3.5950148999691001 7.0204595923423767 8.0868564844131452 3.8058200106024733
leaf_count=164 117 336 772 42 1132 681 67 238 62 69 66 63 815 303 62 1165 582 211 847 702 146 929 21980 45 68 1084 34 56 77 35
internal_value=0 -0.00436111 0.0271455 -0.00863077 0.0244512 0.0376577 0.00532958 0.0320538 -0.00983459 0.00238389 0.0202663 0.0278322 0.0172026 0.00266399 -0.000810941 -0.00219711 -0.00261592 0.0143987 -0.000367455 0.0123234 0.0116177 0.0371209 -0.0104482 0.0289732 0.0399111 -0.00431021 0.0179392 0.0408344 0.0159707 0.0186008
internal_weight=0 2854.34 457.53 2485.95 368.391 320.088 197.348 219.005 2288.6 174.504 26.4509 22.8434 230.803 137.442 148.054 141.08 179.288 186.401 115.477 161.966 26.5181 141.878 2109.31 44.4029 16.0869 164.31 19.745 14.8552 14.978 21.9656
internal_count=32950 28981 3969 25740 3241 2620 1913 1848 23827 1715 239 198 2109 1349 1476 1414 1805 1728 1150 1517 249 1167 22022 381 131 1666 180 122 139 199
is_linear=0
shrinkage=0.01


Tree=7
num_leaves=31
num_cat=0
split_feature=9 1 1 7 1 3 6 1 8 1 1 1 8 3 8 0 0 8 1 1 3 5 1 8 6 1 1 1 1 2
split_gain=3774.77 3413.61 1100.14 413.632 301.082 197.334 125.21 101.155 97.9003 135.086 95.191 73.5215 71.4776 64.0629 54.9605 51.3071 56.5842 50.1062 41.9365 37.6375 24.4879 23.9468 23.2043 20.3081 19.2292 17.1473 17.1041 17.0781 16.9224 16.6593
threshold=5087.6500000000005 519.50000000000011 159.50000000000003 -46.649999999999999 835.50000000000011 513.00000000000011 93.01900000000002 389.50000000000006 1.4025000000000001 198.50000000000003 264.50000000000006 105.50000000000001 1.4025000000000001 11.500000000000002 1.2885000000000002 26.500000000000004 59.500000000000007 4.9635000000000007 77.500000000000014 647.50000000000011 3.5000000000000004 -2.3499999999999996 594.50000000000011 1.3490000000000004 93.89700000000002 198.50000000000003 113.50000000000001 172.50000000000003 186.50000000000003 2.5000000000000004
decision_type=2 2 2 2 2 2 2 2 2 2 2 2 2 2 2 2 2 2 2 2 2 2 2 2 2 2 2 2 2 2
left_child=2 3 13 6 12 -4 11 20 9 -8 25 -2 22 29 -9 26 -17 19 -15 -14 27 -12 -3 -24 -16 -7 -10 -5 -13 -1
right_child=1 4 5 7 -6 10 8 14 15 -11 21 28 17 18 24 16 -18 -19 -20 -21 -22 -23 23 -25 -26 -27 -28 -29 -30 -31
leaf_value=0.022084478850600116 -0.0013491623017844576 0.018024908235188083 0.047642802150826793 -0.0069278787632815588 0.035307006028128578 0.01775685914786438 -0.0060510777106837967 0.015621848982852847 -0.0011774214265486843 0.039269639529900487 0.032802997514688001 0.026096286013771879 0.0074996826028206759 -0.01083773853413266 0.00030372331994958673 -0.0042171776264664177 0.025474963170715341 0.027303503721831216 0.0031044209248150103 0.017105928179417643 -0.010480011304460949 0.041380708724665462 0.029995837897251989 0.054399584178341363 -0.0068424981811106376 0.026655272501681215 0.026736633925313471 0.031796698073013031 0.045483645209539805 -0.00089882155951698727
leaf_weight=18.468825250864032 7.0456898584961918 15.225674055516718 104.58291125297546 2.24368692934513 141.22247597575188 36.554439067840576 11.54104855656624 15.157928369939325 2.9754521548748007 15.290207825601099 79.133687555789948 8.2277895137667674 85.411841802299023 28.718526788055897 58.683176606893539 127.92110194265842 6.7572090476751319 24.941564239561558 86.721173606812954 78.063459903001785 2087.4958492815495 55.284099236130714 26.196199737489227 3.920342192053794 105.07439457625151 53.132084280252457 8.3699224293231946 2.3127551302313805 9.9428488388657552 3.8032250851392737
leaf_count=164 70 133 772 21 1132 320 117 139 30 122 643 70 815 303 582 1295 59 211 847 702 21980 428 219 29 1084 457 74 21 76 35
internal_value=0 -0.00433394 0.0263592 -0.00860348 0.0237786 0.0363004 0.00525571 -0.00981227 0.00221896 0.0197756 0.0310073 0.0260722 0.0168138 0.00263181 -0.00259538 -0.001007 -0.00272744 0.0141012 -0.000364042 0.0120869 -0.0104295 0.0363309 0.028086 0.0331725 -0.00428162 0.0230285 0.0194159 0.0127279 0.0367049 0.0181598
internal_weight=0 2844.02 466.399 2469.04 374.982 328.687 198.071 2270.97 172.855 26.8313 224.104 25.2163 233.759 137.712 178.915 146.024 134.678 188.417 115.44 163.475 2092.05 134.418 45.3422 30.1165 163.758 89.6865 11.3454 4.55644 18.1706 22.2721
internal_count=32950 28981 3969 25740 3241 2620 1913 23827 1697 239 1848 216 2109 1349 1805 1458 1354 1728 1150 1517 22022 1071 381 248 1666 777 104 42 146 199
is_linear=0
shrinkage=0.01


Tree=8
num_leaves=31
num_cat=0
split_feature=9 1 1 7 1 3 1 8 8 1 1 1 8 3 0 0 8 8 1 1 6 3 1 1 6 4 8 2 1 8
split_gain=3643.12 3320.46 1030.22 409.548 279.893 179.751 121.944 143.366 105.111 100.945 87.9672 78.3631 67.1899 61.8361 60.0862 72.0253 53.5152 47.2518 41.3689 35.8968 24.8721 24.1557 21.5136 21.0018 19.0079 18.9044 18.4427 16.457 16.2733 16.0326
threshold=5087.6500000000005 519.50000000000011 159.50000000000003 -46.649999999999999 835.50000000000011 513.00000000000011 105.50000000000001 1.5150000000000003 1.4025000000000001 389.50000000000006 250.50000000000003 222.50000000000003 1.4025000000000001 11.500000000000002 59.500000000000007 30.500000000000004 1.2885000000000002 4.9635000000000007 77.500000000000014 647.50000000000011 92.405000000000015 3.5000000000000004 594.50000000000011 186.50000000000003 93.89700000000002 1.0000000180025095e-35 1.3490000000000004 1.5000000000000002 172.50000000000003 1.4490000000000003
decision_type=2 2 2 2 2 2 2 2 2 2 2 2 2 2 2 2 2 2 2 2 2 2 2 2 2 2 2 2 2 2
left_child=2 3 13 6 12 -4 -2 8 11 21 -7 -8 22 -1 15 25 27 19 -15 -14 -12 28 -3 -9 -18 -10 -24 -11 -5 -6
right_child=1 4 5 9 29 10 7 23 14 16 20 -13 17 18 -16 -17 24 -19 -20 -21 -22 -23 26 -25 -26 -27 -28 -29 -30 -31
leaf_value=0.01773679591449499 -0.0081170933519486167 0.017609348780436244 0.045676396128555841 -0.0068948676718874526 0.040257356274448361 0.021544737499534103 0.0018977403658717216 0.024680249513121991 0.021752539296379915 0.026418904229847918 0.026359440423976699 0.040788124192544989 0.0073822016837708773 -0.010821964856861242 0.033456594104901184 -0.0038892688937769379 0.00030061492049647076 0.026499611407925307 0.003066020045439074 0.016719858139546934 0.036585806954183425 -0.010461733574720409 0.029059480593654274 0.046431969815242377 -0.0068106537584048023 -0.0032555043574831401 0.051917609759698093 0.005647044279942383 0.030738635812165287 0.032295983072198706
leaf_weight=22.573293693363667 51.182346433401108 15.428097315132616 107.97677779197693 2.2319438159465781 32.664714485406876 79.730944812297821 8.3426177650690096 8.2638461291790026 16.540495887398723 7.1158072501420966 29.681963816285133 13.672329165041445 85.900898523628712 28.47400738298893 5.7728509381413451 81.714520484209061 58.696945294737816 25.438653066754341 86.928206831216812 79.062228977680206 119.67407563328743 2070.3176857531071 26.76695387810469 9.589977599680422 104.51285118609667 3.6986928284168235 4.0659198164939871 8.2204373404383642 2.3681536987423897 112.10869514942169
leaf_count=199 521 133 772 21 254 681 83 69 146 62 238 103 815 303 49 837 582 211 847 702 929 21980 219 70 1084 35 29 77 21 878
internal_value=0 -0.004307 0.0256175 -0.00857627 0.02314 0.0350395 0.00518354 0.00979586 0.00613981 -0.00979002 0.030026 0.0260505 0.0164401 0.00260015 0.00207086 0.000293731 -0.00257492 0.0138137 -0.000360661 0.0118575 0.0345535 -0.0104109 0.0272499 0.0363639 -0.00425315 0.0171823 0.0320738 0.0152849 0.0124791 0.0340923
internal_weight=0 2833.68 475.039 2452.24 381.436 337.064 198.778 147.595 129.742 2253.46 229.087 22.0149 236.663 137.976 107.727 101.954 178.546 190.402 115.402 164.963 149.356 2074.92 46.261 17.8538 163.21 20.2392 30.8329 15.3362 4.6001 144.773
internal_count=32950 28981 3969 25740 3241 2620 1913 1392 1253 23827 1848 186 2109 1349 1067 1018 1805 1728 1150 1517 1167 22022 381 139 1666 181 248 139 42 1132
is_linear=0
shrinkage=0.01


Tree=9
num_leaves=31
num_cat=0
split_feature=9 1 1 7 1 3 1 8 1 8 1 1 8 1 0 0 8 8 3 1 3 9 1 0 1 1 6 4 8 8
split_gain=3518.65 3231.6 966.738 405.505 260.819 164.564 118.956 135.534 100.732 100.6 81.7206 73.2801 63.2655 59.9605 57.3703 69.8822 52.1224 44.6219 41.7072 34.2613 23.8327 21.4103 19.9992 19.8153 19.5769 19.2148 18.7884 18.0445 16.8402 16.5275
threshold=5087.6500000000005 519.50000000000011 159.50000000000003 -46.649999999999999 835.50000000000011 513.00000000000011 105.50000000000001 1.5150000000000003 389.50000000000006 1.4025000000000001 264.50000000000006 222.50000000000003 1.4025000000000001 77.500000000000014 59.500000000000007 30.500000000000004 1.2885000000000002 4.9635000000000007 5.5000000000000009 647.50000000000011 3.5000000000000004 5049.8500000000013 594.50000000000011 33.500000000000007 133.50000000000003 186.50000000000003 93.89700000000002 1.0000000180025095e-35 1.3490000000000004 0.7915000000000002
decision_type=2 2 2 2 2 2 2 2 2 2 2 2 2 2 2 2 2 2 2 2 2 2 2 2 2 2 2 2 2 2
left_child=2 3 13 6 12 -4 -2 9 20 11 -7 -8 22 -1 15 27 -10 19 29 -14 -5 -12 -3 -23 -20 -9 -18 -11 -24 -15
right_child=1 4 5 8 -6 10 7 25 16 14 21 -13 17 18 -16 -17 26 -19 24 -21 -22 23 28 -25 -26 -27 -28 -29 -30 -31
leaf_value=-0.0098641928941332595 -0.0080871998769910056 0.017209896626207328 0.043875487902582326 0.012238911355875941 0.03295770048679942 0.021810753963180093 0.001875999310171487 0.024002153484661504 0.014960858049248509 0.021190888509227318 0.036704996959854512 0.039271569508401993 0.0072672991227257667 0.036644689468861284 0.032326557676814853 -0.0038621493256275363 0.00029753923269966952 0.025738858000103948 0.00062261230036830459 0.016348259344617797 -0.010443552955272668 0.036193763518255144 0.028177335379377201 0.023179782950328978 0.010356216874611737 0.044561826376203081 -0.0067788499851090004 -0.0032309731947760766 0.04967039624486036 0.013690095790817997
leaf_weight=30.289105482399464 50.859444431960583 15.627313144505022 111.26759421825409 4.6427398771047583 148.24163576960564 92.758190788328648 8.3548467755317706 8.4115803092718142 15.510443933308123 16.807732686400417 92.800431877374649 14.056321553885935 86.384027637541294 5.1889355853199941 5.9141757860779753 81.466675400733948 58.710573509335518 25.926123134791851 64.400774843990803 80.045709863305092 2053.2680767774582 19.793372735381126 27.326017051935199 28.612822636961937 30.425060637295246 9.8909544348716718 103.95595981925726 3.6895536705851546 4.2066393941640845 7.930700808763504
leaf_count=321 521 133 772 42 1132 777 83 69 139 146 694 103 815 45 49 837 582 211 621 702 21980 153 219 224 293 70 1084 35 29 69
internal_value=0 -0.00428034 0.024916 -0.00854921 0.0225328 0.0338639 0.00511318 0.00963136 -0.00976785 0.00605181 0.0291027 0.0253306 0.0160806 0.00256901 0.00204674 0.000290431 -0.00255467 0.0135358 0.00605773 0.0116349 -0.0103924 0.0338927 0.0264602 0.0285012 0.00374566 0.0351129 -0.0042248 0.0167949 0.0310446 0.0227688
internal_weight=0 2823.3 483.467 2435.54 387.757 345.232 199.451 148.592 2236.09 130.289 233.965 22.4112 239.516 138.235 107.878 101.964 178.177 192.356 107.945 166.43 2057.91 141.207 47.16 48.4062 94.8258 18.3025 162.667 20.4973 31.5327 13.1196
internal_count=32950 28981 3969 25740 3241 2620 1913 1392 23827 1253 1848 186 2109 1349 1067 1018 1805 1728 1028 1517 22022 1071 381 377 914 139 1666 181 248 114
is_linear=0
shrinkage=0.01


Tree=10
num_leaves=31
num_cat=0
split_feature=9 1 1 7 1 3 1 8 1 8 1 1 8 1 0 0 8 8 3 1 3 9 1 6 1 0 4 2 8 2
split_gain=3400.79 3146.71 908.985 401.513 243.593 151.348 116.071 128.335 100.521 96.374 76.0045 68.6847 59.6653 58.8331 54.8388 67.8263 50.777 42.1939 40.1586 32.7232 23.5208 21.805 18.638 18.571 17.6578 17.2521 17.2383 17.175 15.4546 15.4141
threshold=5087.6500000000005 519.50000000000011 159.50000000000003 -46.649999999999999 835.50000000000011 513.00000000000011 105.50000000000001 1.5150000000000003 389.50000000000006 1.4025000000000001 250.50000000000003 222.50000000000003 1.4025000000000001 77.500000000000014 59.500000000000007 30.500000000000004 1.2885000000000002 4.9635000000000007 11.500000000000002 647.50000000000011 3.5000000000000004 5049.8500000000013 594.50000000000011 93.89700000000002 186.50000000000003 33.500000000000007 1.0000000180025095e-35 2.5000000000000004 1.3490000000000004 1.5000000000000002
decision_type=2 2 2 2 2 2 2 2 2 2 2 2 2 2 2 2 2 2 2 2 2 2 2 2 2 2 2 2 2 2
left_child=2 3 13 6 12 -4 -2 9 20 11 -7 -8 22 -1 15 26 29 19 27 -14 -5 -12 -3 -18 -9 -23 -11 -15 -24 -10
right_child=1 4 5 8 -6 10 7 24 16 14 21 -13 17 18 -16 -17 23 -19 -20 -21 -22 25 28 -25 -26 -27 -28 -29 -30 -31
leaf_value=-0.0098422550812774443 -0.0080573304942455921 0.016825617776350676 0.042219772320313327 0.012006013072218458 0.031895356967938125 0.020452137243122288 0.0018545395465655377 0.023357460659857856 0.025224537726866274 0.020654503224880185 0.035038217647032403 0.037866885150033537 0.0071548938711860494 0.022283608910330006 0.031268413561001594 -0.003835148091897543 0.00029449597301174044 0.025017793284105104 0.0029822603256762317 0.015990324637913833 -0.010425466534501722 0.033810436229308259 0.027344738644976538 -0.0067470845790251789 0.042845210558851675 0.022371671057234695 -0.0032065731874138777 -0.0024587422709015034 0.047625867601511572 0.00535541121459596
leaf_weight=30.05422979593277 50.53911430388689 15.823379792273043 114.45825946331024 4.6852573826909056 151.6298796236515 82.273307360708714 8.3669474497437495 8.5565683916211146 7.334218204021453 17.070431843400005 102.37301459908485 14.430032663047312 86.861308999359608 17.722409427165989 6.052458904683589 81.221070222556591 58.724065586924553 26.40417767316103 87.382587559521198 81.014164075255394 2036.3466948270798 22.776789270341396 27.873647063970566 103.40370954573154 10.182852603495119 31.309850841760635 3.680497743189334 3.333194635808467 4.3426456898450843 8.3492862880229932
leaf_count=321 521 133 772 42 1132 681 83 69 62 146 752 103 815 151 49 837 582 211 847 702 21980 173 219 1084 70 242 35 30 29 77
internal_value=0 -0.00425392 0.0242516 -0.00852226 0.0219547 0.0327658 0.00504452 0.00947186 -0.00974574 0.00596594 0.0282331 0.0246496 0.0157344 0.00253819 0.00202302 0.000287183 -0.0025345 0.013267 0.0059695 0.0114187 -0.010374 0.0323247 0.0257133 -0.00419656 0.0339469 0.0271887 0.0164224 0.0183668 0.0300786 0.014647
internal_weight=0 2812.89 491.684 2418.94 393.949 353.191 200.1 149.561 2218.84 130.821 238.733 22.797 242.319 138.492 108.024 101.972 177.811 194.28 108.438 167.875 2041.03 156.46 48.0397 162.128 18.7394 54.0866 20.7509 21.0556 32.2163 15.6835
internal_count=32950 28981 3969 25740 3241 2620 1913 1392 23827 1253 1848 186 2109 1349 1067 1018 1805 1728 1028 1517 22022 1167 381 1666 139 415 181 181 248 139
is_linear=0
shrinkage=0.01


Tree=11
num_leaves=31
num_cat=0
split_feature=9 1 1 7 1 3 1 8 1 8 1 1 1 8 0 0 8 9 3 1 3 8 5 6 1 4 2 1 1 5
split_gain=3289.06 3065.53 856.226 397.571 227.989 139.792 113.282 121.699 100.307 92.4083 70.961 65.136 57.7337 56.3554 52.474 65.8526 49.4798 40.8767 38.5796 29.0448 23.2168 21.3335 18.5851 18.3555 17.4105 16.4814 16.3703 16.2937 15.2537 15.1766
threshold=5087.6500000000005 519.50000000000011 159.50000000000003 -46.649999999999999 835.50000000000011 513.00000000000011 105.50000000000001 1.5150000000000003 389.50000000000006 1.4025000000000001 264.50000000000006 198.50000000000003 77.500000000000014 1.4025000000000001 59.500000000000007 30.500000000000004 1.2885000000000002 5193.4000000000005 11.500000000000002 610.50000000000011 3.5000000000000004 4.9635000000000007 -2.3499999999999996 93.89700000000002 594.50000000000011 1.0000000180025095e-35 2.5000000000000004 186.50000000000003 172.50000000000003 1.0000000180025095e-35
decision_type=2 2 2 2 2 2 2 2 2 2 2 2 2 2 2 2 2 2 2 2 2 2 2 2 2 2 2 2 2 2
left_child=2 3 12 6 13 -4 -2 9 20 11 -7 -8 -1 24 15 25 -10 -15 26 -19 28 -21 -12 -18 -3 -11 -14 -9 -5 -22
right_child=1 4 5 8 -6 10 7 27 16 14 22 -13 18 17 -16 -17 23 19 -20 21 29 -23 -24 -25 -26 -27 -28 -29 -30 -31
leaf_value=-0.0098203754063410694 -0.0080274850707422064 0.01645565388086519 0.040692159819825151 -0.0069773479798859814 0.030898466554019503 0.020705474982790899 -0.0033518524350664614 0.02274371232334901 0.014345143313409768 0.020141685179938501 0.028776544039940784 0.034279664846825098 0.021705102212392614 0.00645746082652512 0.030275386605094053 -0.0038082664935699326 0.00029148437403593423 0.010350123741272858 0.0029456664726410721 0.01744796700370458 -0.0090166781829026689 0.030555449572269376 0.035978456395797942 -0.006715358276866955 0.029169808587272819 -0.0031823056943329408 -0.0024386438526608268 0.04126373470090406 0.02898289028726608 -0.010947798370844006
leaf_weight=29.821148097515106 50.221338614821434 16.016352608799934 117.55152291059494 2.2614258304238311 154.93969795107841 95.716884396970272 6.3271854445338276 8.6988662779331225 15.852129742503164 17.328680694103245 86.517074674367905 16.845461986958981 18.011336922645572 64.140814900398254 6.1877711564302436 80.977680034935474 58.737423747777939 51.78951632976532 87.582450456917286 64.887599386274815 565.07057547569275 15.355771780014036 61.163230285048485 102.85605998337269 32.884177073836327 3.671524077653884 3.3270895406603804 10.465922452509401 2.4657646715641022 1454.4824731349945
leaf_count=321 521 133 772 21 1132 777 64 69 139 146 643 122 151 575 49 837 582 467 847 566 6150 120 428 1084 248 35 30 70 21 15830
internal_value=0 -0.00422774 0.0236215 -0.00849543 0.0214036 0.0317372 0.00497749 0.00931711 -0.00972371 0.00588211 0.0274123 0.0240046 0.00250795 0.0154009 0.00199969 0.000283986 -0.00251453 0.0130067 0.00588329 0.0161883 -0.0103557 0.0199563 0.0317593 -0.00416845 0.0250056 0.0160639 0.0179406 0.0328575 0.01178 -0.0104075
internal_weight=0 2802.46 499.691 2402.45 400.014 360.949 200.724 150.503 2201.73 131.338 243.397 23.1726 138.742 245.074 108.166 101.978 177.446 196.174 108.921 132.033 2024.28 80.2434 147.68 161.593 48.9005 21.0002 21.3384 19.1648 4.72719 2019.55
internal_count=32950 28981 3969 25740 3241 2620 1913 1392 23827 1253 1848 186 1349 2109 1067 1018 1805 1728 1028 1153 22022 686 1071 1666 381 181 181 139 42 21980
is_linear=0
shrinkage=0.01


Tree=12
num_leaves=31
num_cat=0
split_feature=9 1 1 7 1 3 1 8 1 8 1 1 1 8 0 0 8 9 3 1 3 6 8 1 6 8 4 2 8 5
split_gain=3182.98 2987.72 807.922 393.677 213.844 129.63 110.585 115.569 100.094 88.6661 66.3878 61.5423 56.6601 53.2912 50.2606 63.9565 48.2246 39.0346 37.2225 27.5333 22.9184 19.9744 19.9719 18.8179 18.1419 17.1973 15.7699 15.3628 18.6446 15.2404
threshold=5087.6500000000005 519.50000000000011 159.50000000000003 -46.649999999999999 835.50000000000011 513.00000000000011 105.50000000000001 1.5150000000000003 389.50000000000006 1.4025000000000001 250.50000000000003 198.50000000000003 77.500000000000014 1.4025000000000001 59.500000000000007 30.500000000000004 1.2885000000000002 5193.4000000000005 5.5000000000000009 610.50000000000011 3.5000000000000004 92.405000000000015 4.9635000000000007 133.50000000000003 93.89700000000002 1.3490000000000004 1.0000000180025095e-35 2.5000000000000004 0.82800000000000007 1.0000000180025095e-35
decision_type=2 2 2 2 2 2 2 2 2 2 2 2 2 2 2 2 2 2 2 2 2 2 2 2 2 2 2 2 2 2
left_child=2 3 12 6 13 -4 -2 9 20 11 -7 -8 -1 25 15 26 -10 -15 -14 -19 -5 -12 -21 -20 -18 -3 -11 28 -25 -22
right_child=1 4 5 8 -6 10 7 -9 16 14 21 -13 18 17 -16 -17 24 19 23 22 29 -23 -24 27 -26 -27 -28 -29 -30 -31
leaf_value=-0.0097985502807696363 -0.0079976629781273317 0.021989668077073875 0.039278144162401753 0.011561536941994129 0.029961042892770826 0.019454436161693615 -0.003327036420116778 0.031837176155317594 0.014052032225082283 0.019650888665695414 0.02329328326491972 0.033174656740057019 0.021213972668065965 0.0063621422467958298 0.02934153483549427 -0.0037815035552121812 0.00028850460400323201 0.010167733452316778 0.00053154256118001411 0.017052758890185031 -0.008991144201778779 0.032094924790481122 0.029611315569620805 0.023309272208388628 -0.0066836707484477335 0.039094537928879465 -0.0031581697155835028 -0.0056069492147339814 0.0060080884794784508 -0.010933697952338603
leaf_weight=29.589855834841728 49.906104110181332 42.938686929643154 120.55003041028976 4.7676516249775878 158.17293694615364 84.726159319281578 6.31071808934212 19.578936643898487 16.020104318857193 17.582564160227779 32.093969419598579 17.23051180690527 13.702287569642065 64.449200667440891 6.3201800957322112 80.736492305994034 58.750644654035568 52.18930695950985 64.825999654829502 65.723228186368942 561.02888211607933 131.137236982584 15.685227513313292 10.663341544568544 102.31299497932196 6.8101037442684165 3.6626320704817763 5.2271357998251906 14.977634772658346 1441.8580054491758
leaf_count=321 521 336 772 42 1132 681 64 139 139 146 238 122 114 575 49 837 582 467 621 566 6150 929 120 100 1084 45 35 50 143 15830
internal_value=0 -0.00420177 0.0230232 -0.00846869 0.0208769 0.030772 0.00491193 0.00916671 -0.00970174 0.00580011 0.0266365 0.0233896 0.00247818 0.0150783 0.00197674 0.000280839 -0.00249465 0.0127541 0.00579883 0.0158376 -0.0103374 0.0303644 0.0194725 0.00359156 -0.00414045 0.0243312 0.0157186 0.0100179 0.0132032 -0.0103896
internal_weight=0 2792.04 507.494 2386.07 405.969 368.507 201.328 151.422 2184.74 131.843 247.957 23.5412 138.986 247.796 108.302 101.982 177.084 198.047 109.396 133.598 2007.65 163.231 81.4085 95.6941 161.064 49.7488 21.2452 30.8681 25.641 2002.89
internal_count=32950 28981 3969 25740 3241 2620 1913 1392 23827 1253 1848 186 1349 2109 1067 1018 1805 1728 1028 1153 22022 1167 686 914 1666 381 181 293 243 21980
is_linear=0
shrinkage=0.01


Tree=13
num_leaves=31
num_cat=0
split_feature=9 1 1 7 1 3 1 8 1 8 1 1 1 8 0 0 8 9 3 1 3 6 5 1 2 5 8 1 6 1
split_gain=3082.08 2913.15 763.58 389.834 200.955 120.664 107.971 109.834 99.8815 85.1435 62.2798 58.2456 55.6096 50.4684 48.3424 61.9763 47.0112 37.3021 35.8693 26.326 22.6296 17.9302 16.5485 16.0821 15.347 15.3052 201.226 84.8713 23.3561 16.3535
threshold=5087.6500000000005 519.50000000000011 159.50000000000003 -46.649999999999999 835.50000000000011 513.00000000000011 105.50000000000001 1.5150000000000003 389.50000000000006 1.4025000000000001 264.50000000000006 222.50000000000003 77.500000000000014 1.4025000000000001 30.500000000000004 59.500000000000007 1.2885000000000002 5193.4000000000005 11.500000000000002 647.50000000000011 3.5000000000000004 93.89700000000002 -2.3499999999999996 594.50000000000011 2.5000000000000004 1.0000000180025095e-35 4.2070000000000007 84.500000000000014 93.773500000000013 266.50000000000006
decision_type=2 2 2 2 2 2 2 2 2 2 2 2 2 2 2 2 2 2 2 2 2 2 2 2 2 2 2 2 2 2
left_child=2 3 12 6 13 -4 -2 9 20 11 -7 -8 -1 23 -11 -16 -10 -15 24 -19 -5 -18 -12 -3 -14 26 29 -28 -29 -22
right_child=1 4 5 8 -6 10 7 -9 16 14 22 -13 18 17 15 -17 21 19 -20 -21 25 -23 -24 -25 -26 -27 27 28 -30 -31
leaf_value=-0.0097767774724697633 -0.0079678620381309715 0.015582841864468906 0.037965346174341608 0.011348397989203117 0.029077803358340665 0.019695725945579386 0.0016994809397305102 0.03086898261292869 0.013768527314029579 0.015385920407163484 0.027112717476496125 0.03435191430800915 0.020745009270187711 0.0062687345021398234 -0.0037548595293839053 0.028461613322086354 0.00028555572018033231 0.011259472288042109 0.0028680867137968469 0.020094032308864786 -0.010424603083089659 -0.0066520231290036645 0.033768072151855441 0.02761263512527129 -0.0025146740567551502 -0.01091973079079315 -0.0068734519626872772 0.041876422999641817 0.085042829086325947 -0.0057505160461937769
leaf_weight=29.360343940556049 49.593402191996574 16.487558580935001 123.45630127191544 4.8084153458476058 161.3314166367054 98.571943804621696 8.4517653807997721 19.988979868590832 16.185627415776253 21.485987700521946 89.94339744746685 15.448572367429732 18.509997911751274 64.75389302521944 80.497488342225552 6.4497525542974463 58.763732254505157 70.278181999921799 88.00808123499155 64.858948312699795 460.19746540486813 101.77447415143251 63.906258419156075 34.089921787381172 3.3501334488391867 1429.3280098587275 2.3548777997493735 2.2643055766820908 2.8077389150857925 89.394784167408943
leaf_count=321 521 133 772 42 1132 777 83 139 139 181 643 103 151 575 837 49 582 622 847 531 5081 1084 428 248 30 15830 26 25 31 987
internal_value=0 -0.00417601 0.0224537 -0.00844203 0.0203737 0.0298637 0.00484773 0.00902024 -0.00967983 0.00571999 0.0259013 0.0228052 0.00244871 0.0147673 0.00195415 -0.00136504 -0.0024749 0.0125093 0.00571576 0.0154996 -0.0103193 -0.00411258 0.0298772 0.0236911 0.0171804 -0.0103718 -0.00896563 0.0427382 0.0657721 -0.00966433
internal_weight=0 2781.6 515.106 2369.8 411.8 375.878 201.916 152.323 2167.88 132.334 252.422 23.9003 139.229 250.469 108.433 86.9472 176.724 199.891 109.868 135.137 1991.16 160.538 153.85 50.5775 21.8601 1986.35 557.019 7.42692 5.07204 549.592
internal_count=32950 28981 3969 25740 3241 2620 1913 1392 23827 1253 1848 186 1349 2109 1067 886 1805 1728 1028 1153 22022 1666 1071 381 181 21980 6150 82 56 6068
is_linear=0
shrinkage=0.01


Tree=14
num_leaves=31
num_cat=0
split_feature=9 1 1 7 1 3 1 8 1 8 1 1 1 8 0 0 8 8 3 1 1 3 6 8 5 8 1 6 1 8
split_gain=2986.07 2841.57 722.764 386.041 189.199 112.702 105.441 104.509 99.6688 81.8354 58.7469 55.6663 54.5852 47.8509 46.8337 59.7762 45.8378 35.9747 34.5126 28.9998 22.7314 22.348 17.7205 15.9053 15.3693 193.396 76.686 19.5961 16.3642 24.0731
threshold=5087.6500000000005 519.50000000000011 159.50000000000003 -46.649999999999999 835.50000000000011 513.00000000000011 105.50000000000001 1.5150000000000003 389.50000000000006 1.4025000000000001 339.50000000000006 198.50000000000003 77.500000000000014 1.4025000000000001 30.500000000000004 59.500000000000007 1.2885000000000002 4.9635000000000007 11.500000000000002 647.50000000000011 198.50000000000003 3.5000000000000004 93.89700000000002 1.3490000000000004 1.0000000180025095e-35 4.2070000000000007 84.500000000000014 93.773500000000013 266.50000000000006 1.2650000000000003
decision_type=2 2 2 2 2 2 2 2 2 2 2 2 2 2 2 2 2 2 2 2 2 2 2 2 2 2 2 2 2 2
left_child=2 3 12 6 13 -4 -2 9 21 11 20 -8 -1 23 -11 -16 -10 19 -14 -15 -7 -5 -18 -3 25 28 -27 -28 -23 -30
right_child=1 4 5 8 -6 10 7 -9 16 14 -12 -13 18 17 15 -17 22 -19 -20 -21 -22 24 -24 -25 -26 26 27 -29 29 -31
leaf_value=-0.0097550553364442669 -0.0079380828212312314 0.02085731909854523 0.036743114553272192 0.011141280957008386 0.028244086050487806 0.014692237606399127 -0.0033149655983957284 0.029957605714910528 0.013494160943956196 0.015063111464489378 0.030740950286997543 0.031230864243576534 0.016800629245695094 0.0066029358862201995 -0.0037283358761894454 0.027630986816573413 0.00028263701655762081 0.022794395983954351 0.0028331581438353188 0.014777365583158675 0.023495288792139239 -0.010407168810909247 -0.0066204139713401102 0.037000944240912263 -0.010905895024409902 -0.0068423886518183168 0.040093807647923717 0.078689812581540119 0.011334082888754265 -0.0073057315564032691
leaf_weight=29.132607996463776 49.283214397728443 44.313933432102203 126.27280879020691 4.8486215919256201 164.41684654355049 40.473790168762207 6.3027326464653042 20.389058411121368 16.348739236593246 21.725754253566265 109.74194033443928 17.944961614906788 22.12901396304369 89.272897087037563 80.260649524629116 6.576552525162696 58.776688620448112 27.982562132179737 88.2011733725667 84.45673730969429 106.56854513287544 456.37786821275949 101.24047090113163 7.0777133256196967 1416.8922504782677 2.3419775366783133 2.3409308865666389 3.0030304417014122 7.5731863081455222 81.411752812564373
leaf_count=321 521 336 772 42 1132 320 64 139 139 181 749 122 181 815 837 49 582 211 847 702 779 5081 1084 45 15830 26 25 31 84 903
internal_value=0 -0.0041505 0.0219115 -0.00841549 0.019892 0.029008 0.00478496 0.00887786 -0.00965801 0.00564171 0.0252044 0.0222513 0.00241985 0.0144664 0.00193192 -0.00135336 -0.00245529 0.0122717 0.00563462 0.0105768 0.0210722 -0.0103013 -0.00408482 0.0230806 -0.0103541 -0.00894026 0.040872 0.0617828 -0.00964228 -0.00571936
internal_weight=0 2771.16 522.52 2353.64 417.521 383.057 202.483 153.2 2151.16 132.811 256.784 24.2477 139.463 253.104 108.563 86.8372 176.366 201.712 110.33 173.73 147.042 1974.79 160.017 51.3916 1969.94 553.049 7.68594 5.34396 545.363 88.9849
internal_count=32950 28981 3969 25740 3241 2620 1913 1392 23827 1253 1848 186 1349 2109 1067 886 1805 1728 1028 1517 1099 22022 1666 381 21980 6150 82 56 6068 987
is_linear=0
shrinkage=0.01


Tree=15
num_leaves=31
num_cat=0
split_feature=9 1 1 7 1 3 1 8 1 8 1 1 1 6 0 0 8 3 1 3 1 6 6 1 5 8 1 6 1 8
split_gain=2894.51 2772.86 685.086 382.295 178.412 105.629 102.99 99.6105 99.4564 77.6876 55.3715 53.584 52.835 45.9079 45.2456 57.6914 44.7024 33.4148 25.1473 22.0733 18.1113 17.6857 17.5126 16.8501 15.4325 186.225 69.7062 16.6705 16.3746 23.6264
threshold=5087.6500000000005 519.50000000000011 159.50000000000003 -46.649999999999999 835.50000000000011 513.00000000000011 105.50000000000001 1.5255000000000003 389.50000000000006 1.4025000000000001 250.50000000000003 77.500000000000014 198.50000000000003 93.956000000000017 59.500000000000007 30.500000000000004 1.2885000000000002 5.5000000000000009 647.50000000000011 3.5000000000000004 133.50000000000003 92.405000000000015 93.89700000000002 647.50000000000011 1.0000000180025095e-35 4.2070000000000007 84.500000000000014 93.773500000000013 266.50000000000006 1.2650000000000003
decision_type=2 2 2 2 2 2 2 2 2 2 2 2 2 2 2 2 2 2 2 2 2 2 2 2 2 2 2 2 2 2
left_child=2 3 11 6 13 -4 -2 9 19 12 -7 -1 -8 18 15 -11 -10 -13 -3 -5 -19 -12 -18 -15 25 28 -27 -28 -21 -30
right_child=1 4 5 8 -6 10 7 -9 16 14 21 17 -14 23 -16 -17 22 20 -20 24 -22 -23 -24 -25 -26 26 27 -29 29 -31
leaf_value=-0.0097333829290996449 -0.0079083231362064282 0.01333464418745877 0.035602257706203261 0.010939933265424443 0.027455741963225703 0.018098187113515084 -0.0032903388491029245 0.029707007185337676 0.013228493800592021 0.014751344811466345 0.021347214766656183 0.0198464537994202 0.030312306939487735 0.0030084418439705941 0.026677978838700944 -0.0035275635724732034 0.00027974984983502807 0.00044446167965862398 0.020798812594558968 -0.010389821639315016 0.0096982713389786677 0.029411371057481279 -0.0065888437874316516 0.012508667837841833 -0.010892188839543385 -0.0068113546138664051 0.038453660479050716 0.073271748084498947 0.011119130078033746 -0.0072752975075042036
leaf_weight=28.906634286046028 48.975529104471207 94.473227582871914 129.00188821554184 4.8882795944809905 167.43092483282089 88.276613235473633 6.2864887118339565 19.751963883638382 16.509479977190495 21.96186999976635 33.813068941235542 14.255078159272669 18.302024714648724 38.748584948480129 6.9874212741851798 80.766625970602036 58.789515167474747 65.236139670014381 86.430655866861343 452.58745830506086 31.296278357505798 138.97129145264626 100.71096859127283 36.02879111468792 1404.5502555370331 2.3291859477758399 2.415979839861393 3.191831074655056 7.6420440673828116 80.937168560922146
leaf_count=321 521 791 772 42 1132 681 64 131 139 181 238 114 122 352 51 843 582 621 668 5081 293 929 1084 298 15830 26 25 31 84 903
internal_value=0 -0.00412523 0.021394 -0.00838905 0.0194313 0.0281994 0.00472348 0.00873921 -0.00963628 0.00565551 0.0245414 0.00239143 0.0217212 0.0141765 0.00205502 0.000380203 -0.00243581 0.00555503 0.0169008 -0.0102834 0.00344459 0.0278333 -0.00405718 0.00758578 -0.0103365 -0.00891501 0.0391722 0.0582713 -0.00962027 -0.00568834
internal_weight=0 2760.7 529.757 2337.58 423.112 390.063 203.032 154.056 2134.55 134.304 261.061 139.694 24.5885 255.681 109.716 102.728 176.01 110.787 180.904 1958.54 96.5324 172.784 159.5 74.7774 1953.65 549.104 7.937 5.60781 541.167 88.5792
internal_count=32950 28981 3969 25740 3241 2620 1913 1392 23827 1261 1848 1349 186 2109 1075 1024 1805 1028 1459 22022 914 1167 1666 650 21980 6150 82 56 6068 987
is_linear=0
shrinkage=0.01


Tree=16
num_leaves=31
num_cat=0
split_feature=9 1 1 7 1 1 3 1 8 8 1 1 1 8 0 0 8 9 3 1 3 1 8 6 5 8 1 1 8 8
split_gain=2807.15 2706.7 650.281 378.594 168.569 100.614 99.2934 99.2441 95.0753 75.7508 52.6383 52.6046 50.2152 44.4776 44.0035 55.761 43.6034 34.0122 32.2395 23.3685 21.8052 20.6033 17.3769 17.3066 15.4951 179.625 63.6981 16.3849 23.1912 14.8141
threshold=5087.6500000000005 519.50000000000011 159.50000000000003 -46.649999999999999 835.50000000000011 105.50000000000001 513.00000000000011 389.50000000000006 1.5150000000000003 1.4025000000000001 339.50000000000006 77.500000000000014 198.50000000000003 1.4025000000000001 30.500000000000004 58.500000000000007 1.2885000000000002 5193.4000000000005 11.500000000000002 610.50000000000011 3.5000000000000004 198.50000000000003 4.9635000000000007 93.89700000000002 1.0000000180025095e-35 4.2070000000000007 84.500000000000014 266.50000000000006 1.2650000000000003 1.3490000000000004
decision_type=2 2 2 2 2 2 2 2 2 2 2 2 2 2 2 2 2 2 2 2 2 2 2 2 2 2 2 2 2 2
left_child=2 3 11 5 13 -2 -4 20 9 12 21 -1 -7 29 -11 -16 -9 -15 -13 -19 -5 -8 -21 -18 25 27 -27 -22 -29 -3
right_child=1 4 6 7 -6 8 10 16 -10 14 -12 18 -14 17 15 -17 23 19 -20 22 24 -23 -24 -25 -26 26 -28 28 -30 -31
leaf_value=-0.0097117562001875907 -0.0078785823173137624 0.019959041782841982 0.034534784758855935 0.010744117006144841 0.026709077128120495 -0.0032658389925840315 0.014035259000008751 0.012971115986576329 0.02830565203965546 0.014450056600282007 0.029046758888964037 0.016133387765413974 0.029446224243114241 0.005879765139829957 -0.0038427923718761404 0.024301880167532021 0.0002768920213185339 0.0094308593816261384 0.0027571929940732819 0.015623039576608298 -0.010372558845612756 0.022311298310141298 0.027002118914348776 -0.0065573130272392624 -0.010878611056651546 -0.006780348651166202 0.055155300377021127 0.010910384002998683 -0.0072448834812560356 0.035297131201911462
leaf_weight=28.682420611381531 48.670334666967392 45.4620091766119 131.64581727981567 4.9273978024721137 170.37529906630516 6.2703938558697727 41.411809921264648 16.667889267206192 21.150104887783527 22.194398947060108 113.88822655379772 22.617179930210114 18.650136008858681 66.043941587209702 78.896614797413349 7.7290472611784926 58.802211329340935 53.855464622378349 88.622898168861866 68.910558849573135 448.82612211257219 109.93929907679558 16.665783524513245 100.18592447042465 1392.3016712069511 2.3165024518966657 5.8639146089553833 7.7100287675857535 80.466540299355984 7.3093927055597296
leaf_count=321 521 336 772 42 1132 64 320 139 139 181 749 181 122 575 828 58 582 467 847 566 5081 779 120 1084 15830 26 56 84 903 45
internal_value=0 -0.00410013 0.0208999 -0.00836274 0.0189882 0.00466332 0.027435 -0.00961463 0.00860428 0.00548865 0.0239112 0.00236335 0.0212154 0.0138945 0.00188713 -0.00133163 -0.00241647 0.0117913 0.00547682 0.0145914 -0.0102656 0.0200469 0.0178391 -0.00402966 -0.010319 -0.00888987 0.0376166 -0.00959833 -0.00565741 0.0220835
internal_weight=0 2750.25 536.808 2321.63 428.622 203.561 396.885 2118.07 154.891 133.741 265.239 139.922 24.9205 258.247 108.82 86.6257 175.656 205.476 111.24 139.432 1942.41 151.351 85.5763 158.988 1937.48 545.183 8.18042 537.003 88.1766 52.7714
internal_count=32950 28981 3969 25740 3241 1913 2620 23827 1392 1253 1848 1349 186 2109 1067 886 1805 1728 1028 1153 22022 1099 686 1666 21980 6150 82 6068 987 381
is_linear=0
shrinkage=0.01


Tree=17
num_leaves=31
num_cat=0
split_feature=9 1 1 7 1 1 1 3 8 8 1 1 1 0 0 8 8 9 3 1 3 1 6 8 5 8 1 1 8 9
split_gain=2723.7 2643.11 618.012 374.937 159.478 99.0318 98.311 93.6159 90.7574 72.948 51.6481 49.5587 47.9428 42.6673 54.1801 42.539 42.3122 32.5869 31.095 22.2558 21.5435 17.5112 17.1025 16.3931 15.5573 173.518 58.4705 16.3951 22.767 14.7964
threshold=5087.6500000000005 519.50000000000011 159.50000000000003 -46.649999999999999 835.50000000000011 389.50000000000006 105.50000000000001 513.00000000000011 1.5150000000000003 1.4025000000000001 77.500000000000014 264.50000000000006 222.50000000000003 30.500000000000004 55.500000000000007 1.2885000000000002 1.4025000000000001 5193.4000000000005 5.5000000000000009 610.50000000000011 3.5000000000000004 133.50000000000003 93.89700000000002 4.9635000000000007 1.0000000180025095e-35 4.2070000000000007 84.500000000000014 266.50000000000006 1.2650000000000003 5049.8500000000013
decision_type=2 2 2 2 2 2 2 2 2 2 2 2 2 2 2 2 2 2 2 2 2 2 2 2 2 2 2 2 2 2
left_child=2 3 10 6 16 20 -2 -4 9 12 -1 -9 -8 -11 -15 -7 -3 -18 -12 -19 -5 -20 -17 -21 25 27 -27 -22 -29 -13
right_child=1 4 7 5 -6 15 8 11 -10 13 18 29 -14 14 -16 22 17 19 21 23 24 -23 -24 -25 -26 26 -28 28 -30 -31
leaf_value=-0.0096901731902677701 -0.0078488592965763136 0.021547790128304576 0.033533725799788722 0.010553610204232115 0.026000791995698502 0.012721643795969712 0.0014958676832654543 0.017903201800470954 0.02753618436895611 0.014158720034775337 0.018996252985299729 0.028857595476638132 0.030605035906586586 -0.0042333885322252711 0.020177008774992417 0.00027406404680850127 0.0057957860692746223 0.0092721091268194097 0.00040018276562580945 0.015294455693542751 -0.010355379211472253 0.0094632046286461536 -0.0065258209064042059 0.026255463926983399 -0.010865157729231432 -0.0067493710849571313 0.052362979237132568 0.010707582987945366 -0.0072144867423518302 0.022538828159440888
leaf_weight=28.459957711398602 48.367619447410107 53.538520187139511 134.20680469274521 4.9659843519330016 173.25154933333397 16.824005931615829 8.5619531944394129 104.02764376997948 21.521800510585308 22.423402525484562 14.619638122618197 109.21115611493587 16.682001978158951 76.190352253615856 10.32481463998556 58.814780592918396 66.329442150890827 54.227870881557465 65.446321599185467 69.68316837400198 445.09374606609344 31.619044773280621 99.66532190144062 16.966783225536346 1380.1462616026402 2.303926467895506 6.1135402247309685 7.777154177427291 79.999854572117329 56.092858210206032
leaf_count=321 521 381 772 42 1132 139 83 777 139 181 114 694 103 802 84 582 575 467 621 566 5081 293 1084 120 15830 26 56 84 903 377
internal_value=0 -0.00407528 0.0204274 -0.00833652 0.0185641 -0.00959306 0.00460438 0.0267105 0.00847283 0.00541522 0.00233576 0.0233105 0.0207321 0.00186589 -0.00132023 -0.00239726 0.0136229 0.0115752 0.00540024 0.0142964 -0.0102479 0.00335246 -0.00400226 0.0174407 -0.0103016 -0.00886482 0.0361835 -0.00957643 -0.00562657 0.0267134
internal_weight=0 2739.77 543.683 2305.78 433.997 2101.7 204.072 403.538 155.704 134.183 140.145 269.332 25.244 108.939 86.5152 175.304 260.746 207.207 111.685 140.878 1926.4 97.0654 158.48 86.65 1921.43 541.288 8.41747 532.871 87.777 165.304
internal_count=32950 28981 3969 25740 3241 23827 1913 2620 1392 1253 1349 1848 186 1067 886 1805 2109 1728 1028 1153 22022 914 1666 686 21980 6150 82 6068 987 1071
is_linear=0
shrinkage=0.01


Tree=18
num_leaves=31
num_cat=0
split_feature=9 1 1 7 1 1 1 3 8 8 1 1 1 5 0 0 6 3 1 3 1 1 5 8 1 1 8 5 4 8
split_gain=2643.92 2581.84 588.087 371.323 151.113 98.8196 96.0768 88.4905 86.7847 69.3782 50.7122 47.2873 45.8983 41.5146 40.6576 53.0635 40.5285 30.1631 22.3206 21.2878 18.9226 15.8908 15.6188 167.846 53.8938 16.4051 22.3533 14.7598 14.3607 14.1588
threshold=5087.6500000000005 519.50000000000011 159.50000000000003 -46.649999999999999 835.50000000000011 389.50000000000006 105.50000000000001 513.00000000000011 1.5255000000000003 1.4025000000000001 77.500000000000014 339.50000000000006 198.50000000000003 1.0000000180025095e-35 59.500000000000007 30.500000000000004 93.956000000000017 11.500000000000002 647.50000000000011 3.5000000000000004 198.50000000000003 647.50000000000011 1.0000000180025095e-35 4.2070000000000007 84.500000000000014 266.50000000000006 1.2650000000000003 -3.1999999999999997 1.0000000180025095e-35 0.65700000000000014
decision_type=2 2 2 2 2 2 2 2 2 2 2 2 2 2 2 2 2 2 2 2 2 2 2 2 2 2 2 2 2 2
left_child=2 3 10 6 16 19 -2 -4 9 12 -1 20 -8 -7 15 28 18 -12 -3 -5 -9 -18 23 25 -25 -21 -27 -19 -11 -29
right_child=1 4 7 5 -6 13 8 11 -10 14 17 -13 -14 -15 -16 -17 21 27 -20 22 -22 -23 -24 24 -26 26 -28 29 -30 -31
leaf_value=-0.0096686320149899727 -0.0078191541853350338 0.012543363847770297 0.032592959079198208 0.010368199181101448 0.02532792504856515 0.0050141032186356129 -0.0032526369747585375 0.013413287527595373 0.027358060382243924 0.017487838256099768 0.015509652378483615 0.027514867885691276 0.027906198333464662 -0.0055881348983302503 0.024743325403585877 -0.0034578177939758883 0.0027835693612468671 0.0097291469571563882 0.019456942505558465 -0.010338278869949018 0.02125073001458274 0.011926218654088072 -0.01085182740309182 -0.006718421731621912 0.04984840576005703 0.01051048135458571 -0.0071841094358193929 0.014166992162762286 -0.0036822365548506192 -0.0012024804030088421
leaf_weight=28.239236518740654 48.067363895475864 97.267494611442089 136.68699014186859 5.0040476918220511 176.06123334169388 52.969346523284912 6.2617474049329784 42.335033416748047 20.813635870814323 18.785697221755985 23.090767294168472 117.87514226138592 19.294924266636372 121.98486875742674 7.3266000002622595 80.151834756135941 39.28533248603344 22.290065690875053 89.821244277060032 441.39021659642458 113.11760911345482 36.836902633309364 1368.0836728960276 2.2914572209119779 6.3564438745379448 7.8434309363365164 79.537077739834785 6.6580873057246199 3.863243266940116 60.086026459932327
leaf_count=321 521 791 772 42 1132 495 64 320 131 146 181 749 122 1310 51 843 352 212 668 5081 779 298 15830 26 56 84 903 63 35 572
internal_value=0 -0.00405063 0.0199754 -0.0083104 0.0181565 -0.00957156 0.00454665 0.0260235 0.00834473 0.00542813 0.0023085 0.0227383 0.0202718 -0.00237819 0.00198343 0.000361334 0.0133596 0.005325 0.0158626 -0.0102303 0.0191163 0.00720786 -0.0102844 -0.00883988 0.0348597 -0.00955458 -0.00559581 0.00268364 0.0138768 0.000330708
internal_weight=0 2729.3 550.379 2290.03 439.272 2085.46 204.565 410.015 156.498 135.684 140.364 273.328 25.5567 174.954 110.127 102.801 263.211 112.125 187.089 1910.51 155.453 76.1222 1905.5 537.419 8.6479 528.771 87.3805 89.0342 22.6489 66.7441
internal_count=32950 28981 3969 25740 3241 23827 1913 2620 1392 1261 1349 1848 186 1805 1075 1024 2109 1028 1459 22022 1099 650 21980 6150 82 6068 987 847 181 635
is_linear=0
shrinkage=0.01


Tree=19
num_leaves=31
num_cat=0
split_feature=9 1 1 7 1 1 1 3 8 8 1 1 1 8 0 0 8 8 3 1 3 6 6 5 8 1 1 8 5 1
split_gain=2567.52 2522.73 560.238 367.746 143.417 98.6163 93.9113 83.8698 83.0513 67.7953 49.7971 44.7597 43.7788 41.0458 40.1599 51.3687 39.497 30.5079 29.0816 24.4294 21.0381 16.6989 15.7268 15.6798 162.561 49.861 16.4149 21.9498 14.3256 13.8971
threshold=5087.6500000000005 519.50000000000011 159.50000000000003 -46.649999999999999 835.50000000000011 389.50000000000006 105.50000000000001 513.00000000000011 1.5150000000000003 1.4025000000000001 77.500000000000014 250.50000000000003 198.50000000000003 1.2885000000000002 30.500000000000004 55.500000000000007 1.4025000000000001 4.9635000000000007 11.500000000000002 647.50000000000011 3.5000000000000004 93.89700000000002 92.405000000000015 1.0000000180025095e-35 4.2070000000000007 84.500000000000014 266.50000000000006 1.2650000000000003 -3.1999999999999997 186.50000000000003
decision_type=2 2 2 2 2 2 2 2 2 2 2 2 2 2 2 2 2 2 2 2 2 2 2 2 2 2 2 2 2 2
left_child=2 3 10 6 16 20 -2 -4 9 12 -1 -9 -8 -7 -11 -16 -3 19 -12 -18 -5 -15 -13 24 26 -26 -22 -28 -20 -10
right_child=1 4 7 5 -6 13 8 11 29 14 18 22 -14 21 15 -17 17 -19 28 -21 23 -23 -24 -25 25 -27 27 -29 -30 -31
leaf_value=-0.0096471320854472683 -0.0077894649105811758 0.020662408944973242 0.031707103539966981 0.010187684658918462 0.024687812529737382 0.012385098194149475 -0.0032283330272185979 0.016523797450862725 0.017477913402390802 0.013605733959993396 0.015188671749856898 0.019109581502856382 0.027170426182078468 0.0002619916587421814 -0.0041819815432538147 0.019346037576854897 0.005984540656561628 0.020515885494460654 0.0095605321444115141 0.013332907734454906 -0.010321256395395608 -0.0064673451991953028 0.026477221435579415 -0.010838617602518592 -0.0066875000592523971 0.047571587112406839 0.010318843006931233 -0.0071537487287373705 0.00032723701675595608 0.033356175019748378
leaf_weight=28.020250283181667 47.769559867680073 54.854146078228951 139.08843278884888 5.0415959581732741 178.80585992336273 17.038711868226528 6.2458789572119739 92.737689808011055 10.114015996456148 22.867761142551899 23.341674767434597 35.994321346282959 19.617597542703152 58.868314579129219 75.729923747479916 10.57543859630823 92.113989256322384 29.78053329885006 22.45551373064518 88.906411334872246 437.71542013436556 98.708607040345669 148.511623442173 1356.1135512590408 2.2790939360856992 6.5928282290697098 7.908872812986373 79.078189618885517 66.761015810072422 12.11441285908222
leaf_count=321 521 381 772 42 1132 139 64 681 69 181 181 238 122 582 802 84 815 211 212 702 5081 1084 929 15830 26 56 84 903 635 70
internal_value=0 -0.00402614 0.0195422 -0.00828437 0.0177639 -0.0095501 0.00449018 0.0253703 0.00822015 0.00527175 0.00228163 0.0221913 0.0198293 -0.00235909 0.00182302 -0.00129897 0.0131036 0.0111366 0.00525117 0.00959362 -0.0102128 -0.00395337 0.0250399 -0.0102672 -0.00881504 0.0336331 -0.00953277 -0.00556514 0.00265123 0.0261315
internal_weight=0 2718.84 556.911 2274.38 444.461 2069.35 205.035 416.332 157.265 135.037 140.578 277.244 25.8635 174.616 109.173 86.3054 265.655 210.801 112.558 181.02 1894.73 157.577 184.506 1889.69 533.574 8.87192 524.702 86.9871 89.2165 22.2284
internal_count=32950 28981 3969 25740 3241 23827 1913 2620 1392 1253 1349 1848 186 1805 1067 886 2109 1728 1028 1517 22022 1666 1167 21980 6150 82 6068 987 847 139
is_linear=0
shrinkage=0.01


Tree=20
num_leaves=31
num_cat=0
split_feature=9 1 1 7 1 1 1 3 8 8 1 1 1 5 0 0 6 3 3 1 1 1 5 8 1 1 8 1 2 8
split_gain=2494.37 2465.78 534.301 364.213 136.265 98.4044 91.8098 79.6749 79.5443 65.4054 48.9025 42.9806 41.9229 40.1592 38.9708 49.8707 37.7154 28.123 20.7941 20.5465 17.3299 16.9251 15.7403 157.62 46.2865 16.4246 21.5561 14.8712 14.3544 16.2662
threshold=5087.6500000000005 519.50000000000011 159.50000000000003 -46.649999999999999 835.50000000000011 389.50000000000006 105.50000000000001 513.00000000000011 1.5150000000000003 1.4025000000000001 77.500000000000014 339.50000000000006 222.50000000000003 1.0000000180025095e-35 30.500000000000004 55.500000000000007 93.956000000000017 5.5000000000000009 3.5000000000000004 647.50000000000011 198.50000000000003 133.50000000000003 1.0000000180025095e-35 4.2070000000000007 84.500000000000014 266.50000000000006 1.2650000000000003 647.50000000000011 2.5000000000000004 0.82800000000000007
decision_type=2 2 2 2 2 2 2 2 2 2 2 2 2 2 2 2 2 2 2 2 2 2 2 2 2 2 2 2 2 2
left_child=2 3 10 6 16 18 -2 -4 9 12 -1 20 -8 -7 -11 -16 19 -12 -5 -3 -9 -19 23 25 -25 -20 -27 -18 29 -23
right_child=1 4 7 5 -6 13 8 11 -10 14 17 -13 -14 -15 15 -17 27 21 22 -21 -22 28 -24 24 -26 26 -28 -29 -30 -31
leaf_value=-0.0096256696966841079 -0.0077597919285138312 0.01207708363195446 0.030871401785314233 0.01001187530514135 0.024078053227517913 0.004888988727519976 0.0013654797423736655 0.012845797413650399 0.025481474574256851 0.01334142750698617 0.017866638742889251 0.026145575197337113 0.028287889545474912 -0.0055279025408879355 -0.0041539180921883042 0.018898658873247699 0.0026733977837575524 0.00031711120090314662 -0.010304310296947925 0.01864149556155183 0.020263280173186699 0.021302282223033837 -0.010825526686630864 -0.0066566070746483423 0.045499886106163769 0.010132446184905372 -0.0071234054610187485 0.011462660971904022 -0.0057751109796124276 0.0054932017723717686
leaf_weight=27.802989609539509 47.474188975989819 98.979393683373928 141.41313427686691 5.0786369740962973 181.48690038919449 53.327704600989819 8.631943345069887 43.208494186401367 22.565669193863869 23.08647046238184 15.130245827138422 121.6414877474308 17.53034345805645 120.942527115345 75.480386234819889 10.716805018484591 39.552621267735958 65.842440612614155 434.06920525431633 92.000217363238335 116.21974913775921 11.278452455997469 1344.2354249209166 2.2668360322713834 6.8228835389018059 7.9734916985034934 78.623170025646687 37.50390200316906 5.3453839421272269 15.388581126928328
leaf_count=321 521 791 772 42 1132 495 83 320 139 181 114 749 103 1310 802 84 352 621 5081 668 779 100 15830 26 56 84 903 298 50 143
internal_value=0 -0.00400191 0.0191268 -0.00825848 0.0173871 -0.00952875 0.00443486 0.024749 0.00809871 0.00520269 0.00225518 0.0216687 0.0194052 -0.00234027 0.00180265 -0.00128782 0.0128566 0.00517878 -0.0101954 0.0152393 0.018253 0.00321699 -0.0102502 -0.00879029 0.0324929 -0.00951101 -0.00553455 0.00695119 0.00918141 0.0121794
internal_weight=0 2708.35 563.271 2258.83 449.523 2053.34 205.486 422.483 158.012 135.446 140.788 281.07 26.1623 174.27 109.284 86.1972 268.036 112.985 1879.07 190.98 159.428 97.8549 1873.99 529.756 9.08972 520.666 86.5967 77.0565 32.0124 26.667
internal_count=32950 28981 3969 25740 3241 23827 1913 2620 1392 1253 1349 1848 186 1805 1067 886 2109 1028 22022 1459 1099 914 21980 6150 82 6068 987 650 293 243
is_linear=0
shrinkage=0.01


Tree=21
num_leaves=31
num_cat=0
split_feature=9 1 1 7 1 1 1 8 3 8 1 1 1 6 8 0 0 9 3 3 1 8 5 8 1 1 8 1 2 8
split_gain=2424.2 2410.73 510.087 360.721 129.668 98.2227 89.7671 76.2474 75.8672 62.2926 48.0271 40.7034 40.2729 38.1488 36.9664 36.9007 48.9262 29.1007 27.2037 20.6104 19.1624 16.6795 16.5744 152.913 43.1011 17.23 21.593 16.4828 15.162 14.4173
threshold=5087.6500000000005 519.50000000000011 159.50000000000003 -46.649999999999999 835.50000000000011 382.50000000000006 105.50000000000001 1.5255000000000003 513.00000000000011 1.4025000000000001 77.500000000000014 339.50000000000006 198.50000000000003 93.89700000000002 1.4025000000000001 59.500000000000007 30.500000000000004 5193.4000000000005 11.500000000000002 3.5000000000000004 610.50000000000011 1.2885000000000002 1.0000000180025095e-35 4.2070000000000007 84.500000000000014 266.50000000000006 1.2650000000000003 198.50000000000003 1.5000000000000002 4.9635000000000007
decision_type=2 2 2 2 2 2 2 2 2 2 2 2 2 2 2 2 2 2 2 2 2 2 2 2 2 2 2 2 2 2
left_child=2 3 10 6 14 19 -2 9 -4 12 -1 27 -8 21 -3 16 -11 -16 -12 -5 -19 28 23 25 -25 -21 -27 -10 -7 -22
right_child=1 4 8 5 -6 13 7 -9 11 15 18 -13 -14 -15 17 -17 -18 20 -20 22 29 -23 -24 24 -26 26 -28 -29 -30 -31
leaf_value=-0.0096042426210514713 -0.0077301334951542094 0.0198404906041823 0.030081620801275324 0.0098405916654882349 0.023496479409478466 0.021076102146671341 -0.003214388781856729 0.02535297889735337 0.012606760982262898 0.013085291447358297 0.014609626244464363 0.025488245150052241 0.025853806030267271 -0.0065581120771726681 0.0053177693098038622 0.023131699352281362 -0.0033907037741648122 0.0086258534131427641 0.0025831322741531144 -0.010287437124916888 0.014096839541071318 0.00013694539622530587 -0.01085633205347942 -0.0066257424523903886 0.043606423327152199 0.010466972153930092 -0.006961498180672804 0.019805374457604299 0.002668494302937776 0.024120580779006758
leaf_weight=27.587447822093964 47.181242316961288 56.125403061509132 143.66306173801422 5.1151787191629401 184.10578128695488 8.2065459266304988 6.236803092062476 21.794192656874657 43.585572242736816 23.301891416311264 23.805372752249241 123.52114030718803 20.214207865297794 105.51161086559296 67.984313331544399 7.6316710859537116 79.5651660785079 55.783529728651047 89.599884256720543 430.45149624347687 72.627320840954781 63.096686907112598 1322.43242559582 2.2546827346086484 7.0467883348464966 7.8459339886903754 75.661478593945503 117.71009188890457 9.8399849608540517 17.882056206464767
leaf_count=321 521 381 772 42 1132 63 64 131 320 181 181 749 122 1176 575 51 843 467 847 5081 566 631 15711 26 56 82 874 779 85 120
internal_value=0 -0.00397781 0.0187279 -0.00823262 0.0170233 -0.00950742 0.00438053 0.00798001 0.0241568 0.00521527 0.00222905 0.0211684 0.0189999 -0.00259354 0.012616 0.00191553 0.00034151 0.0107237 0.00510766 -0.0102047 0.0132359 0.00256165 -0.0102602 -0.00875375 0.0314301 -0.00948099 -0.00532401 0.0178602 0.0110392 0.0160772
internal_weight=0 2697.9 569.473 2243.39 454.508 2037.46 205.925 158.744 428.48 136.95 140.993 284.817 26.451 186.655 270.403 110.499 102.867 214.277 113.405 1850.81 146.293 81.1432 1845.69 523.26 9.30147 513.959 83.5074 161.296 18.0465 90.5094
internal_count=32950 28981 3969 25740 3241 23827 1913 1392 2620 1261 1349 1848 186 1955 2109 1075 1024 1728 1028 21872 1153 779 21830 6119 82 6037 956 1099 148 686
is_linear=0
shrinkage=0.01


Tree=22
num_leaves=31
num_cat=0
split_feature=9 1 1 7 1 1 6 3 6 8 1 1 1 1 0 0 1 8 3 3 1 8 8 1 5 8 1 1 8 2
split_gain=2356.87 2360 487.452 337.965 190.925 81.9914 72.6702 72.3958 49.363 48.2262 47.1714 44.4519 38.7925 38.0959 36.7771 41.4563 33.9102 28.9931 26.2833 22.4117 20.2349 16.9326 20.4954 16.3807 15.0258 143.911 39.43 14.0352 20.3834 13.8612
threshold=5087.6500000000005 472.50000000000006 159.50000000000003 -46.649999999999999 647.50000000000011 105.50000000000001 93.01900000000002 513.00000000000011 93.89700000000002 1.4025000000000001 77.500000000000014 364.50000000000006 264.50000000000006 835.50000000000011 30.500000000000004 59.500000000000007 198.50000000000003 1.2950000000000002 5.5000000000000009 3.5000000000000004 547.50000000000011 1.4025000000000001 4.9615000000000009 133.50000000000003 1.0000000180025095e-35 4.2070000000000007 84.500000000000014 266.50000000000006 1.2650000000000003 2.5000000000000004
decision_type=2 2 2 2 2 2 2 2 2 2 2 2 2 2 2 2 2 2 2 2 2 2 2 2 2 2 2 2 2 2
left_child=2 3 10 5 8 -2 -7 -4 -3 16 -1 19 -9 21 -11 -16 -8 -13 -12 -5 -10 -6 -23 -20 25 27 -27 -21 -29 -25
right_child=1 4 7 11 13 6 9 12 20 14 18 17 -14 -15 15 -17 -18 -19 23 24 -22 22 -24 29 -26 26 -28 28 -30 -31
leaf_value=-0.0095828499923363616 -0.007700489467556461 0.012536731679454252 0.029334007127703812 0.01142277090915433 0.023075338960319162 0.023644284879246188 -0.003190284798774787 0.016028762994345035 -0.0021729124909660169 0.012751522442099801 0.017155216974775015 0.0067537897884960545 0.023574500098366008 0.022941118434933974 -0.0038106271597427759 0.021453718217003866 0.023781145735833432 -0.0063361969947865358 0.00027720082049901862 -0.010270636033137912 0.0068593638509331012 0.01111892739608894 0.020566677695706428 0.011877978692572065 -0.010872088365332497 -0.0065949060370423572 0.041479921423577544 0.010999472842303997 -0.0072184287751256839 -0.005761708150868741
leaf_weight=27.373615682125092 46.890704415738583 99.04174230992794 145.84007877111435 4.7632617875933638 26.480269610881805 23.37347449362278 6.2211634591221836 110.31550373136997 47.305419206619263 22.778187893331051 15.468072071671484 19.140236541628838 178.16661205887794 186.66390267014503 74.730845436453819 7.1131474971771231 18.593229174613953 145.90957150608301 66.034063577651978 426.86206596344709 52.142432421445847 71.973318606615067 33.718737781047821 26.982957296073437 1289.7536940425634 2.2426334619522077 7.130315974354744 6.7529838532209387 67.833358913660049 5.3355675265192977
leaf_count=321 521 797 772 39 170 142 64 777 484 175 114 171 1071 1132 797 47 111 1606 621 5081 450 556 240 243 15459 26 55 70 788 50
internal_value=0 -0.00395395 0.0183445 -0.00852938 0.0152391 0.00386667 0.00741613 0.0235919 0.0075396 0.00448567 0.00220339 -0.00978573 0.020689 0.0200324 0.00151295 -0.00161488 0.0170192 -0.0048182 0.00503796 -0.0102399 0.00256288 0.0159246 0.014133 0.00313226 -0.0102972 -0.00884564 0.0299772 -0.00957131 -0.005569 0.00896579
internal_weight=0 2687.41 575.516 2170.09 517.326 199.701 152.81 434.322 198.49 129.437 141.194 1970.39 288.482 318.836 104.622 81.844 24.8144 165.05 113.821 1805.34 99.4479 132.172 105.692 98.3526 1800.58 510.821 9.37295 501.448 74.5863 32.3185
internal_count=32950 28981 3969 25152 3829 1857 1336 2620 1731 1194 1349 23295 1848 2098 1019 844 175 1777 1028 21518 934 966 796 914 21479 6020 81 5939 858 293
is_linear=0
shrinkage=0.01


Tree=23
num_leaves=31
num_cat=0
split_feature=9 1 1 7 1 1 3 6 1 6 8 1 1 1 0 0 1 8 8 3 3 1 1 0 8 8 1 5 8 1
split_gain=2292.2 2311.25 466.407 335.01 182.543 80.2384 73.2636 69.7747 49.4757 47.6212 46.6606 44.4736 37.1072 36.3021 35.7309 40.2286 32.5259 28.5183 22.4522 23.9356 22.1332 19.7267 19.6295 18.3467 16.1169 19.5075 15.5984 15.0846 140.007 36.9372
threshold=5087.6500000000005 472.50000000000006 162.50000000000003 -46.649999999999999 647.50000000000011 105.50000000000001 513.00000000000011 93.01900000000002 77.500000000000014 93.89700000000002 1.4025000000000001 364.50000000000006 206.50000000000003 835.50000000000011 30.500000000000004 59.500000000000007 198.50000000000003 1.2950000000000002 0.7915000000000002 3.5000000000000004 3.5000000000000004 547.50000000000011 123.50000000000001 68.500000000000014 1.4025000000000001 4.9615000000000009 339.50000000000006 1.0000000180025095e-35 4.2070000000000007 84.500000000000014
decision_type=2 2 2 2 2 2 2 2 2 2 2 2 2 2 2 2 2 2 2 2 2 2 2 2 2 2 2 2 2 2
left_child=2 3 8 5 9 -2 -4 -7 -1 -3 16 20 -8 24 -12 -16 -9 -13 19 -10 -5 -11 -21 -24 -6 -26 -14 28 -22 -30
right_child=1 4 6 11 13 7 12 10 18 21 14 17 26 -15 15 -17 -18 -19 -20 22 27 -23 23 -25 25 -27 -28 -29 29 -31
leaf_value=-0.0095614903264033078 -0.0076708587648691351 0.012302989377078721 0.028972374399506732 0.011216415594745253 0.022525123927255166 0.023092735032874085 0.012334255622183075 -0.0031663082428755518 0.030482052032987803 -0.0021548347723411637 0.012513061156288996 0.0066529971260859133 0.019174214242447928 0.022410186845802389 -0.0037839645047038988 0.020955049758978085 0.023229662843931118 -0.0063047568711923031 0.0018618760611906905 0.0016444304550340613 -0.0095502389641939165 0.0067566463449609798 0.01128744907624916 0.037991737658877249 0.01092286216798926 0.020086570489289 0.02429659848353069 -0.010859903754954433 -0.0065640985026161249 0.039904514832610725
leaf_weight=27.16148379445076 46.60256066173315 99.909762732684612 146.02966073155403 4.8021869435906401 26.853910863399506 23.690786831080914 48.851857557892799 6.2056680768728283 5.4136965423822394 47.22566494345665 22.979124471545219 19.235425777733326 111.72503890097141 189.16261225938797 74.505983754992485 7.2091043442487708 18.8430155813694 145.17450813949108 72.472477838397026 22.193499468266964 497.55000548809767 52.404441893100739 17.493501715362076 3.016345188021659 72.529752522706985 34.177087426185608 127.04941572248936 1278.345952168107 2.2306872457265836 7.3366285115480423
leaf_count=321 521 797 762 39 170 142 349 64 39 484 175 171 718 1132 797 47 111 1606 649 205 5939 450 152 25 556 240 749 15459 26 55
internal_value=0 -0.00393023 0.0179759 -0.00850481 0.0149432 0.00382106 0.0232038 0.00731151 0.00263145 0.0074246 0.00442989 -0.00976621 0.0202751 0.019592 0.00149653 -0.00160143 0.0166902 -0.00478874 0.00537778 0.0106733 -0.0102233 0.00253252 0.0081621 0.0152148 0.0156005 0.0138579 0.0218998 -0.010281 -0.00882163 0.02907
internal_weight=0 2676.97 581.407 2154.71 522.263 200.036 433.656 153.434 147.751 199.54 129.743 1954.68 287.626 322.723 104.694 81.7151 25.0487 164.41 120.59 48.117 1790.27 99.6301 42.7033 20.5098 133.561 106.707 238.774 1785.46 507.117 9.56732
internal_count=32950 28981 3969 25152 3829 1857 2578 1336 1391 1731 1194 23295 1816 2098 1019 844 175 1777 1070 421 21518 934 382 177 966 796 1467 21479 6020 81
is_linear=0
shrinkage=0.01


Tree=24
num_leaves=31
num_cat=0
split_feature=9 1 1 7 1 1 6 3 6 1 8 1 1 0 0 1 1 8 3 3 1 8 8 5 8 1 6 1 8 5
split_gain=2230.02 2264 446.705 332.084 174.677 78.5329 67.0402 66.2298 45.9564 45.487 45.1645 44.4947 35.4224 34.7216 39.0528 34.6387 31.2221 28.0523 25.0119 21.8614 19.2332 15.3588 18.5853 15.1447 136.316 34.6834 14.3334 14.1587 20.1628 13.5758
threshold=5087.6500000000005 472.50000000000006 159.50000000000003 -46.649999999999999 647.50000000000011 105.50000000000001 93.01900000000002 513.00000000000011 93.89700000000002 77.500000000000014 1.4025000000000001 364.50000000000006 250.50000000000003 30.500000000000004 59.500000000000007 835.50000000000011 198.50000000000003 1.2950000000000002 11.500000000000002 3.5000000000000004 547.50000000000011 1.4025000000000001 4.9615000000000009 1.0000000180025095e-35 4.2070000000000007 84.500000000000014 92.405000000000015 266.50000000000006 1.2650000000000003 -3.1999999999999997
decision_type=2 2 2 2 2 2 2 2 2 2 2 2 2 2 2 2 2 2 2 2 2 2 2 2 2 2 2 2 2 2
left_child=2 3 9 5 8 -2 -7 -4 -3 -1 16 19 -9 -12 -15 21 -8 -13 -11 -5 -10 -6 -23 24 27 -26 -14 -21 -29 -20
right_child=1 4 7 11 15 6 10 12 20 18 13 17 26 14 -16 -17 -18 -19 29 23 -22 22 -24 -25 25 -27 -28 28 -30 -31
leaf_value=-0.009540160129655308 -0.0076412412198384105 0.012076049855720878 0.027950596261564788 0.011015764298069686 0.021998999601015999 0.022565275663438439 -0.003142459478497337 0.014870921337889299 -0.0021368790631559214 0.013877320997146532 0.012281602196617636 0.00655426290974747 0.016756417810092464 -0.0037574186433950358 0.020477186121782287 0.021902051338914746 0.022702271080036685 -0.0062733601589625735 0.0091205411387332812 -0.010238381182784362 0.0066560410203006029 0.010732059509984911 0.019626181831194585 -0.010847836657068975 -0.0065333204436036976 0.038447511924609365 0.023552638221611039 0.010972505540886537 -0.0071484536905128664 0.00020717313647899011
leaf_weight=26.951045580208302 46.316796682775021 100.7650937885046 149.98743855953217 4.8405668511986724 27.219313278794289 24.000524215400219 6.1903147995471981 97.851062074303627 47.146665379405022 24.413685075938702 23.177060775458813 19.329460605978966 38.549118936061859 74.283161394298077 7.3030847609043112 191.60325399041176 19.086699098348618 144.44572787731886 22.896067500114441 420.00952757149935 52.663250014185905 73.078260704874992 34.626721620559692 1267.0270129367709 2.2188436985015851 7.5374697893857956 159.14507308602333 6.760656237602233 66.916916191577911 67.356665670871735
leaf_count=321 521 797 772 39 170 142 64 681 484 181 175 171 238 797 47 1132 111 1606 212 5081 450 556 240 15459 26 55 929 70 788 635
internal_value=0 -0.00390668 0.0176208 -0.0084803 0.0146571 0.00377627 0.00720927 0.0225384 0.00731211 0.00214986 0.00437513 -0.00974672 0.0197918 0.00148034 -0.00158809 0.0191689 0.0163729 -0.00475939 0.00489747 -0.0102068 0.00250258 0.0152876 0.0135915 -0.0102648 -0.00879759 0.0282177 0.0222274 -0.00952909 -0.00548567 0.00246839
internal_weight=0 2666.55 587.15 2139.44 527.103 200.358 154.041 445.533 200.575 141.617 130.04 1939.09 295.545 104.763 81.5862 326.528 25.277 163.775 114.666 1775.31 99.8099 134.924 107.705 1770.47 503.443 9.75631 197.694 493.687 73.6776 90.2527
internal_count=32950 28981 3969 25152 3829 1857 1336 2620 1731 1349 1194 23295 1848 1019 844 2098 175 1777 1028 21518 934 966 796 21479 6020 81 1167 5939 858 847
is_linear=0
shrinkage=0.01


Tree=25
num_leaves=31
num_cat=0
split_feature=9 1 1 7 1 1 6 3 1 1 6 8 1 0 0 1 1 8 3 3 1 5 8 1 8 8 1 8 1 8
split_gain=2170.25 2218.18 428.048 329.188 167.286 76.8728 64.4546 63.5591 44.6858 44.5162 44.3644 43.7339 34.2356 33.7477 38.0414 33.0932 29.9925 27.5949 24.1653 21.5962 18.7764 15.2028 132.821 32.6378 14.6532 17.7234 14.168 19.7906 14.1474 13.2011
threshold=5087.6500000000005 472.50000000000006 159.50000000000003 -46.649999999999999 647.50000000000011 105.50000000000001 93.01900000000002 513.00000000000011 77.500000000000014 364.50000000000006 93.89700000000002 1.4025000000000001 339.50000000000006 30.500000000000004 55.500000000000007 835.50000000000011 198.50000000000003 1.2950000000000002 11.500000000000002 3.5000000000000004 532.50000000000011 1.0000000180025095e-35 4.2070000000000007 84.500000000000014 1.4025000000000001 4.9615000000000009 266.50000000000006 1.2650000000000003 198.50000000000003 0.73950000000000016
decision_type=2 2 2 2 2 2 2 2 2 2 2 2 2 2 2 2 2 2 2 2 2 2 2 2 2 2 2 2 2 2
left_child=2 3 8 5 10 -2 -7 -4 -1 19 -3 16 28 -13 -15 24 -8 -11 -10 -5 -12 22 26 -24 -6 -26 -21 -28 -9 -20
right_child=1 4 7 9 15 6 11 12 18 17 20 13 -14 14 -16 -17 -18 -19 29 21 -22 -23 23 -25 25 -27 27 -29 -30 -31
leaf_value=-0.0095188577604561012 -0.0076116358362460727 0.011855617516126274 0.027310719342286509 0.010820581698104745 0.02149536730474632 0.022060307173361184 -0.0031187371644623304 0.011607541426865511 0.013609785657390489 0.0064575284128901046 -0.00314496046062482 0.012056834842871775 0.023215942605827773 -0.0042292565886164037 0.016018948949483386 0.021415226821586263 0.022197371231224002 -0.0062420075962965208 0.0084178468115477297 -0.010221776659842401 0.0058156614703106938 -0.010835886707350495 -0.0065025699331249685 0.037095836174116353 0.010546307484874428 0.019184291727173671 0.010769466121838855 -0.0071184372325245994 0.018146016482462828 -2.8330601625773691e-06
leaf_weight=26.742293827235699 46.033399254083633 101.60794825851917 151.95646812021732 4.8784104064106932 27.576658755540848 24.302859976887703 6.1751029491424587 45.222794339060783 24.643492579460144 19.422357209026814 37.29846815019846 23.372050516307354 130.38414296507835 70.77900168299675 10.678501449525355 193.98711362481117 19.324419051408768 143.72317498922348 26.221184700727463 416.5024728178978 62.68884414434433 1255.7964156344533 2.2071020454168302 7.7329828590154648 73.618984788656235 35.067814409732819 6.8189389258623114 66.529044777154922 123.36633406579494 64.199787318706512
leaf_count=321 521 797 772 39 170 142 64 320 181 171 398 175 749 764 80 1132 111 1606 242 5081 536 15459 26 55 556 240 70 788 779 605
internal_value=0 -0.00388332 0.0172791 -0.0084559 0.0143803 0.00373229 0.00710933 0.0220446 0.00212529 -0.00972734 0.00720205 0.00432138 0.019368 0.00146437 -0.00157486 0.0187621 0.0160667 -0.00473014 0.00483152 -0.0101904 0.00247306 -0.0102488 -0.00877374 0.0274152 0.0149852 0.0133334 -0.00950809 -0.00545545 0.0163921 0.00243908
internal_weight=0 2656.12 592.736 2124.28 531.846 200.665 154.632 450.93 141.807 1923.61 201.595 130.329 298.973 104.83 81.4575 330.251 25.4995 163.146 115.064 1760.47 99.9873 1755.59 499.791 9.94008 136.263 108.687 489.85 73.348 168.589 90.421
internal_count=32950 28981 3969 25152 3829 1857 1336 2620 1349 23295 1731 1194 1848 1019 844 2098 175 1777 1028 21518 934 21479 6020 81 966 796 5939 858 1099 847
is_linear=0
shrinkage=0.01


Tree=26
num_leaves=31
num_cat=0
split_feature=9 1 1 7 1 1 6 3 1 1 6 8 1 1 0 0 1 8 3 3 1 1 5 8 1 5 1 8 8 8
split_gain=2112.71 2173.72 410.502 326.324 160.332 75.5184 66.7017 61.1842 44.5377 43.9017 42.8406 41.1951 37.7568 32.8944 32.1875 31.7203 31.6549 27.1459 23.3724 21.3373 18.3662 15.5767 15.2605 129.505 30.7747 14.5749 14.1771 19.4276 13.9954 16.9167
threshold=5087.6500000000005 472.50000000000006 159.50000000000003 -46.649999999999999 647.50000000000011 93.500000000000014 93.01900000000002 13.500000000000002 364.50000000000006 77.500000000000014 93.89700000000002 1.4025000000000001 264.50000000000006 198.50000000000003 26.500000000000004 59.500000000000007 835.50000000000011 1.2950000000000002 5.5000000000000009 3.5000000000000004 547.50000000000011 133.50000000000003 1.0000000180025095e-35 4.2070000000000007 84.500000000000014 -2.3499999999999996 266.50000000000006 1.2650000000000003 1.4025000000000001 4.9615000000000009
decision_type=2 2 2 2 2 2 2 2 2 2 2 2 2 2 2 2 2 2 2 2 2 2 2 2 2 2 2 2 2 2
left_child=2 3 9 5 10 -2 -7 -4 19 -1 -3 13 -9 -8 -13 -16 28 -10 -11 -5 -12 -20 23 26 -25 -14 -21 -28 -6 -30
right_child=1 4 7 8 16 6 11 12 17 18 20 14 25 -15 15 -17 -18 -19 21 22 -22 -23 -24 24 -26 -27 27 -29 29 -31
leaf_value=-0.009497581171312889 -0.0091890510143932368 0.011641415208439684 0.026977311712085058 0.010630646066627203 0.021012768644490039 0.0212806772193108 -0.0030611402229741469 0.01465377563824637 0.0063627359095571124 0.015957394366047286 -0.0021085083989627711 0.017075139553293674 0.019443673249139197 0.021713502857009966 -0.0023168412234065828 0.018853678309611654 0.020948355579377968 -0.0062106987518312272 0.00017538691697765684 -0.010205235609859833 0.0064718195953585248 0.0085903902194927242 -0.010824049660174749 -0.0064718491598950677 0.035838276303479584 0.024987473395937997 0.010572112924315558 -0.0070884331924816911 0.010365409608769119 0.018759775899947144
leaf_weight=26.535217016935349 37.123976513743401 102.4385344684124 143.49719475209713 4.9157259687781325 27.926121905446053 26.052458770573139 7.3824019432067898 118.89051949977875 19.514130011200905 16.066415026783943 47.018040232360363 11.371258333325384 111.01020464301109 19.556313261389732 91.809221215546131 7.6685571372508994 196.31544524431229 143.00682529062033 66.527186498045921 413.02320466190577 53.142837077379227 32.863325081765652 1244.6538147255778 2.1954615116119367 7.9233049601316452 82.79160438477993 6.876475289463996 66.144472897052765 74.152039363980293 35.50053933262825
leaf_count=321 424 797 720 39 170 157 78 797 171 114 484 85 650 111 953 49 1132 1606 621 5081 450 293 15459 26 55 453 70 788 556 240
internal_value=0 -0.00386013 0.0169495 -0.00843156 0.0141124 0.003689 0.00660699 0.0215712 -0.00970802 0.00210106 0.00709441 0.00383254 0.0190903 0.0149242 0.00113703 -0.000684845 0.0183708 -0.00470099 0.00476676 -0.0101742 0.002444 0.0029578 -0.0102329 -0.00874997 0.0266583 0.021812 -0.00948712 -0.00542532 0.0146927 0.0130831
internal_weight=0 2645.71 598.182 2109.22 536.494 200.964 163.84 456.19 1908.25 141.992 202.599 137.788 312.692 26.9387 110.849 99.4778 333.894 162.521 115.457 1745.73 100.161 99.3905 1740.82 496.163 10.1188 193.802 486.044 73.0209 137.579 109.653
internal_count=32950 28981 3969 25152 3829 1857 1433 2620 23295 1349 1731 1276 1900 189 1087 1002 2098 1777 1028 21518 934 914 21479 6020 81 1103 5939 858 966 796
is_linear=0
shrinkage=0.01


Tree=27
num_leaves=31
num_cat=0
split_feature=9 1 1 7 1 1 6 3 1 1 6 8 1 1 0 0 1 8 3 8 2 3 1 1 5 8 1 1 8 8
split_gain=2057.3 2130.55 394.119 323.495 153.785 74.0391 64.2201 62.6339 45.9071 44.5591 41.3825 39.9565 31.8941 31.6565 31.1738 30.7914 30.3141 26.7051 21.0844 20.8244 22.9449 19.4184 17.9754 17.8013 15.3178 126.352 29.0722 14.1859 19.0737 13.3812
threshold=5087.6500000000005 472.50000000000006 162.50000000000003 -46.649999999999999 647.50000000000011 93.500000000000014 93.01900000000002 513.00000000000011 77.500000000000014 364.50000000000006 93.89700000000002 1.4025000000000001 206.50000000000003 198.50000000000003 26.500000000000004 59.500000000000007 835.50000000000011 1.2950000000000002 3.5000000000000004 0.7915000000000002 2.5000000000000004 3.5000000000000004 532.50000000000011 133.50000000000003 1.0000000180025095e-35 4.2070000000000007 84.500000000000014 266.50000000000006 1.2650000000000003 1.4025000000000001
decision_type=2 2 2 2 2 2 2 2 2 2 2 2 2 2 2 2 2 2 2 2 2 2 2 2 2 2 2 2 2 2
left_child=2 3 8 5 10 -2 -7 -4 -1 18 -3 13 -9 -8 -13 -16 29 -11 -5 20 21 -10 -12 -23 25 27 -27 -20 -29 -6
right_child=1 4 7 9 16 6 11 12 19 17 22 14 -14 -15 15 -17 -18 -19 24 -21 -22 23 -24 -25 -26 26 -28 28 -30 -31
leaf_value=-0.0094763309205813835 -0.0091651929225913253 0.011433181312459975 0.026448077023177474 0.010445752352949197 0.020549870550883705 0.020820113939339958 -0.0030378836686308633 0.011363541738815446 0.031703184760384098 0.0062698305459337658 -0.0031053706991061693 0.016710323863443163 0.020065752810096451 0.021249328268439029 -0.0022978375050318033 0.018452429917085577 0.02050019043219602 -0.0061794342196465537 -0.010188755669207735 0.0016964172034447588 -0.0045925562800260529 0.0051975982213846783 0.0056604946437722285 0.019833262157630888 -0.010812324810724241 -0.006441157791691912 0.034665168029889032 0.010380214373268297 -0.0070584431763934122 0.012840431978978065
leaf_weight=26.329806104302406 36.849784500896931 103.25705490261316 153.68964242935181 4.952521786093711 28.267874181270599 26.360903218388557 7.3646179884672192 50.632620275020599 5.012075960636138 19.604795187711716 37.144288033246994 11.502646565437315 250.40058556199074 19.782513841986656 91.643637977540493 7.7565079331398001 198.58950638771057 142.29662650823593 409.57164739072323 73.196398749947548 8.7341409474611265 22.20281370729208 63.189341172575951 13.281843870878218 1233.5988646745682 2.183921515941619 8.1085675954818708 6.9332752376794806 65.763171195983887 110.60262283682823
leaf_count=321 424 797 762 39 170 157 78 349 34 171 398 85 1467 111 953 49 1132 1606 5081 649 79 201 536 107 15459 26 55 70 788 796
internal_value=0 -0.0038371 0.0166317 -0.00840726 0.0138529 0.00364627 0.00651774 0.0212539 0.00250255 -0.00968876 0.00698899 0.00378667 0.0186021 0.0146606 0.00112492 -0.000678628 0.0179939 -0.00467194 -0.010158 0.00507879 0.0101077 0.0132782 0.0024153 0.0106757 -0.0102171 -0.00872629 0.025943 -0.00946619 -0.00539527 0.0144097
internal_weight=0 2635.32 603.48 2094.27 541.051 201.261 164.411 454.723 148.757 1893.01 203.591 138.05 301.033 27.1471 110.903 99.4001 337.46 161.901 1731.11 122.427 49.2309 40.4967 100.334 35.4847 1726.16 492.561 10.2925 482.268 72.6964 138.87
internal_count=32950 28981 3969 25152 3829 1857 1433 2578 1391 23295 1731 1276 1816 189 1087 1002 2098 1777 21518 1070 421 342 934 308 21479 6020 81 5939 858 966
is_linear=0
shrinkage=0.01


Tree=28
num_leaves=31
num_cat=0
split_feature=9 1 1 7 1 1 8 3 1 1 6 8 1 1 1 0 0 8 3 3 1 5 8 1 1 8 5 4 5 8
split_gain=2003.84 2088.61 378.648 320.693 147.597 72.5965 62.0992 56.7747 44.5803 42.3595 39.9856 35.6211 35.1789 30.4841 29.0726 27.6979 36.2119 26.2722 22.3089 20.8374 17.5544 15.3748 123.349 27.5118 14.1946 18.7283 13.8213 13.3675 12.8439 12.8289
threshold=5087.6500000000005 472.50000000000006 159.50000000000003 -46.649999999999999 647.50000000000011 93.500000000000014 1.5430000000000004 13.500000000000002 364.50000000000006 77.500000000000014 93.89700000000002 1.4025000000000001 264.50000000000006 198.50000000000003 835.50000000000011 30.500000000000004 55.500000000000007 1.2950000000000002 11.500000000000002 3.5000000000000004 532.50000000000011 1.0000000180025095e-35 4.2070000000000007 84.500000000000014 266.50000000000006 1.2650000000000003 -2.3499999999999996 2.5000000000000004 -3.1999999999999997 0.65700000000000014
decision_type=2 2 2 2 2 2 2 2 2 2 2 2 2 2 2 2 2 2 2 2 2 2 2 2 2 2 2 2 2 2
left_child=2 3 9 5 10 -2 11 -4 19 -1 -3 13 -9 -7 -6 -13 -17 -10 -11 -5 -12 22 24 -24 -21 -26 -14 -28 -20 -30
right_child=1 4 7 8 14 6 -8 12 17 18 20 15 26 -15 -16 16 -18 -19 28 21 -22 -23 23 -25 25 -27 27 -29 29 -31
leaf_value=-0.0094551024443521869 -0.009141354287363606 0.01123066806865747 0.025827979548034074 0.010265701468234001 0.014134804357340044 -0.0030147541309281825 0.022785437089894882 0.014071916441056258 0.0061787591557327997 0.012960820766085287 -0.0030818992497533629 0.010502029908060841 0.018629510497508221 0.020803621669697958 0.020069589859390641 -0.0035324644199338827 0.014737502317860467 -0.0061482144025950397 0.0087369114465964421 -0.010172336321449678 0.00558081528542974 -0.010800711502515619 -0.0064104954024771779 0.033568122930020733 0.010193549327231575 -0.0070284660080445786 0.024860780612154847 0.0063084094152178957 0.01299525699573878 -0.0013429020128186769
leaf_weight=26.126053892076015 36.577785961329937 104.06371069699526 146.89216427505016 4.9888063296675673 140.14915031194687 7.3469980806112316 20.351580888032913 121.18760849535465 19.694368086755276 25.212107226252556 37.053362712264061 27.55030170083046 113.47637370228767 20.00315172970295 200.81046679615974 77.089084006845951 12.625403992831705 141.59253823757172 23.292906232178211 406.14761172235012 63.44928802549839 1222.6309895887971 2.1724812835454932 8.2888989150524122 6.9893502444028845 65.385122060775757 80.647285312414169 4.0802375972270957 6.9540307745337477 60.794635906815529
leaf_count=321 424 797 720 39 966 78 117 797 171 181 398 205 650 111 1132 829 93 1606 212 5081 536 15459 26 55 70 788 431 22 63 572
internal_value=0 -0.00381423 0.0163242 -0.00838303 0.0136011 0.00360429 0.00643036 0.0206826 -0.00966957 0.00205072 0.00688583 0.00412872 0.0183162 0.0144054 0.0176301 0.00173186 -0.000961356 -0.004643 0.00463646 -0.0101419 0.00238704 -0.0102013 -0.00870268 0.0252659 -0.00944529 -0.0053653 0.0209113 0.0239674 0.0023312 0.000128832
internal_weight=0 2624.96 608.663 2079.43 545.526 201.544 164.967 466.284 1877.89 142.38 204.566 144.615 319.392 27.3501 340.96 117.265 89.7145 161.287 116.254 1716.6 100.503 1711.61 488.983 10.4614 478.522 72.3745 198.204 84.7275 91.0416 67.7487
internal_count=32950 28981 3969 25152 3829 1857 1433 2620 23295 1349 1731 1316 1900 189 2098 1127 922 1777 1028 21518 934 21479 6020 81 5939 858 1103 453 847 635
is_linear=0
shrinkage=0.01


Tree=29
num_leaves=31
num_cat=0
split_feature=9 1 1 7 1 1 6 3 1 1 6 8 1 0 1 0 1 8 3 3 1 5 8 1 1 8 8 8 0 5
split_gain=1952.34 2047.83 363.959 317.921 141.738 71.1888 59.9159 54.9088 44.6014 41.6242 38.6471 37.6569 29.9159 29.6353 29.4545 29.2298 27.9289 25.8471 21.5792 20.5959 17.1854 15.4314 120.485 26.0776 14.2029 18.3912 12.7674 16.1408 13.987 12.4827
