tree
version=v3
num_class=1
num_tree_per_iteration=1
label_index=0
max_feature_idx=9
objective=binary sigmoid:1
feature_names=Column_0 Column_1 Column_2 Column_3 Column_4 Column_5 Column_6 Column_7 Column_8 Column_9
feature_infos=[18:88] [0:3643] [1:29] [0:999] [0:6] [-3.3999999999999999:1.3999999999999999] [92.200999999999993:94.766999999999996] [-50.799999999999997:-26.899999999999999] [0.63500000000000001:5.0449999999999999] [4963.6000000000004:5228.1000000000004]
tree_sizes=3245 3343 3332 3336 3341 3334 3336 3334 3351 3350 3342 3349 3344 3353 3356 3341 3358

Tree=0
num_leaves=31
num_cat=0
split_feature=9 1 1 1 3 6 1 1 7 0 5 0 8 8 4 8 5 9 1 8 8 8 7 1 2 1 3 1 8 8
split_gain=534.988 423.819 223.107 48.4685 42.8336 36.6319 37.0038 24.3293 25.5452 18.5972 15.2725 15.2211 12.6444 12.4357 11.4716 10.2212 9.29184 7.87429 6.71887 11.4434 6.60867 6.17249 5.73993 4.87456 4.5209 4.36903 3.99999 3.86742 3.80545 3.38025
threshold=5087.6500000000005 617.50000000000011 165.50000000000003 361.50000000000006 14.500000000000002 92.868000000000009 454.50000000000006 836.00000000000011 -42.349999999999994 31.500000000000004 -3.1999999999999997 40.500000000000007 1.2950000000000002 0.74500000000000011 1.0000000180025095e-35 0.85500000000000009 -2.3499999999999996 5193.4000000000005 252.50000000000003 1.2755000000000003 0.87850000000000017 1.0395000000000001 -46.649999999999999 138.50000000000003 2.5000000000000004 88.500000000000014 18.500000000000004 131.50000000000003 4.9615000000000009 4.0980000000000008
decision_type=2 2 2 2 2 2 2 2 2 2 2 2 2 2 2 2 2 2 2 2 2 2 2 2 2 2 2 2 2 2
left_child=2 5 15 4 13 -2 18 9 24 -3 -6 -10 -8 -4 20 25 -5 -11 -7 -20 -12 -22 -21 -17 -9 -1 -18 -27 29 -14
right_child=1 7 3 16 10 6 12 8 11 17 14 -13 28 -15 -16 23 26 -19 19 22 21 -23 -24 -25 -26 27 -28 -29 -30 -31
leaf_value=-2.0819237176282686 -2.0484222162125132 -2.0306562684920366 -1.9976623655825805 -2.0240091451952598 -2.0738021415274797 -2.0935778835418883 -2.0534982012755063 -2.0064299761459323 -2.066773854517181 -2.0723518600809099 -2.0250726849227441 -2.0343886104501201 -2.076340134058976 -2.0295026355231744 -2.0594408179346204 -2.0924946579499308 -1.9925863805195871 -2.053881294487808 -2.0704181514854838 -2.0792495401316673 -2.0585741863384999 -2.0341171673986231 -2.0916889460351702 -2.0747689958251927 -2.0264262809395421 -2.0554319098709324 -2.0113863251973401 -2.0747689958251927 -2.0723518600809099 -2.0880452040922965
leaf_weight=2.4625761434435836 1.9700609147548664 2.3640730977058437 1.97006091475487 4.1371279209852219 2.4625761434435853 189.32285390794277 1.97006091475487 2.1670670062303543 2.561079189181326 4.1371279209852201 2.4625761434435844 3.3491035550832748 3.9401218295097333 3.2506005093455315 4.0386248752474785 6.205691881477831 1.9700609147548673 5.220661424100399 2.9550913721323004 4.0386248752474776 1.9700609147548673 2.1670670062303543 45.50840713083744 2.0685639604926109 2.3640730977058411 2.0685639604926109 2.6595822349190694 2.0685639604926109 4.137127920985221 6.5997040644288063
leaf_count=25 20 24 20 42 25 1922 20 22 26 42 25 34 40 33 41 63 20 53 30 41 20 22 462 21 24 21 27 21 42 67
internal_value=-2.08286 -2.08781 -2.04954 -2.03246 -2.04171 -2.09138 -2.09171 -2.04583 -2.03473 -2.05572 -2.05136 -2.04842 -2.07729 -2.01749 -2.04617 -2.08066 -2.01312 -2.06205 -2.0927 -2.08953 -2.03804 -2.04576 -2.09067 -2.08806 -2.01686 -2.07138 -2.00339 -2.0651 -2.08048 -2.08367
internal_weight=0 282.605 41.9623 27.0883 18.3216 260.442 258.472 22.1632 10.4413 11.7219 13.1009 5.91018 16.647 5.22066 10.6383 14.874 8.76677 9.35779 241.825 52.5021 6.5997 4.13713 49.547 8.27426 4.53114 6.5997 4.62964 4.13713 14.677 10.5398
internal_count=3295 2869 426 275 186 2644 2624 225 106 119 133 60 169 53 108 151 89 95 2455 533 67 42 503 84 46 67 47 42 149 107
is_linear=0
shrinkage=1


Tree=1
num_leaves=31
num_cat=0
split_feature=9 1 1 1 3 6 1 1 7 0 5 0 8 8 4 8 5 9 1 8 8 7 8 1 1 2 8 1 8 7
split_gain=512.684 407.79 204.428 41.8624 37.6681 35.431 36.6403 21.827 22.2827 16.8494 14.0885 13.8047 12.0357 10.3829 10.3529 9.95114 7.73179 7.36135 6.72689 11.2339 5.80504 5.68345 5.54895 4.80295 4.18182 3.78977 3.69466 3.63545 3.31164 3.25646
threshold=5087.6500000000005 617.50000000000011 165.50000000000003 361.50000000000006 14.500000000000002 92.868000000000009 454.50000000000006 836.00000000000011 -42.349999999999994 31.500000000000004 -3.1999999999999997 40.500000000000007 1.2950000000000002 0.74500000000000011 1.0000000180025095e-35 0.85500000000000009 -2.3499999999999996 5193.4000000000005 252.50000000000003 1.2755000000000003 0.87850000000000017 -46.649999999999999 1.0395000000000001 138.50000000000003 88.500000000000014 2.5000000000000004 4.9615000000000009 131.50000000000003 4.0980000000000008 -39.04999999999999
decision_type=2 2 2 2 2 2 2 2 2 2 2 2 2 2 2 2 2 2 2 2 2 2 2 2 2 2 2 2 2 2
left_child=2 5 15 4 13 -2 18 9 25 -3 -6 -10 -8 -4 20 24 -5 -11 -7 -20 -12 -21 -22 -17 -1 -9 28 -26 -14 -16
right_child=1 7 3 16 10 6 12 8 11 17 14 -13 26 -15 29 23 -18 -19 19 21 22 -23 -24 -25 27 -27 -28 -29 -30 -31
leaf_value=0.00092658535805571025 0.033191286018948517 0.049627096707851592 0.078964304326461177 0.055660003513168695 0.0089043682500216624 -0.010699824088005152 0.02841077702364744 0.071315590084616784 0.015726848847090916 0.010318333307468378 0.05469894767694905 0.04621201867589407 0.0064221947627624608 0.050678635688498029 0.031449499547136057 -0.009610220261078507 0.073981179471234532 0.02804843921267226 0.012198635361713046 0.0035646209747783792 0.023592135524846986 -0.0088009605828347857 0.046461058095485321 0.0079599401519936091 0.026579617886723229 0.053473473580747798 0.010318333307468374 0.0079599401519936091 -0.0051538850341273082 0.013647519754165427
leaf_weight=2.464372105896472 2.0233508944511405 2.461454093456271 2.103612273931506 4.3295698463916779 2.4799820035696039 187.74776671826839 2.0154367387294796 2.2985650449991226 2.5932856798171979 4.1710642576217634 2.5750244036316872 3.4770743548870087 3.9601546525955182 3.3874987363815308 2.1065072938799858 6.1592676714062673 4.9220612570643407 5.3393266499042511 2.9838066548109046 4.0499875843524924 2.0075429975986481 45.19636769592762 2.2503412514925003 2.0816208869218826 2.1130485087633133 2.4694585204124451 4.1710642576217642 2.0816208869218826 6.5731027871370316 2.0061974227428436
leaf_count=25 20 24 20 42 25 1922 20 22 26 42 25 34 40 33 21 63 47 53 30 41 20 462 22 21 21 24 42 21 67 20
internal_value=0 -0.00491739 0.0321299 0.0479753 0.0394499 -0.00849097 -0.00881952 0.0356153 0.0458962 0.0263078 0.0304253 0.0331886 0.00549376 0.0615147 0.0353013 0.00217415 0.0654073 0.0202724 -0.00981675 -0.00664245 0.0428466 -0.00778402 0.0356786 -0.00517206 0.0112654 0.0620748 0.00235266 0.0173395 -0.000801664 0.0227656
internal_weight=0 281.531 43.0683 28.1683 18.9167 258.721 256.698 22.8102 10.8384 11.9718 13.4256 6.07036 16.7198 5.49111 10.9456 14.8999 9.25163 9.51039 239.978 52.2302 6.83291 49.2464 4.25788 8.24089 6.65904 4.76802 14.7043 4.19467 10.5333 4.1127
internal_count=3295 2869 426 275 186 2644 2624 225 106 119 133 60 169 53 108 151 89 95 2455 533 67 503 42 84 67 46 149 42 107 41
is_linear=0
shrinkage=0.01


Tree=2
num_leaves=31
num_cat=0
split_feature=9 1 1 3 1 6 1 1 7 0 5 0 8 8 4 1 9 1 8 7 8 8 1 1 8 8 1 1 8 7
split_gain=491.958 392.889 188.056 36.9065 34.3125 38.0401 33.9778 19.686 19.6005 15.3325 13.0327 12.5724 11.5653 9.6903 9.38696 7.61605 6.89366 6.7349 11.03 5.62758 5.13624 5.01266 4.73276 4.00525 3.80044 3.66585 3.42228 3.29944 3.2683 3.02726
threshold=5087.6500000000005 617.50000000000011 165.50000000000003 14.500000000000002 454.50000000000006 92.868000000000009 361.50000000000006 836.00000000000011 -42.349999999999994 31.500000000000004 -3.1999999999999997 40.500000000000007 1.2950000000000002 0.85500000000000009 1.0000000180025095e-35 271.50000000000006 5193.4000000000005 252.50000000000003 1.2755000000000003 -46.649999999999999 0.87850000000000017 1.0395000000000001 138.50000000000003 88.500000000000014 0.76150000000000018 4.9615000000000009 131.50000000000003 1075.0000000000002 1.4595000000000002 -39.04999999999999
decision_type=2 2 2 2 2 2 2 2 2 2 2 2 2 2 2 2 2 2 2 2 2 2 2 2 2 2 2 2 2 2
left_child=2 4 13 15 5 -2 10 9 27 -3 -5 -10 -6 23 20 -4 -11 -7 -19 -20 -12 -22 -15 -1 -8 28 -25 -9 -14 -16
right_child=1 7 3 6 12 17 24 8 11 16 14 -13 25 22 29 -17 -18 18 19 -21 21 -23 -24 26 -26 -27 -28 -29 -30 -31
leaf_value=0.00091665535753668412 0.034310126617265686 0.047296529324092243 0.052605164339118965 0.0087543339873399524 0.027515199103382446 -0.010682235032334283 0.0673113363279252 0.067478984223140054 0.015380333042880683 0.010133341179840348 0.051932733329322835 0.044154971170705493 0.0075824804346966606 -0.0095861835265067686 0.030385746723023889 0.071386138177172931 0.027171812974506139 0.011962474872162475 0.0035191593339035671 -0.0087733529806235892 0.02293296497922085 0.044384613552406985 0.0078315664774735051 0.025777855364189396 0.05145072917853577 0.010133341179840345 0.0078315664774735051 0.051166953666532934 -0.0045228571562330334 0.013368650310351156
leaf_weight=2.4661496281623831 1.9718238487839688 2.5564202070236233 3.9050715640187281 2.4971723556518564 2.05999627709389 186.18417850136757 2.2862525060772887 2.2815030738711357 2.6250326782464963 4.2045678198337537 2.684488333761692 3.6020187437534332 3.1839628219604474 6.1131955012679082 2.1581831574440002 4.829600416123867 5.4558701813220978 3.012140840291976 4.0612259656190863 44.886758431792259 2.0444048941135406 2.3316388726234436 2.0945197865366936 2.1567574739456177 4.4538648277521133 4.2045678198337546 2.0945197865366936 2.716369591653347 7.4465035423636436 2.0274578034877777
leaf_count=25 19 24 36 25 20 1922 21 21 26 42 25 34 32 63 21 44 53 30 41 462 20 22 21 21 41 42 21 25 76 20
internal_value=0 -0.00488787 0.0310269 0.0457787 -0.00846244 -0.00943165 0.0384395 0.0343031 0.0438634 0.025519 0.02942 0.0320249 0.00531224 0.00214817 0.0340088 0.0629896 0.0197561 -0.00979383 -0.0066105 -0.00775344 0.0410431 0.0343628 -0.00514136 0.0110549 0.0568307 0.00222913 0.0169361 0.0586133 -0.000897151 0.0221429
internal_weight=0 280.453 44.1433 29.2181 257.011 240.116 20.4835 23.4418 11.2249 12.2169 13.7433 6.22705 16.895 14.9251 11.2462 8.73467 9.66044 238.144 51.9601 48.948 7.06053 4.37604 8.20772 6.71743 6.74012 14.835 4.25128 4.99787 10.6305 4.18564
internal_count=3295 2869 426 275 2644 2474 195 225 106 119 133 60 170 151 108 80 95 2455 533 503 67 42 84 67 62 150 42 46 108 41
is_linear=0
shrinkage=0.01


Tree=3
num_leaves=31
num_cat=0
split_feature=9 1 1 1 6 3 1 1 7 0 5 0 8 8 4 1 8 1 9 7 1 1 1 8 8 1 8 2 7 0
split_gain=472.637 378.992 173.611 33.9629 36.8613 32.4037 30.3303 17.8403 17.3694 14.0081 12.0882 11.4942 11.0327 9.43825 8.54692 6.74288 10.8314 6.49106 6.4662 5.57232 4.79539 4.66394 3.83854 3.561 3.2621 3.226 3.19789 3.09671 2.82002 2.66076
threshold=5087.6500000000005 617.50000000000011 165.50000000000003 454.50000000000006 92.868000000000009 14.500000000000002 361.50000000000006 836.00000000000011 -42.349999999999994 31.500000000000004 -3.1999999999999997 40.500000000000007 1.2950000000000002 0.85500000000000009 1.0000000180025095e-35 252.50000000000003 1.2755000000000003 271.50000000000006 5193.4000000000005 -46.649999999999999 236.50000000000003 138.50000000000003 88.500000000000014 4.9615000000000009 0.76150000000000018 131.50000000000003 1.4595000000000002 2.5000000000000004 -39.04999999999999 40.500000000000007
decision_type=2 2 2 2 2 2 2 2 2 2 2 2 2 2 2 2 2 2 2 2 2 2 2 2 2 2 2 2 2 2
left_child=2 3 13 4 -2 17 10 9 27 -3 -7 -10 -5 22 20 -6 -17 -4 -11 -18 -12 -15 -1 26 -8 -24 -14 -9 -16 -22
right_child=1 7 5 12 15 6 24 8 11 18 14 -13 23 21 28 16 19 -19 -20 -21 29 -23 25 -25 -26 -27 -28 -29 -30 -31
leaf_value=0.00090683826578919868 0.033087007207866545 0.045178187442151262 0.050063657631884223 0.026670568757547017 -0.010664763585104896 0.0086079683099611476 0.06336748711524974 0.063465592980147353 0.015046235638723227 0.0099533076305774043 0.028233711349668612 0.042274138615971561 0.0074624434583077546 -0.0095621986192446374 0.029387879305542302 0.011733385265121091 0.0034744108566053121 0.067013563256749481 0.026344532317868454 -0.0087457749345554864 0.05237720458176192 0.0077061294233371517 0.025019289501904188 0.0099533076305774026 0.049007887849468468 0.0077061294233371517 -0.00449353776226311 0.048056116149183106 0.013098794421639475 0.037405720520820418
leaf_weight=2.4679088965058318 2.0239988565444937 2.6490411758422878 4.0614630356431025 2.1037566661834743 184.63207493722439 2.5141505524516115 2.4036380052566519 2.5334373861551285 2.6563277393579465 4.2376445531845075 2.5209310054779053 3.7240195572376251 3.2027313709259015 6.0674734935164434 2.2088883295655251 3.0400995165109626 4.0723415464162818 5.0918906629085541 5.5703362450003624 44.579558685421944 2.5077628716826439 2.1072625368833542 2.1997065022587776 4.2376445531845084 4.6282014027237892 2.1072625368833542 7.4202723801136017 2.6876900941133499 2.0484273135662079 2.2540400847792625
leaf_count=25 19 24 36 20 1922 25 21 22 26 42 23 34 32 63 21 30 41 44 53 462 23 21 21 42 41 21 76 24 20 21
internal_value=0 -0.00485863 0.0299995 -0.00843401 -0.00940705 0.0437811 0.0369608 0.0330839 0.042007 0.0247736 0.0284774 0.0309384 0.00523708 0.00212262 0.0328062 -0.00977099 -0.00657864 0.0594927 0.0192625 -0.0077229 0.0393861 -0.00511081 0.0108507 0.00220283 0.0539163 0.0165485 -0.000888927 0.0555332 0.0215503 0.0452903
internal_weight=0 279.371 45.189 255.312 238.348 30.2394 21.086 24.0585 11.6015 12.457 14.0542 6.38035 16.9644 14.9496 11.54 236.324 51.692 9.15335 9.80798 48.6519 7.28273 8.17474 6.77488 14.8606 7.03184 4.30697 10.623 5.22113 4.25732 4.7618
internal_count=3295 2869 426 2644 2474 275 195 225 106 119 133 60 170 151 108 2455 533 80 95 503 67 84 67 150 62 42 108 46 41 44
is_linear=0
shrinkage=0.01


Tree=4
num_leaves=31
num_cat=0
split_feature=9 1 1 1 6 3 1 1 7 0 5 2 8 8 4 1 8 9 8 1 7 1 8 8 1 8 8 1 6 1
split_gain=454.575 365.998 160.795 33.6183 35.7561 28.681 27.2411 16.2411 15.4992 12.8456 11.2381 10.713 10.5344 9.1946 7.80935 6.75083 10.638 6.07463 5.79651 7.57747 5.51764 4.59646 4.45382 4.4423 3.68098 3.45975 3.12922 3.04491 2.87389 2.72035
threshold=5087.6500000000005 617.50000000000011 165.50000000000003 454.50000000000006 92.868000000000009 14.500000000000002 361.50000000000006 836.00000000000011 -42.349999999999994 31.500000000000004 -3.1999999999999997 1.5000000000000002 1.2950000000000002 0.85500000000000009 1.0000000180025095e-35 252.50000000000003 1.2755000000000003 5193.4000000000005 0.74500000000000011 271.50000000000006 -46.649999999999999 138.50000000000003 0.87850000000000017 1.0395000000000001 88.500000000000014 4.9615000000000009 1.4595000000000002 131.50000000000003 92.928000000000011 1075.0000000000002
decision_type=2 2 2 2 2 2 2 2 2 2 2 2 2 2 2 2 2 2 2 2 2 2 2 2 2 2 2 2 2 2
left_child=2 3 13 4 -2 18 10 9 29 -3 -7 -10 -5 24 22 -6 -17 -11 -4 -20 -18 -15 -12 -24 -1 26 -14 -26 -8 -9
right_child=1 7 5 12 15 6 28 8 11 17 14 -13 25 21 -16 16 20 -19 19 -21 -22 -23 23 -25 27 -27 -28 -29 -30 -31
leaf_value=0.00089713354884750796 0.031944988554568413 0.043243954417239036 0.065533667647025215 0.025872591458947176 -0.010647409056454591 0.0084651412262644957 0.042795653713397004 0.060449075937866761 0.046672513659350469 0.0097780397673208497 0.047632862743695263 0.020127947080078874 0.0073450761064776469 -0.0095382627662262062 0.020985561462657978 0.011511057258114169 0.0034303581764420993 0.025562481200216387 0.037537763630602593 0.060945015849695645 -0.0087182235956389971 0.0075835333444748375 0.021242015828259013 0.040891247420415125 0.024300461902474126 0.009778039767320848 -0.0044643227099476395 0.0075835333444748375 0.055919126999436373 0.046256263608458886
leaf_weight=2.4696502834558478 2.0751281529664984 2.7393828034400967 4.016228139400484 2.1467344462871578 183.09141306579113 2.530919387936593 2.5753309577703467 2.4982201233506203 2.4093001633882505 4.2703010290861112 2.8735439628362656 4.1210343390703201 3.2212746143341047 6.0221002399921399 4.3277546688914299 3.0676882714033118 4.0833358541131011 5.6827678829431534 2.6493012681603432 2.8934662044048309 44.274765014648438 2.1198514848947525 2.1450053155422211 2.4818397611379623 2.2419110834598541 4.2703010290861121 7.3942736834287643 2.1198514848947525 4.7398682162165642 2.9395040944218636
leaf_count=25 19 24 33 20 1922 25 22 21 22 42 25 38 32 63 41 30 41 53 23 24 462 21 20 22 21 42 76 21 40 25
internal_value=0 -0.00482967 0.0290397 -0.00840568 -0.00938254 0.041956 0.0355921 0.0319484 0.0403058 0.0240681 0.0275902 0.0299213 0.00516345 0.0020975 0.0316825 -0.00974823 -0.00654686 0.0187903 0.0563856 0.0497569 -0.0076924 -0.0050804 0.0378547 0.0317819 0.0106524 0.00217692 -0.000880776 0.0161759 0.051299 0.0527768
internal_weight=0 278.285 46.2066 253.625 236.592 31.2333 21.6743 24.6605 11.9681 12.6925 14.3591 6.53033 17.0326 14.9734 11.8281 234.517 51.4258 9.95307 9.559 5.54277 48.3581 8.14195 7.50039 4.62685 6.83141 14.8858 10.6155 4.36176 7.3152 5.43772
internal_count=3295 2869 426 2644 2474 275 195 225 106 119 133 60 170 151 108 2455 533 95 80 47 503 84 67 42 67 150 108 42 62 46
is_linear=0
shrinkage=0.01


Tree=5
num_leaves=31
num_cat=0
split_feature=9 1 1 1 6 1 3 8 1 7 0 0 8 8 7 8 7 0 8 0 9 6 1 1 1 8 8 3 1 2
split_gain=437.659 353.803 149.495 33.3169 29.174 26.1416 24.3819 17.2698 14.8405 13.9218 11.82 10.2619 8.87918 8.84315 9.03844 7.76113 7.4741 7.29919 7.1524 6.85163 5.71516 5.64032 4.86535 4.5836 3.987 3.36197 3.06224 2.99673 2.99344 2.60469
threshold=5087.6500000000005 617.50000000000011 163.50000000000003 393.50000000000006 92.868000000000009 361.50000000000006 14.500000000000002 1.2950000000000002 836.00000000000011 -42.349999999999994 31.500000000000004 40.500000000000007 1.0315000000000001 0.88350000000000006 -30.749999999999996 0.85500000000000009 -46.649999999999999 49.500000000000007 0.74500000000000011 37.500000000000007 5193.4000000000005 92.928000000000011 138.50000000000003 260.50000000000006 454.50000000000006 4.9615000000000009 1.4595000000000002 18.500000000000004 88.500000000000014 2.5000000000000004
decision_type=2 2 2 2 2 2 2 2 2 2 2 2 2 2 2 2 2 2 2 2 2 2 2 2 2 2 2 2 2 2
left_child=2 3 15 4 -2 6 18 -5 10 29 -3 -11 13 14 19 28 17 23 -4 -8 -12 -7 -17 -6 -9 26 -26 -23 -1 -10
right_child=1 8 5 7 16 21 12 24 9 11 20 -13 -14 -15 -16 22 -18 -19 -20 -21 -22 27 -24 -25 25 -27 -28 -29 -30 -31
leaf_value=0.00088754003497263766 0.028262044779967185 0.041470495652571999 0.062924958337762418 0.022846962660459842 -0.0099114725250489706 0.042184233872587643 0.043526864472284689 -0.0064545525402674702 0.057252134287801584 0.014128559939927688 0.0096073528263515302 0.039321635518442866 0.041379507425055348 0.0054039591973284321 0.011348623969120264 -0.009514373494663747 -0.010423962193627711 0.012798533912013448 0.041434413419357947 0.023325018633230138 0.02482198602837762 0.065938460659321074 0.0084016460354564889 0.0061480468497287586 0.0072302946459737684 0.0096073528263515302 -0.0044352135252004581 0.052776767401525052 0.014750563874941492 0.043666314226144982
leaf_weight=2.4713737890124312 2.0133812874555579 2.8275074958801296 2.5440416932106009 3.5061184018850353 7.8567944243550283 3.5291393026709539 3.2712877765297845 8.425128102302553 2.7547233104705811 2.7458950281143171 4.3025428801774961 3.932198166847229 3.213278502225875 2.3792660087347022 2.649019390344626 5.9770748019218427 210.440414249897 2.4992443323135367 3.9581549689173698 3.4487948939204216 5.7932069525122643 2.7017811462283134 2.030750960111618 2.2967520132660866 3.2395956516265851 4.302542880177497 7.368505634367466 4.8091196715831757 4.2125993371009827 2.8934341743588448
leaf_count=25 18 24 20 33 83 29 29 88 22 26 42 34 28 22 26 63 2223 26 33 31 53 21 20 23 32 42 76 39 40 24
internal_value=0 -0.00480096 0.0281416 -0.00837744 -0.00963315 0.0401072 0.0336754 0.00215343 0.0308865 0.0387365 0.0233991 0.0289628 0.0266492 0.0226204 0.0269924 0.00166931 -0.00997515 -0.00251053 0.0498428 0.0331591 0.0183379 0.0526117 -0.00497095 -0.00627878 -0.000955702 0.00215137 -0.000872698 0.0575112 0.00962476 0.0502924
internal_weight=0 277.198 47.1957 251.948 225.107 32.5039 21.4638 26.8419 25.2495 12.3263 12.9233 6.67809 14.9616 11.7484 9.3691 14.6918 223.093 12.6528 6.5022 6.72008 10.0957 11.04 8.00783 10.1535 23.3358 14.9106 10.6081 7.5109 6.68397 5.64816
internal_count=3295 2869 426 2644 2373 278 189 271 225 106 119 60 136 108 86 148 2355 132 53 60 95 89 83 106 238 150 108 60 65 46
is_linear=0
shrinkage=0.01


Tree=6
num_leaves=31
num_cat=0
split_feature=9 1 1 1 6 1 8 8 1 7 3 0 2 1 7 8 7 0 0 9 1 1 2 1 1 8 8 1 7 1
split_gain=421.764 342.35 139.312 33.0642 28.4187 24.1168 17.6709 16.6188 13.6179 12.5732 11.9837 10.9112 9.49294 9.39854 13.2709 7.57035 7.45893 7.13165 5.62535 5.3845 4.94251 4.7918 4.53447 4.52837 3.92387 3.26749 2.9969 2.87779 2.46927 2.4136
threshold=5087.6500000000005 617.50000000000011 163.50000000000003 393.50000000000006 92.868000000000009 236.50000000000003 0.7330000000000001 1.2950000000000002 836.00000000000011 -42.349999999999994 14.500000000000002 31.500000000000004 1.5000000000000002 401.50000000000006 -32.199999999999996 0.85500000000000009 -46.649999999999999 49.500000000000007 47.500000000000007 5193.4000000000005 198.50000000000003 138.50000000000003 1.5000000000000002 260.50000000000006 454.50000000000006 4.9615000000000009 1.4595000000000002 88.500000000000014 -41.899999999999991 277.00000000000006
decision_type=2 2 2 2 2 2 2 2 2 2 2 2 2 2 2 2 2 2 2 2 2 2 2 2 2 2 2 2 2 2
left_child=2 3 15 4 -2 6 -4 -5 11 -10 22 -3 -11 14 18 27 17 23 -12 -13 -8 -17 -7 -6 -9 26 -26 -1 -21 -18
right_child=1 8 5 7 16 10 20 24 9 12 13 19 -14 -15 -16 21 29 -19 -20 28 -22 -23 -24 -25 25 -27 -28 -29 -30 -31
leaf_value=0.00087805510269223035 0.027397286703801461 0.039838274445834466 0.043989554635642351 0.022229595939913718 -0.0098897992807771909 0.060529241219740675 0.026569148834491615 -0.0064226716506792913 0.048043628623475922 0.043328704896331366 0.045834446556369313 0.0094410721146907222 0.018948380431454179 0.048956406710112303 0.011425425018567548 -0.0094905286466290817 -0.010835927860496433 0.012543552416295805 0.0280094661775501 0.01727427578067442 0.0088503335328903969 0.0082637395580612664 0.044524848997154309 0.0060575120191824552 0.0071180158571123933 0.0094410721146907205 -0.0044062100874840641 0.014439700569514916 0.030231815966019548 -0.0077193813027309315
leaf_weight=2.473079785704611 2.0559424459934226 2.91347408294678 3.4170416221022588 3.5671432837843922 7.7955794930458051 4.6987315267324439 2.6250667944550514 8.3824938461184519 5.8523211255669594 2.5509390234947187 4.8744006603956187 4.3343763649463636 4.270997166633606 6.0943272560834876 2.186390429735189 5.932395301759243 179.88374863564968 2.5244194567203513 2.7803713530302048 2.7838176116347304 3.9327691718935966 2.043927013874054 2.8404951244592667 2.3077124133706093 3.2576975822448713 4.3343763649463645 7.3429665938019753 4.2600152716040611 3.1178757250308999 28.832536034286022
leaf_count=25 18 24 29 33 83 36 23 88 46 22 41 42 38 48 20 63 1919 26 24 25 35 20 22 23 32 42 76 40 28 304
internal_value=0 -0.0047725 0.0272982 -0.00834925 -0.00961013 0.0385768 0.0255508 0.00212809 0.0298934 0.0372901 0.0441118 0.022764 0.028065 0.0391974 0.0331539 0.00165022 -0.00995387 -0.00249075 0.03936 0.0179042 0.0159431 -0.00494101 0.0544994 -0.00624724 -0.000947062 0.0021262 -0.000864692 0.00945848 0.0241198 -0.0104054
internal_weight=0 276.108 48.159 250.285 223.4 33.4496 9.97488 26.8847 25.8238 12.6743 23.4747 13.1495 6.82194 15.9355 9.84116 14.7094 221.344 12.6277 7.65477 10.2361 6.55784 7.97632 7.53923 10.1033 23.3175 14.935 10.6007 6.7331 5.90169 208.716
internal_count=3295 2869 426 2644 2373 278 87 271 225 106 191 119 60 133 85 148 2355 132 65 95 58 83 58 106 238 150 108 65 53 2223
is_linear=0
shrinkage=0.01


Tree=7
num_leaves=31
num_cat=0
split_feature=9 1 1 1 6 1 8 8 1 7 3 0 0 1 7 7 8 0 0 9 1 1 1 2 1 8 8 1 1 8
split_gain=406.783 331.549 130.127 32.8135 27.7025 21.9405 16.2828 16.002 12.5357 11.4182 10.7307 10.1025 9.2406 8.52556 12.0248 7.44363 7.38535 6.96925 5.76188 5.07952 4.71974 4.66378 4.47402 3.98447 3.86172 3.17618 2.93315 2.76787 2.421 5.74547
threshold=5087.6500000000005 617.50000000000011 163.50000000000003 393.50000000000006 92.868000000000009 236.50000000000003 0.7330000000000001 1.2950000000000002 836.00000000000011 -42.349999999999994 14.500000000000002 31.500000000000004 40.500000000000007 389.50000000000006 -32.199999999999996 -46.649999999999999 0.85500000000000009 49.500000000000007 47.500000000000007 5193.4000000000005 138.50000000000003 198.50000000000003 260.50000000000006 1.5000000000000002 454.50000000000006 4.9615000000000009 1.4595000000000002 88.500000000000014 277.00000000000006 1.2860000000000003
decision_type=2 2 2 2 2 2 2 2 2 2 2 2 2 2 2 2 2 2 2 2 2 2 2 2 2 2 2 2 2 2
left_child=2 3 16 4 -2 6 -4 -5 11 -10 23 -3 -11 14 18 17 27 22 -12 -13 -18 -8 -6 -7 -9 26 -26 -1 -17 -30
right_child=1 8 5 7 15 10 21 24 9 12 13 19 -14 -15 -16 28 20 -19 -20 -21 -22 -23 -24 -25 25 -27 -28 -29 29 -31
leaf_value=0.00086867838634817481 0.026580733984564786 0.038330806338686879 0.042189887756770253 0.021641409284983541 -0.0098681851639973155 0.057486237706101929 0.025793928793949709 -0.0063908375740810144 0.045994947261984151 0.013299850865193487 0.043900674094367834 0.0092790310453993961 0.03675128678902586 0.046412288605098724 0.011214583344990026 -0.010820450407640726 -0.0094667262858851593 0.012296498756718954 0.025199313767512638 0.023452570662532996 0.0081290800612986245 0.008704376184794067 0.0059687760329415855 0.042741626520188584 0.0070081636914048721 0.0092790310453993927 -0.0043773126098958391 0.014139378055734545 0.0086098587401591369 -0.0089191379021055558
leaf_weight=2.4747682735323888 2.0976947844028464 2.9973392486572292 3.526602700352667 3.627145171165469 7.7348320037126523 4.8969413787126568 2.6766567006707191 8.3402186483144778 6.0508280396461487 2.831588998436926 5.037372887134552 4.36580742895603 4.1320937722921371 6.6947795152664176 2.2051257491111773 178.34733974933624 5.8880603313446045 2.549260437488555 2.4481305480003357 6.008306972682476 2.0569410920143127 3.9585966765880585 2.3185451477766037 2.9289536625146866 3.2755830287933332 4.3658074289560309 7.3176547959446907 4.3067551329731941 2.01098654419184 26.646601885557175
leaf_count=25 18 24 29 33 83 36 23 88 46 26 41 42 34 51 20 1919 63 26 21 53 20 35 23 22 32 42 76 40 20 284
internal_value=0 -0.0047443 0.026503 -0.00832116 -0.0095872 0.0371588 0.0248267 0.00210315 0.02896 0.0359466 0.0423348 0.02216 0.0272154 0.0377339 0.0317384 -0.00993268 0.00163141 -0.00247114 0.0377844 0.0174878 -0.00491122 0.0155983 -0.00621581 0.0519679 -0.0009385 0.00210138 -0.000856758 0.00929653 -0.0103869 -0.00768908
internal_weight=0 275.018 49.0997 248.632 221.705 34.3732 10.1619 26.9264 26.386 13.0145 24.2113 13.3715 6.96368 16.3854 9.69063 219.608 14.7265 12.6026 7.4855 10.3741 7.945 6.63525 10.0534 7.8259 23.2993 14.959 10.5932 6.78152 207.005 28.6576
internal_count=3295 2869 426 2644 2373 278 87 271 225 106 191 119 60 133 82 2355 148 132 62 95 83 58 106 58 238 150 108 65 2223 304
is_linear=0
shrinkage=0.01


Tree=8
num_leaves=31
num_cat=0
split_feature=9 1 1 1 6 1 8 8 1 7 3 0 0 1 8 0 7 8 0 9 1 1 1 1 2 8 8 1 1 8
split_gain=392.664 321.361 121.838 32.565 27.0222 20.0513 15.4168 15.0508 11.5812 10.4151 9.67407 9.37969 8.57376 7.74983 9.30822 9.29573 7.42827 7.20589 6.81175 4.79811 4.64914 4.42053 4.40651 3.80055 3.53264 3.08791 2.87094 2.6633 2.42816 5.66718
threshold=5087.6500000000005 617.50000000000011 163.50000000000003 393.50000000000006 92.868000000000009 236.50000000000003 1.2950000000000002 0.7330000000000001 836.00000000000011 -42.349999999999994 14.500000000000002 31.500000000000004 40.500000000000007 389.50000000000006 1.0395000000000001 45.500000000000007 -46.649999999999999 0.85500000000000009 49.500000000000007 5193.4000000000005 138.50000000000003 260.50000000000006 198.50000000000003 454.50000000000006 1.5000000000000002 4.9615000000000009 1.4595000000000002 88.500000000000014 277.00000000000006 1.2860000000000003
decision_type=2 2 2 2 2 2 2 2 2 2 2 2 2 2 2 2 2 2 2 2 2 2 2 2 2 2 2 2 2 2
left_child=2 3 17 4 -2 7 -5 -4 11 -10 24 -3 -11 14 15 -12 18 27 21 -13 -19 -6 -9 -8 -7 26 -25 -1 -18 -30
right_child=1 8 5 6 16 10 23 22 9 12 13 19 -14 -15 -16 -17 28 20 -20 -21 -22 -23 -24 25 -26 -27 -28 -29 29 -31
leaf_value=0.00085940873917463847 0.025808389514329892 0.036934095819637407 0.040534501654587649 0.021080348297532855 -0.0098466297028478329 0.054761106761925873 -0.0063590515107277111 0.025059592730723258 0.044121846591747726 0.013035563356477762 0.032898739372406734 0.0091210746905079753 0.035439065408101614 0.044507714615609137 0.047205118959122994 0.0090110455728256642 -0.010805098694535466 -0.0094429648636801828 0.012057013033695366 0.022818388187280689 0.0079975562561792803 0.0058817885567597839 0.0085619035478836595 0.006900663985624467 0.041101024700873789 0.0091210746905079736 -0.0043485227043501048 0.013849065422392384 0.0084670019230743392 -0.0088927957087536428
leaf_weight=2.4764394387602788 2.1386553347110739 3.0791569948196438 3.6333649531006795 3.6861438527703312 7.6745495051145536 5.088224723935129 8.2982999458909052 2.727281391620636 6.2436234802007675 2.8599631041288358 4.9383271560072917 4.3968417048454267 4.2416770160198212 6.9103285372257224 2.5437344014644623 2.430983193218708 176.82236870378256 5.8440684825181961 2.5737721621990195 6.1130034625530243 2.0697955787181854 2.3292521014809608 3.9840946793556213 3.2932548522949201 3.0149617195129395 4.3968417048454276 7.2925681099295616 4.3528305739164352 2.0243990644812611 26.459220498800278
leaf_count=25 18 24 29 33 83 36 88 23 46 26 41 42 34 51 20 21 1919 63 26 53 20 23 35 32 22 42 76 40 20 284
internal_value=0 -0.00471637 0.0257541 -0.00829318 -0.0095644 0.035845 0.00207859 0.024141 0.0280832 0.0347001 0.0407022 0.021585 0.0264168 0.0363786 0.0307118 0.0250187 -0.0099116 0.00161288 -0.00245169 0.0170881 -0.00488156 -0.00618448 0.015266 -0.000930015 0.0496786 0.00207691 -0.000848895 0.00913874 -0.0103686 -0.00765899
internal_weight=0 273.924 50.0144 246.989 220.022 35.2713 26.9671 10.3447 26.9343 13.3453 24.9266 13.589 7.10164 16.8234 9.91304 7.36931 217.884 14.7431 12.5776 10.5098 7.91386 10.0038 6.71138 23.281 8.10319 14.9827 10.5858 6.82927 205.306 28.4836
internal_count=3295 2869 426 2644 2373 278 271 87 225 106 191 119 60 133 82 62 2355 148 132 95 83 106 58 238 58 150 108 65 2223 304
is_linear=0
shrinkage=0.01


Tree=9
num_leaves=31
num_cat=0
split_feature=9 1 1 1 6 3 1 8 1 7 7 0 2 8 7 0 4 9 1 1 1 8 8 1 8 1 8 1 8 8
split_gain=379.327 311.725 114.35 32.3185 26.3751 18.1877 17.5914 14.861 10.7332 9.54244 9.00019 8.73143 8.28652 8.10178 7.41278 6.65895 6.09675 4.53779 4.36788 4.2388 3.74033 3.62341 3.6116 4.66498 3.17543 3.00356 3.00255 2.82305 2.81021 2.51479
threshold=5087.6500000000005 617.50000000000011 165.50000000000003 393.50000000000006 92.868000000000009 14.500000000000002 361.50000000000006 1.2950000000000002 836.00000000000011 -42.349999999999994 -30.749999999999996 31.500000000000004 1.5000000000000002 0.85500000000000009 -46.649999999999999 49.500000000000007 1.0000000180025095e-35 5193.4000000000005 260.50000000000006 138.50000000000003 454.50000000000006 0.87850000000000017 0.74500000000000011 271.50000000000006 1.0395000000000001 88.500000000000014 4.9615000000000009 131.50000000000003 1.4595000000000002 0.76150000000000018
decision_type=2 2 2 2 2 2 2 2 2 2 2 2 2 2 2 2 2 2 2 2 2 2 2 2 2 2 2 2 2 2
left_child=2 3 13 4 -2 22 10 -5 11 -10 16 -3 -11 25 15 18 21 -13 -6 -15 -9 -7 -4 -24 -23 -1 28 -27 -22 -8
right_child=1 8 5 7 14 6 29 20 9 12 -12 17 -14 19 -16 -17 -18 -19 -20 -21 26 24 23 -25 -26 27 -28 -29 -30 -31
leaf_value=0.00085024364178340299 0.025076689923819007 0.035636172195746774 0.051780103209542433 0.020544546822225587 -0.0098251293813483402 0.040474512291439203 0.048916665399208741 -0.0063273118485557235 0.042402399237326464 0.039369255482793138 0.0070701712814473829 0.0089670512135262889 0.017308122668642751 -0.0094192406997473076 -0.010350382503572985 0.01182475064230561 0.018019684501216198 0.02221449793423478 0.0057965014547997932 0.0069038512053993693 0.0067954443816320596 0.018374934579096017 0.031269627491937388 0.048266296716953233 0.034122160346639847 0.022072983007181902 0.0089670512135262889 0.0064427591936278145 -0.0043198390802782335 0.037531011995214004
leaf_weight=2.4780934676527959 2.1788408607244483 3.1589788198471096 4.8466339111328107 3.7441584020853069 7.614730164408682 3.2507999092340416 2.9528987705707532 8.2567357718944567 6.4308664798736572 2.7402347922325117 2.705517500638968 4.4274848252534849 4.4964162856340408 5.8004188165068626 203.61975716799498 2.5979598462581626 4.7357059940695754 6.2158627882599831 2.339834988117218 2.1921116560697556 3.3107161521911603 2.3378977030515671 3.0153701156377792 3.4766637235879898 2.8313799500465393 2.3828104510903358 4.4274848252534857 2.2435676902532578 7.2677048370242119 5.6550941318273544
leaf_count=25 18 24 33 33 83 25 21 88 46 22 25 42 38 63 2223 26 41 53 23 21 32 20 23 24 22 21 42 21 76 41
internal_value=0 -0.0046887 0.0250468 -0.00826529 -0.00954168 0.0347786 0.0299272 0.00205441 0.0272571 0.0335386 0.0236809 0.0210369 0.0256618 0.00196436 -0.00989061 -0.00243239 0.027097 0.0167037 -0.00615324 -0.00494231 -0.000921606 0.0322023 0.0452482 0.0403718 0.0270002 0.00973436 0.00205279 0.0144931 -0.000841102 0.0414368
internal_weight=0 272.828 50.905 245.358 218.351 35.808 24.4693 27.0068 27.4698 13.6675 15.8613 13.8023 7.23665 15.097 216.172 12.5525 13.1558 10.6433 9.95457 7.99253 23.2626 8.42008 11.3387 6.49203 5.16928 7.10447 15.0059 4.62638 10.5784 8.60799
internal_count=3295 2869 426 2644 2373 275 195 271 225 106 133 119 60 151 2355 132 108 95 106 84 238 67 80 47 42 67 150 42 108 62
is_linear=0
shrinkage=0.01


Tree=10
num_leaves=31
num_cat=0
split_feature=9 1 1 1 6 1 8 8 1 7 0 3 0 7 6 8 0 1 1 9 1 1 1 2 8 8 0 9 1 1
split_gain=366.731 302.584 107.566 32.0737 25.7584 17.334 14.3327 13.419 9.97252 8.7839 8.14798 7.98301 7.80668 7.39706 7.03812 6.84856 6.51065 4.51778 4.31603 4.29658 4.07292 3.95623 3.68105 3.03825 2.91999 2.75094 2.67997 4.5593 2.45949 2.45622
threshold=5087.6500000000005 617.50000000000011 163.50000000000003 393.50000000000006 92.868000000000009 236.50000000000003 1.2950000000000002 0.7330000000000001 836.00000000000011 -42.349999999999994 31.500000000000004 14.500000000000002 40.500000000000007 -46.649999999999999 92.681000000000012 0.85500000000000009 49.500000000000007 138.50000000000003 260.50000000000006 5193.4000000000005 198.50000000000003 299.50000000000006 454.50000000000006 1.5000000000000002 4.9615000000000009 1.4595000000000002 49.500000000000007 5000.1500000000005 88.500000000000014 277.00000000000006
decision_type=2 2 2 2 2 2 2 2 2 2 2 2 2 2 2 2 2 2 2 2 2 2 2 2 2 2 2 2 2 2
left_child=2 3 15 4 -2 7 -5 -4 10 -10 -3 23 -11 16 -13 28 18 -17 -6 -12 -9 -16 -8 -7 25 -24 27 -23 -1 -15
right_child=1 8 5 6 13 11 22 20 9 12 19 14 -14 29 21 17 -18 -19 -20 -21 -22 26 24 -25 -26 -27 -28 -29 -30 -31
leaf_value=0.0008411826286774996 0.024382449929089313 0.034426729650812664 0.037811105324581852 0.020032309174055869 -0.0098036827783606097 0.050299129678883142 -0.0062956198184738786 0.023678280473277049 0.040818188446491439 0.012310773845685024 0.0088168206525581511 0.023671513195098248 0.033328419853014005 -0.010775376181714933 0.029752527953489101 -0.0093955537051237988 0.011599392877165016 0.0077588548642524005 0.0057128678815722899 0.021638743832030422 0.0080582068769603846 0.046632669928611994 0.0066924358798287828 0.038004686380228005 0.0088168206525581477 -0.004291263525219499 0.049471073536376801 0.028943253861177087 0.013270509305698706 -0.0075878948543579997
leaf_weight=2.4797307327389699 2.2182677239179602 3.236854791641238 3.8219038322567922 3.801207676529887 7.555372126400469 5.4329448938369769 8.2155241146683711 2.8271615654230118 6.6127098500728607 2.9403573870658857 4.4577424228191358 4.7946181595325497 4.4295662045478821 173.86759798973799 4.0922750011086455 5.7571094557642937 2.621828317642211 2.093493789434433 2.350295178592205 6.3169213011860847 4.0760787054896355 2.8992289379239065 3.3279697895050031 3.1904085427522659 4.4577424228191367 7.2430642247200012 2.9265695363283157 2.9290818646550179 4.4471722468733788 28.079567633569241
leaf_count=25 18 24 29 33 83 36 88 23 46 26 42 38 34 1919 32 63 26 20 23 53 35 21 32 22 42 76 21 21 40 304
internal_value=0 -0.00466122 0.0243797 -0.00823744 -0.00951899 0.0334907 0.0020306 0.0227781 0.0264761 0.0324508 0.0205137 0.0378651 0.0249431 -0.00986963 0.0340106 0.00157361 -0.00241325 -0.00482105 -0.00612211 0.016334 0.0144553 0.0378692 -0.000913272 0.0457505 0.002029 -0.000833379 0.0416632 0.0377427 0.00882099 -0.0103322
internal_weight=0 271.733 51.7678 243.738 216.693 36.9903 27.0455 10.7251 27.9942 13.9826 14.0115 26.2651 7.36992 214.475 17.6418 14.7775 12.5275 7.8506 9.90567 10.7747 6.90324 12.8472 23.2443 8.62335 15.0288 10.571 8.75488 5.82831 6.9269 201.947
internal_count=3295 2869 426 2644 2373 278 271 87 225 106 119 191 60 2355 133 148 132 83 106 95 58 95 238 58 150 108 63 42 65 2223
is_linear=0
shrinkage=0.01


Tree=11
num_leaves=31
num_cat=0
split_feature=9 1 1 1 6 3 1 8 1 7 0 2 7 8 8 7 8 0 0 1 1 9 1 8 1 8 8 1 8 0
split_gain=354.762 293.915 101.319 31.8309 25.17 16.0286 15.7426 13.8299 9.29475 8.11285 7.62114 7.49725 7.38124 6.90068 7.21995 6.9396 6.68491 6.36666 4.73302 4.45113 4.26499 4.07271 3.62269 3.08471 3.927 2.84011 2.69308 2.46395 5.67063 2.45202
threshold=5087.6500000000005 617.50000000000011 163.50000000000003 393.50000000000006 92.868000000000009 14.500000000000002 361.50000000000006 1.2950000000000002 836.00000000000011 -42.349999999999994 31.500000000000004 1.5000000000000002 -46.649999999999999 1.0315000000000001 0.88350000000000006 -30.749999999999996 0.85500000000000009 49.500000000000007 37.500000000000007 138.50000000000003 260.50000000000006 5193.4000000000005 454.50000000000006 0.74500000000000011 271.50000000000006 4.9615000000000009 1.4595000000000002 277.00000000000006 1.2860000000000003 41.500000000000007
decision_type=2 2 2 2 2 2 2 2 2 2 2 2 2 2 2 2 2 2 2 2 2 2 2 2 2 2 2 2 2 2
left_child=2 3 16 4 -2 23 13 -5 10 -10 -3 -11 17 14 15 18 29 20 -7 -18 -6 -12 -9 -4 -25 26 -24 -14 -29 -1
right_child=1 8 5 7 12 6 -8 22 9 11 21 -13 27 -15 -16 -17 19 -19 -20 -21 -22 -23 25 24 -26 -27 -28 28 -30 -31
leaf_value=0.013079698355448529 0.02372280656232989 0.033296857606188307 0.047831679663337942 0.019542086982211652 -0.0097822867776852594 0.035428620680829803 0.038614691897265907 -0.0062639759078777224 0.039353641437934503 0.036969805203971105 0.0086702448817674582 0.016396140812696598 -0.010760382023647683 0.03435850250763333 0.003887728336161419 0.009330200659626196 -0.0093719005100655426 0.011380635413402345 0.019677476967505464 0.007635781019093269 0.0056308425102133243 0.021089166206549281 0.0065915729432517705 0.029371201688494847 0.04458033416428684 0.0086702448817674565 -0.0042627959832519848 0.0086242107614004325 -0.0088132130041973164 0.00069102505017091978
leaf_weight=4.4936173409223539 2.2569514811038962 3.3128328323364284 5.1466257423162443 3.8573099076747921 7.4964735805988294 3.8065696656703931 9.0585954636335355 8.1746618151664752 6.7892993837594986 2.8682306110858899 4.4876201301813108 4.6311858594417572 172.37625369429588 3.6787049844861022 2.5856965929269782 2.8859257251024317 5.7141385227441788 2.6453824788331977 3.8243411481380463 2.1059013903141022 2.3606343865394592 6.4162145629525185 3.3450181484222394 3.1449885666370392 3.6889639794826508 4.4876201301813117 7.2186435610055923 2.0096479132771519 25.901132643222809 2.4789804145693779
leaf_count=42 18 24 33 33 83 29 62 88 46 22 42 38 1919 28 22 26 63 26 31 20 23 53 32 23 24 42 76 20 284 23
internal_value=0 -0.004634 0.023745 -0.00820968 -0.0094964 0.0324238 0.027991 0.00200715 0.0257384 0.0314343 0.0200137 0.0242648 -0.00984874 0.0222563 0.0188585 0.0225392 0.00155591 -0.00239426 0.0275347 -0.00479181 -0.00609107 0.015978 -0.000905014 0.0419845 0.0375811 0.00200555 -0.000825724 -0.0103141 -0.00755767 0.00867513
internal_weight=0 270.635 52.613 242.13 215.046 37.8204 25.8398 27.0833 28.5054 14.2887 14.2167 7.49942 212.79 16.7812 13.1025 10.5168 14.7926 12.5025 7.63091 7.82004 9.85711 10.9038 23.2259 11.9806 6.83395 15.0513 10.5637 200.287 27.9108 6.9726
internal_count=3295 2869 426 2644 2373 278 198 271 225 106 119 60 2355 136 108 86 148 132 60 83 106 95 238 80 47 150 108 2223 304 65
is_linear=0
shrinkage=0.01


Tree=12
num_leaves=31
num_cat=0
split_feature=9 1 1 1 6 1 8 8 1 7 7 0 0 6 8 0 1 0 1 0 1 9 1 1 8 8 0 1 8 1
split_gain=343.424 285.666 95.6306 31.5902 24.6078 15.2045 13.3511 12.0261 8.6823 7.5241 7.36538 7.15285 7.14394 6.77587 6.52547 6.22681 5.11502 5.59008 4.38577 4.31751 4.21472 3.8646 3.73751 3.56524 2.76281 2.63658 2.6154 2.47132 5.59256 2.39714
threshold=5087.6500000000005 617.50000000000011 163.50000000000003 393.50000000000006 92.868000000000009 236.50000000000003 1.2950000000000002 0.7330000000000001 836.00000000000011 -42.349999999999994 -46.649999999999999 40.500000000000007 31.500000000000004 92.928000000000011 0.85500000000000009 49.500000000000007 401.50000000000006 40.500000000000007 138.50000000000003 32.500000000000007 260.50000000000006 5193.4000000000005 198.50000000000003 454.50000000000006 4.9615000000000009 1.4595000000000002 36.500000000000007 277.00000000000006 1.2860000000000003 576.00000000000011
decision_type=2 2 2 2 2 2 2 2 2 2 2 2 2 2 2 2 2 2 2 2 2 2 2 2 2 2 2 2 2 2
left_child=2 3 14 4 -2 7 -5 -4 12 -10 15 -11 -3 26 -1 20 17 19 -16 -15 -6 -14 -9 -8 25 -25 -7 -12 -29 -18
right_child=1 8 5 6 10 13 23 22 9 11 27 -13 21 16 18 -17 29 -19 -20 -21 -22 -23 -24 24 -26 -27 -28 28 -30 -31
leaf_value=0.0085319395509832648 0.023095181020527766 0.032238809185118074 0.03539461801262242 0.019072466152974449 -0.0097609398551836875 0.020383214671940035 -0.0062323800400152099 0.022370045048025099 0.0379955011120756 0.011647593450166588 -0.010745504068629359 0.031451981791258431 0.0085271978705213757 0.033393244635017527 -0.0093482794145223255 0.011168196464975211 0.050808743992811094 0.027169992115292679 0.0075154610534982841 0.049869338254454346 0.005550383356424219 0.020563986439624999 0.0076216531034446564 0.0064927927949011846 0.008527197870521374 -0.0042344360367545311 0.032206592116987579 0.0084810096826213148 -0.0087869553307135008 0.0396149013085303
leaf_weight=7.0183811336755735 2.2949079573154441 3.386959075927737 4.0048072114586812 3.912482991814616 7.4380326494574529 3.0894807726144817 8.1341475546360034 2.9280990362167358 6.9607744067907333 3.0174749791622144 170.89619009941816 4.6098033487796783 4.517122954130171 3.5200963020324725 5.6715050786733627 2.6686270833015433 3.6351910233497611 5.6041218191385269 2.1181578934192657 2.9013824611902237 2.3708541542291641 6.5137767642736435 4.1586922407150269 3.3618643283843976 4.5171229541301718 7.1944412738084793 4.7434434667229652 2.0230767950415638 25.71965691447258 4.0383568704128265
leaf_count=65 18 24 29 33 83 23 88 23 46 26 1919 34 42 25 63 26 23 40 20 20 23 53 35 32 42 76 34 20 284 26
internal_value=0 -0.00460702 0.0231445 -0.00818203 -0.00947393 0.0314281 0.00198405 0.021543 0.0250387 0.0304778 -0.00982796 0.023617 0.0195354 0.0354105 0.00153839 -0.00237542 0.0385387 0.0344682 -0.00476271 0.0408376 -0.00606012 0.015635 0.0137153 -0.000896828 0.00198242 -0.000818138 0.0275432 -0.0102961 -0.00752773 0.0449178
internal_weight=0 269.537 53.4317 240.531 213.411 38.6237 27.1201 11.0916 29.0059 14.5881 211.116 7.62728 14.4179 27.5321 14.808 12.4775 19.6991 12.0256 7.78966 6.42148 9.80889 11.0309 7.08679 23.2076 15.0734 10.5563 7.83292 198.639 27.7427 7.67355
internal_count=3295 2869 426 2644 2373 278 271 87 225 106 2355 60 119 191 148 132 134 85 83 45 106 95 58 238 150 108 57 2223 304 49
is_linear=0
shrinkage=0.01


Tree=13
num_leaves=31
num_cat=0
split_feature=9 1 1 1 6 3 1 8 1 7 7 8 7 2 0 0 4 1 7 5 1 1 9 1 8 8 1 1 8 1
split_gain=332.615 277.817 90.3999 31.3514 24.0699 14.041 13.6137 12.8946 8.13302 7.68532 7.34941 7.34505 6.99805 6.82971 6.79367 6.09091 5.13681 4.16521 4.06705 5.29886 3.98093 3.50868 3.09961 2.73751 2.68799 2.65993 3.35041 2.65418 2.5814 2.47873
threshold=5087.6500000000005 617.50000000000011 165.50000000000003 393.50000000000006 92.868000000000009 14.500000000000002 361.50000000000006 1.2950000000000002 836.00000000000011 -30.749999999999996 -46.649999999999999 0.85500000000000009 -42.349999999999994 1.5000000000000002 34.500000000000007 49.500000000000007 1.0000000180025095e-35 260.50000000000006 -42.349999999999994 1.2500000000000002 138.50000000000003 454.50000000000006 5020.5000000000009 88.500000000000014 4.9615000000000009 0.74500000000000011 271.50000000000006 131.50000000000003 1.4595000000000002 277.00000000000006
decision_type=2 2 2 2 2 2 2 2 2 2 2 2 2 2 2 2 2 2 2 2 2 2 2 2 2 2 2 2 2 2
left_child=2 3 11 4 -2 25 9 -5 14 16 15 23 -10 -14 -3 17 22 -6 -16 -20 -13 -9 -7 -1 28 -4 -27 -25 -23 -12
right_child=1 8 5 7 10 6 -8 21 12 -11 29 20 13 -15 18 -17 -18 -19 19 -21 -22 24 -24 27 -26 26 -28 -29 -30 -31
leaf_value=0.0006403254728186143 0.022497254741638252 0.02821019672866525 0.044618211772248478 0.018622153701101245 -0.0097396402669522042 0.034512257628524161 0.036082572411091217 -0.0062008318235297222 0.036732399267680939 0.0061153202969829899 -0.010730740042705805 -0.0093246884473889517 0.034846115258553245 0.01556375234535177 0.0046077250561108504 0.010961806692407235 0.016051701292794839 0.0054714482340036353 0.0098220389446204513 0.028199656076966985 0.0064223379507398507 0.0063960340922314621 0.022849349050517925 0.020716286361591819 0.0083875545334972223 0.027845546994461522 0.041603330228753836 0.0058243507991702758 -0.0042061856144003104 -0.007497825485813429
leaf_weight=2.516489349305628 2.3321515023708335 5.2302730008959797 5.41631270945072 3.9667446464300182 7.3800468817353231 4.5160742849111539 9.5004120469093305 8.0939786136150378 7.1272700428962708 2.8374678790569368 169.42736499756575 5.6292072460055351 2.9909925162792188 4.7604848891496658 3.0970728471875182 2.6915666460990897 5.0461903885006896 2.3809558525681496 3.281837783753871 3.0059942007064819 2.2459470853209496 3.3785107135772687 4.5996260866522789 2.4768889248371124 4.5462568402290335 3.2566248178482056 3.8779465109109879 2.3158029243350029 7.1704559922218323 27.575971014797688
leaf_count=25 18 39 33 33 83 33 62 88 46 25 1919 63 22 38 27 26 41 23 29 24 21 32 34 21 42 23 24 21 76 304
internal_value=0 -0.00458029 0.022571 -0.00815446 -0.00945153 0.0306216 0.0264949 0.00196129 0.0243758 0.0211367 -0.00980726 0.00186673 0.0295803 0.0230041 0.0190774 -0.00235673 0.0241464 -0.00602927 0.0139877 0.0186077 -0.00483373 -0.000888716 0.0286274 0.00908602 0.00195961 0.0393346 0.0353235 0.0135206 -0.00081062 -0.0102782
internal_weight=0 268.438 54.235 238.944 211.788 39.0507 26.4998 27.1559 29.4939 16.9994 209.456 15.1843 14.8787 7.75148 14.6152 12.4526 14.1619 9.761 9.3849 6.28783 7.87515 23.1892 9.1157 7.30918 15.0952 12.5509 7.13457 4.79269 10.549 197.003
internal_count=3295 2869 426 2644 2373 275 195 271 225 133 2355 151 106 60 119 132 108 106 80 53 84 238 67 67 150 80 47 42 108 2223
is_linear=0
shrinkage=0.01


Tree=14
num_leaves=31
num_cat=0
split_feature=9 1 1 1 6 3 1 8 1 0 7 2 0 7 8 8 8 7 0 1 1 0 1 0 0 8 8 1 8 7
split_gain=322.364 270.319 85.62 31.1141 23.5546 13.409 12.9915 12.4591 7.6527 8.96653 7.33323 7.04261 8.58937 17.0718 6.20899 6.67289 6.208 5.98347 5.95883 4.26427 4.11644 4.0874 3.45299 3.19963 4.90268 2.61554 2.52752 2.48672 5.54917 2.48286
threshold=5087.6500000000005 617.50000000000011 163.50000000000003 393.50000000000006 92.868000000000009 14.500000000000002 361.50000000000006 1.2950000000000002 814.50000000000011 31.500000000000004 -46.649999999999999 1.5000000000000002 46.500000000000007 -42.349999999999994 1.0315000000000001 0.88350000000000006 0.85500000000000009 -30.749999999999996 49.500000000000007 138.50000000000003 260.50000000000006 37.500000000000007 454.50000000000006 49.500000000000007 41.500000000000007 4.9615000000000009 1.4595000000000002 277.00000000000006 1.2860000000000003 -39.899999999999991
decision_type=2 2 2 2 2 2 2 2 2 2 2 2 2 2 2 2 2 2 2 2 2 2 2 2 2 2 2 2 2 2
left_child=2 3 16 4 -2 29 14 -5 9 -3 18 -10 13 -13 15 17 -1 21 20 -18 -6 -7 -9 24 -11 26 -24 -12 -29 -4
right_child=1 8 5 7 10 6 -8 22 11 23 27 12 -14 -15 -16 -17 19 -19 -20 -21 -22 -23 25 -25 -26 -27 -28 28 -30 -31
leaf_value=0.0082440567880747162 0.021926917584705521 0.033239964680099904 0.032034212218161634 0.018189961221710779 -0.0097183846183915325 0.032356071049935271 0.034932799160050862 -0.0061693322639815749 0.03740225438688119 0.016266194492560219 -0.010716087610972156 0.030830629318343614 0.037936387561777078 0.00062188817974135919 0.031677541272015719 0.0032266755808844708 -0.0093011265751736499 0.0086745204259405205 0.010761213520639126 0.0072978641871004456 0.0053939983211068899 0.018115304084572518 0.0063012386060741638 0.023621317545892331 -0.00031550658637120816 0.0082511977288612127 -0.0041780434471490532 0.0084647523317018074 -0.0087382736214679426 0.041255839110115135
leaf_weight=7.1112719997763616 2.3686974048614493 3.0825915187597301 4.4860763400793067 4.0201114043593433 7.3225150853395444 4.0538846254348737 9.7138746082782728 8.054152540862562 5.6460209637880352 5.3775376304984075 167.96974780410528 4.3926265388727215 2.9971666634082794 3.2584705054759935 3.8906071484088889 2.6849072203040114 5.5872431471943855 2.9710835963487687 2.7142059355974189 2.140645831823349 2.3909410238265991 4.0083340778946877 3.3949601650238019 2.5507724508643141 2.6676467731595039 4.5750264823436728 7.1466861888766289 2.0246114954352405 25.38673523068428 8.3619578629732114
leaf_count=65 18 21 28 33 83 29 62 88 39 45 1919 28 21 27 28 22 63 26 26 20 23 31 32 21 23 42 76 20 284 52
internal_value=0 -0.00455373 0.0220281 -0.00812693 -0.00942916 0.0296106 0.0256488 0.00193887 0.0237441 0.0182291 -0.00978657 0.0283737 0.0235865 0.0179652 0.0205273 0.0173649 0.00150145 0.0208054 -0.00233818 -0.00470316 -0.00599851 0.0252759 -0.000880677 0.0138622 0.010768 0.00193712 -0.000803168 -0.0102603 -0.00746765 0.038036
internal_weight=0 267.341 55.0099 237.368 210.177 40.1707 27.3227 27.1909 29.9728 13.6785 207.809 16.2943 10.6483 7.6511 17.6088 13.7182 14.8392 11.0333 12.4277 7.72789 9.71346 8.06222 23.1708 10.596 8.04518 15.1167 10.5416 195.381 27.4113 12.848
internal_count=3295 2869 426 2644 2373 278 198 271 225 110 2355 115 76 55 136 108 148 86 132 83 106 60 238 89 68 150 108 2223 304 80
is_linear=0
shrinkage=0.01


Tree=15
num_leaves=31
num_cat=0
split_feature=9 1 1 1 6 1 8 8 7 1 7 0 6 0 0 6 1 0 0 1 1 7 5 8 1 1 1 0 0 8
split_gain=312.583 263.164 81.1839 30.879 23.0604 12.8294 12.0432 10.6135 7.31704 7.21953 6.18842 6.21607 6.09789 6.02788 5.8304 5.81504 4.1794 7.27909 4.27427 4.19916 4.06838 3.82026 4.85086 3.59751 6.03693 3.39817 3.38306 3.24999 2.89171 2.54538
threshold=5087.6500000000005 617.50000000000011 163.50000000000003 393.50000000000006 92.868000000000009 236.50000000000003 1.2950000000000002 0.7330000000000001 -46.649999999999999 836.00000000000011 -42.349999999999994 40.500000000000007 94.041000000000011 34.500000000000007 49.500000000000007 92.405000000000015 322.50000000000006 48.500000000000007 29.500000000000004 277.00000000000006 260.50000000000006 -42.349999999999994 1.2500000000000002 0.85500000000000009 120.50000000000001 454.50000000000006 198.50000000000003 41.500000000000007 41.500000000000007 4.9615000000000009
decision_type=2 2 2 2 2 2 2 2 2 2 2 2 2 2 2 2 2 2 2 2 2 2 2 2 2 2 2 2 2 2
left_child=2 3 12 4 -2 7 -5 -4 14 13 -11 -12 23 -3 20 -7 17 19 -18 -17 -6 -15 -23 28 -25 -8 -9 -20 -1 -27
right_child=1 9 5 6 8 15 25 26 -10 10 11 -13 -14 21 -16 16 18 -19 27 -21 -22 22 -24 24 -26 29 -28 -29 -30 -31
leaf_value=0.014594453192508849 0.021382261770268349 0.026621763869900578 0.032479692777798358 0.017774797927797591 -0.0096971719011239282 0.020968246509736593 -0.0061378808736307555 0.02064882249834421 -0.010242610959900167 0.034511827476556206 0.010814001689901829 0.028889238977477975 -0.011195723355231137 0.0043806457945862864 0.010566178349355438 0.042147120765440395 0.027046631314139428 0.015589632475279606 0.046184761439705575 0.026192220940937979 0.0053179929063969155 0.0094613186722455282 0.026830962944926751 -0.011080818350592492 0.010660241979532564 -0.00079578281276636623 0.0069067199487773245 0.035771793758407958 0.00089718141856781207 0.0081180166119770251
leaf_weight=4.2198732346296293 2.404559612274169 5.4294590950012234 4.2464386746287328 4.0726001486182239 7.2654341459274274 3.91882545500994 8.0146672651171702 3.0707966089248657 193.77051669359207 7.4373282343149185 3.1191441267728788 4.8781623393297195 3.0210281088948241 3.1359560489654532 2.736549198627471 3.4878633916378039 3.287628546357154 2.8948758542537689 4.9290395677089673 3.1298418790102005 2.4008113816380501 3.3332189992070189 3.1060718446969986 2.9048442989587784 2.2793678715825081 10.534345112740992 4.2999445572495461 7.6480424329638481 2.4281878620386124 4.6034372001886359
leaf_count=38 18 39 29 33 83 27 88 23 2223 46 26 34 32 27 26 23 21 21 30 22 23 29 24 33 23 108 35 47 22 42
internal_value=0 -0.00452746 0.0215096 -0.00809951 -0.00940691 0.0287794 0.00191678 0.0198869 -0.009766 0.023144 0.0279458 0.0218395 0.00148474 0.0182046 -0.00231978 0.0323057 0.0340565 0.0288156 0.0371989 0.0346013 -0.00596785 0.0134318 0.0178398 0.00472232 -0.00152182 -0.000872709 0.012632 0.0398527 0.00959156 0.00191493
internal_weight=0 266.242 55.7666 235.803 208.578 40.9133 27.225 11.6172 206.173 30.4393 15.4346 7.99731 14.8533 15.0047 12.4028 29.2961 25.3773 9.51258 15.8647 6.61771 9.66625 9.57525 6.43929 11.8323 5.18421 23.1524 7.37074 12.5771 6.64806 15.1378
internal_count=3295 2869 426 2644 2373 278 271 87 2355 225 106 60 148 119 132 191 164 66 98 45 106 80 53 116 56 238 58 77 60 150
is_linear=0
shrinkage=0.01


Tree=16
num_leaves=31
num_cat=0
split_feature=9 1 1 1 6 3 8 1 7 1 0 2 0 7 6 8 8 0 7 1 0 8 1 1 0 0 0 1 8 8
split_gain=303.231 256.325 77.0743 30.6459 22.5859 12.1851 11.6457 11.6019 7.30057 6.81131 8.12465 6.44861 7.74048 15.6217 6.00088 5.72319 6.16143 5.7055 5.53817 4.02104 3.64901 3.49232 5.92719 3.34423 2.99773 4.56743 2.78154 2.51603 5.51809 2.47739
threshold=5087.6500000000005 617.50000000000011 163.50000000000003 393.50000000000006 92.868000000000009 14.500000000000002 1.2950000000000002 361.50000000000006 -46.649999999999999 814.50000000000011 31.500000000000004 1.5000000000000002 46.500000000000007 -42.349999999999994 94.041000000000011 1.0315000000000001 0.88350000000000006 49.500000000000007 -30.749999999999996 260.50000000000006 37.500000000000007 0.85500000000000009 120.50000000000001 454.50000000000006 49.500000000000007 41.500000000000007 41.500000000000007 277.00000000000006 1.2860000000000003 4.9615000000000009
decision_type=2 2 2 2 2 2 2 2 2 2 2 2 2 2 2 2 2 2 2 2 2 2 2 2 2 2 2 2 2 2
left_child=2 3 14 4 -2 -4 -5 15 17 10 -3 -11 13 -13 21 16 18 19 20 -6 -7 26 -23 -8 25 -12 -1 -10 -29 -25
right_child=1 9 5 6 8 7 23 -9 27 11 24 12 -14 -15 -16 -17 -18 -19 -20 -21 -22 22 -24 29 -26 -27 -28 28 -30 -31
leaf_value=0.014292119576840687 0.020861551274456651 0.031415328086390519 0.035855647194846567 0.017375657004600066 -0.0096759992262511873 0.030459728576214668 -0.0061064783727820581 0.032847711033225112 -0.010687726393198371 0.03530970292383933 0.015511119424869158 0.029012743133957308 0.035627576035027586 0.0004490321476594208 -0.011182445122178213 0.029985548990167615 0.0029725588134908586 0.010376474726071757 0.0081611820266779319 0.0052433966656409 0.017230331007142968 -0.011068907798414285 0.010466593854903387 -0.00078831635281494789 0.022587516681140962 -0.00039560367189631242 0.00088761316402511444 0.0084941590734940089 -0.0086812513311668171 0.0079879049782011022
leaf_weight=4.2658139616250974 2.4397520720958701 3.2017596960067776 13.374981492757795 4.1242275387048748 7.2088028490543348 4.2215023487806302 7.9755208715796497 10.122477084398268 165.14928944408894 5.8763389289379147 5.5149403363466245 4.5673701316118267 3.1322201043367386 3.2967036217451051 2.9945021718740454 4.035818636417388 2.7245166152715674 2.7586010694503775 3.0407899022102418 2.4105681255459785 4.1195306926965714 2.8790196776390076 2.2982282787561417 10.527808971703051 2.6225433498620978 2.6834900304675102 2.4298128485679626 2.0218369811773327 25.002632588148117 4.631494313478469
leaf_count=38 18 21 80 33 83 29 88 62 1919 39 45 28 21 27 32 28 22 26 26 23 31 33 23 108 21 23 22 20 284 42
internal_value=0 -0.00450132 0.0210132 -0.00807207 -0.00938465 0.0279918 0.00189499 0.0242706 -0.0097454 0.0225723 0.0174219 0.0268528 0.0223335 0.0170385 0.00146801 0.0194849 0.0164807 -0.00230153 0.0197142 -0.00593727 0.0239259 0.00465863 -0.0015091 -0.000864742 0.0132814 0.0103046 0.00942768 -0.0102249 -0.00739627 0.00189301
internal_weight=0 265.146 56.507 234.251 206.991 41.6396 27.2591 28.2646 204.552 30.8954 14.0227 16.8726 10.9963 7.86407 14.8674 18.1422 14.1063 12.378 11.3818 9.61937 8.34103 11.8729 5.17725 23.1348 10.821 8.19843 6.69563 192.174 27.0245 15.1593
internal_count=3295 2869 426 2644 2373 278 271 198 2355 225 110 115 76 55 148 136 108 132 86 106 60 116 56 238 89 68 60 2223 304 150
is_linear=0
shrinkage=0.01


end of trees

feature_importances:
Column_1=182
Column_8=112
Column_0=63
Column_7=49
Column_9=32
Column_6=24
Column_3=17
Column_2=15
Column_5=9
Column_4=7

parameters:
[boosting: gbdt]
[objective: binary]
[metric: auc]
[tree_learner: serial]
[device_type: cpu]
[data: ]
[valid: ]
[num_iterations: 100]
[learning_rate: 0.01]
[num_leaves: 31]
[num_threads: 0]
[deterministic: 0]
[force_col_wise: 0]
[force_row_wise: 0]
[histogram_pool_size: -1]
[max_depth: -1]
[min_data_in_leaf: 20]
[min_sum_hessian_in_leaf: 0.001]
[bagging_fraction: 1]
[pos_bagging_fraction: 1]
[neg_bagging_fraction: 1]
[bagging_freq: 0]
[bagging_seed: 3]
[feature_fraction: 1]
[feature_fraction_bynode: 1]
[feature_fraction_seed: 2]
[extra_trees: 0]
[extra_seed: 6]
[early_stopping_round: 0]
[first_metric_only: 0]
[max_delta_step: 0]
[lambda_l1: 0]
[lambda_l2: 0]
[linear_lambda: 0]
[min_gain_to_split: 0]
[drop_rate: 0.1]
[max_drop: 50]
[skip_drop: 0.5]
[xgboost_dart_mode: 0]
[uniform_drop: 0]
[drop_seed: 4]
[top_rate: 0.2]
[other_rate: 0.1]
[min_data_per_group: 100]
[max_cat_threshold: 32]
[cat_l2: 10]
[cat_smooth: 10]
[max_cat_to_onehot: 4]
[top_k: 20]
[monotone_constraints: ]
[monotone_constraints_method: basic]
[monotone_penalty: 0]
[feature_contri: ]
[forcedsplits_filename: ]
[refit_decay_rate: 0.9]
[cegb_tradeoff: 1]
[cegb_penalty_split: 0]
[cegb_penalty_feature_lazy: ]
[cegb_penalty_feature_coupled: ]
[path_smooth: 0]
[interaction_constraints: ]
[verbosity: 1]
[saved_feature_importance_type: 0]
[linear_tree: 0]
[max_bin: 255]
[max_bin_by_feature: ]
[min_data_in_bin: 3]
[bin_construct_sample_cnt: 200000]
[data_random_seed: 1]
[is_enable_sparse: 1]
[enable_bundle: 1]
[use_missing: 1]
[zero_as_missing: 0]
[feature_pre_filter: 1]
[pre_partition: 0]
[two_round: 0]
[header: 0]
[label_column: ]
[weight_column: ]
[group_column: ]
[ignore_column: ]
[categorical_feature: ]
[forcedbins_filename: ]
[precise_float_parser: 0]
[objective_seed: 5]
[num_class: 1]
[is_unbalance: 0]
[scale_pos_weight: 1]
[sigmoid: 1]
[boost_from_average: 1]
[reg_sqrt: 0]
[alpha: 0.9]
[fair_c: 1]
[poisson_max_delta_step: 0.7]
[tweedie_variance_power: 1.5]
[lambdarank_truncation_level: 30]
[lambdarank_norm: 1]
[label_gain: ]
[eval_at: ]
[multi_error_top_k: 1]
[auc_mu_weights: ]
[num_machines: 1]
[local_listen_port: 12400]
[time_out: 120]
[machine_list_filename: ]
[machines: ]
[gpu_platform_id: -1]
[gpu_device_id: -1]
[gpu_use_dp: 0]
[num_gpu: 1]

end of parameters

pandas_categorical:null
